tree
version=v3
num_class=1
num_tree_per_iteration=1
label_index=0
max_feature_idx=13
objective=regression
feature_names=target_amount method category images twitter_existence twitter_friends twitter_followers facebook_existence instagram_existence web_page_existence period start_date_day title_len description_len
feature_infos=[9.2103403719761836:17.72753356339242] [1985631.3357879233:4239357.1347083673] [286057.05313593999:13070393.045812184] [0:110] [0:1] [-inf:9.8267684821227235] [-inf:12.778398742736679] [0:1] [0:1] [0:1] [3:46] [1:30] [9:40] [53:25710]
tree_sizes=1120 1299 1131 1210 1288 1292 1206 1368 1533 1540 1454 1540 1542 1551 1541 1542 1539 1547 1543 1541 1536 1539 1536 1547 1539 1546 1549 1543 1543 1537 1543 1546 1540 1541 1541 1540 1545 1543 1549 1547

Tree=0
num_leaves=12
num_cat=0
split_feature=0 13 0 13 6 10 10 0 13 9 13
split_gain=6.25325e+15 3.90653e+15 3.13626e+14 1.2333e+14 3.24217e+13 2.64945e+13 3.04596e+13 1.82704e+13 1.30579e+13 8.05198e+12 7.12425e+11
threshold=15.260696436912358 4263.5000000000009 14.455977480695308 2062.5000000000005 7.4860299693526073 36.500000000000007 29.500000000000004 14.114928808508628 3424.0000000000005 1.0000000180025095e-35 2311.5000000000005
decision_type=2 2 2 2 10 2 2 2 2 2 2
left_child=2 -2 7 9 5 6 -5 8 -1 -4 -9
right_child=1 -3 3 4 -6 -7 -8 10 -10 -11 -12
leaf_value=2048071.8068119874 2371056.2752812514 3999008.7151031028 2087170.1298919658 2203674.5372416954 2374094.4905009866 2166078.9185369546 2329333.0367301269 2126734.3377983272 2111333.372755243 2165968.6432028883 2172666.2761375592
leaf_weight=322 34 20 31 34 21 24 36 20 94 38 27
leaf_count=322 34 20 31 34 21 24 36 20 94 38 27
internal_value=0 9.4861e+06 -915881 182935 794353 450056 737136 -1.34752e+06 -1.41937e+06 -809226 -581332
internal_weight=0 54 647 184 115 94 70 463 416 69 47
internal_count=701 54 647 184 115 94 70 463 416 69 47
shrinkage=1


Tree=1
num_leaves=14
num_cat=0
split_feature=13 13 6 2 13 6 3 13 6 13 11 10 12
split_gain=3.40315e+15 5.48771e+14 6.33619e+14 8.55256e+13 8.45813e+13 5.06272e+13 7.04402e+13 4.17019e+13 1.38673e+13 6.35037e+12 6.76965e+12 3.08746e+12 4.12172e+10
threshold=7779.5000000000009 3685.0000000000005 7.778989468790348 2057696.9274216248 2572.5000000000005 3.700615632206508 16.500000000000004 2681.0000000000005 6.9574901283903534 1935.5000000000002 25.500000000000004 32.500000000000007 30.500000000000004
decision_type=2 2 10 2 2 10 2 2 10 2 2 2 2
left_child=1 4 3 -3 9 6 -5 -6 11 -1 -11 12 -9
right_child=-2 2 -4 5 7 -7 -8 8 -10 10 -12 -13 -14
leaf_value=-126226.23530878546 1056451.6316397584 -83329.316012789976 540603.0970212816 204843.04136010574 82827.475126707912 -24540.30177264243 -1359.5716921605256 -35109.971884092156 17828.749119405555 -92759.393199253915 -24110.406123553112 -28612.051428107221 -86611.059312901154
leaf_weight=265 20 41 20 33 22 30 27 20 23 97 26 38 39
leaf_count=265 20 41 20 33 22 30 27 20 23 97 26 38 39
internal_value=0 -425974 1.20628e+06 246954 -903894 771245 1.24405e+06 -224653 -463710 -1.14132e+06 -809828 -618233 -763592
internal_weight=0 681 151 131 530 90 60 142 120 388 123 97 59
internal_count=701 681 151 131 530 90 60 142 120 388 123 97 59
shrinkage=0.1


Tree=2
num_leaves=12
num_cat=0
split_feature=0 13 0 13 1 2 10 0 11 9 0
split_gain=5.21052e+15 3.23449e+15 2.44967e+14 8.28839e+13 2.34066e+13 4.41206e+13 5.23332e+13 1.48085e+13 1.05647e+13 8.07534e+12 1.45083e+12
threshold=15.260696436912358 4263.5000000000009 14.455977480695308 2062.5000000000005 2332130.4596937005 1938405.3128420983 34.500000000000007 14.114928808508628 21.500000000000004 1.0000000180025095e-35 13.49333204976902
decision_type=2 2 2 2 2 2 2 2 2 2 2
left_child=2 -2 7 9 5 -5 -7 10 -6 -4 -1
right_child=1 -3 3 4 8 6 -8 -9 -10 -11 -12
leaf_value=-138294.4642937287 158861.60735899446 1641980.3346729039 -96565.322328972892 -15784.997057786066 -34158.145676607368 218865.55848338094 18015.672784361595 -49878.092554489944 48790.065370581578 -23859.191683239005 -100060.64024158008
leaf_weight=236 34 20 31 22 23 27 23 47 20 38 180
leaf_count=236 34 20 31 22 23 27 23 47 20 38 180
internal_value=0 8.69769e+06 -797520 173093 673461 989118 1.43904e+06 -1.17903e+06 62495 -641661 -1.2432e+06
internal_weight=0 54 647 184 115 72 50 463 43 69 416
internal_count=701 54 647 184 115 72 50 463 43 69 416
shrinkage=0.1


Tree=3
num_leaves=13
num_cat=0
split_feature=0 5 0 13 12 2 6 0 2 11 0 13
split_gain=4.49019e+15 2.97796e+15 2.02184e+14 7.08306e+13 2.78063e+13 2.6448e+13 1.73454e+13 1.16807e+13 7.78489e+12 7.08715e+12 2.19847e+12 3.65846e+11
threshold=15.260696436912358 7.9998462240189836 14.455977480695308 2062.5000000000005 32.500000000000007 2503959.1109853452 6.4440857588400737 14.114928808508628 2786695.9843750005 21.500000000000004 13.091425675545286 2311.5000000000005
decision_type=2 8 2 2 2 2 10 2 2 2 2 2
left_child=2 -2 7 8 6 -6 9 10 -4 -5 -1 -9
right_child=1 -3 3 4 5 -7 -8 11 -10 -11 -12 -13
leaf_value=-133054.40928288674 1549575.3882334605 133271.37940347879 -78939.709107286253 -53278.888534825121 25639.054066080236 174354.1621891493 72500.993608544799 -58831.063483499136 -6018.3689958885752 15597.77782372848 -96240.166502863998 -23350.214839160573
leaf_weight=153 20 34 47 21 25 23 23 20 22 23 263 27
leaf_count=153 20 34 47 21 25 23 23 20 22 23 263 27
internal_value=0 8.09426e+06 -720237 161372 623879 1.1374e+06 161546 -1.06685e+06 -591897 -208586 -1.12413e+06 -457196
internal_weight=0 54 647 184 115 48 67 463 69 44 416 47
internal_count=701 54 647 184 115 48 67 463 69 44 416 47
shrinkage=0.1


Tree=4
num_leaves=14
num_cat=0
split_feature=0 13 0 13 12 2 6 0 13 9 11 0 13
split_gain=3.87101e+15 2.89956e+15 1.67844e+14 6.03215e+13 2.40079e+13 2.28477e+13 1.49894e+13 8.94199e+12 7.8336e+12 7.24919e+12 6.13447e+12 4.54975e+12 2.6929e+12
threshold=15.260696436912358 4263.5000000000009 14.455977480695308 2062.5000000000005 32.500000000000007 2503959.1109853452 6.4440857588400737 13.762830300135363 1923.5000000000002 1.0000000180025095e-35 21.500000000000004 14.114928808508628 3424.0000000000005
decision_type=2 2 2 2 2 2 10 2 2 2 2 2 2
left_child=2 -2 7 9 6 -6 10 -1 -9 -4 -5 12 -10
right_child=1 -3 3 4 5 -7 -8 8 11 -11 -12 -13 -14
leaf_value=-112048.41923085669 96775.96793205713 1482527.5454521817 -84534.188403366206 -49595.121250594078 23774.265458816473 161966.70037558084 67349.965186598434 -97726.468901346379 -73768.597659205421 -17768.206497180909 14489.591122324913 -12812.23232356173 -25015.344133285515
leaf_weight=255 34 20 31 21 25 23 23 89 57 38 23 32 30
leaf_count=255 34 20 31 21 25 23 23 89 57 38 23 32 30
internal_value=0 7.53372e+06 -650522 152499 579187 1.05634e+06 149665 -966342 -737205 -542867 -194344 -499422 -610250
internal_weight=0 54 647 184 115 48 67 463 208 69 44 119 87
internal_count=701 54 647 184 115 48 67 463 208 69 44 119 87
shrinkage=0.1


Tree=5
num_leaves=14
num_cat=0
split_feature=0 2 0 13 12 1 13 5 0 2 13 0 10
split_gain=3.34009e+15 2.79427e+15 1.39253e+14 5.16689e+13 2.07284e+13 2.38473e+13 1.36867e+13 1.92514e+13 7.11858e+12 6.54885e+12 4.57612e+12 6.56807e+12 4.04415e+12
threshold=15.260696436912358 2439001.6520908172 14.455977480695308 2062.5000000000005 32.500000000000007 2199808.8339584065 3039.5000000000005 1.2424533248940004 13.091425675545286 2786695.9843750005 1923.5000000000002 14.114928808508628 35.500000000000007
decision_type=2 2 2 2 2 2 2 10 2 2 2 2 2
left_child=2 -2 8 9 6 -6 -5 -8 12 -4 -10 -12 -1
right_child=1 -3 3 4 5 -7 7 -9 10 -11 11 -13 -14
leaf_value=-119417.62868948512 1393910.8565565627 49851.235651541647 -68152.751208609625 -41910.420900647754 157391.74135579137 19526.971223754121 -15475.337728653214 98025.97493728665 -91657.347763142432 -2647.8099141607845 -65564.719309859691 -11821.259095613163 -48373.888362177866
leaf_weight=125 21 33 47 21 22 26 26 20 128 22 150 32 28
leaf_count=125 21 33 47 21 22 26 26 20 128 22 150 32 28
internal_value=0 7.01392e+06 -588406 142856 537695 981045 138655 421124 -876084 -500815 -736742 -571571 -1.09959e+06
internal_weight=0 54 647 184 115 48 67 46 463 69 310 182 153
internal_count=701 54 647 184 115 48 67 46 463 69 310 182 153
shrinkage=0.1


Tree=6
num_leaves=13
num_cat=0
split_feature=0 13 0 13 1 2 9 10 0 3 13 0
split_gain=2.87917e+15 2.80921e+15 1.16266e+14 4.54505e+13 2.38474e+13 3.33468e+13 8.22602e+12 1.40718e+13 6.2205e+12 6.47148e+12 4.01073e+12 3.8356e+12
threshold=15.260696436912358 4263.5000000000009 14.455977480695308 2598.5000000000005 2332130.4596937005 2439001.6520908172 1.0000000180025095e-35 31.500000000000004 13.357364692026948 26.500000000000004 1923.5000000000002 14.114928808508628
decision_type=2 2 2 2 2 2 2 2 2 2 2 2
left_child=2 -2 8 6 5 -5 -4 -8 9 -1 -10 -12
right_child=1 -3 3 4 -6 -7 7 -9 10 -11 11 -13
leaf_value=-101864.9275652897 26403.330747120304 1369035.1004365475 -64384.246605194377 1870.2535946126261 -3975.7244116417833 150781.75846924059 43568.706702628522 -45526.920082125464 -79984.703874145052 -38826.314833863034 -54035.345215031914 -10906.934362554573
leaf_weight=192 34 20 39 24 36 32 23 30 100 35 104 32
leaf_count=192 34 20 39 24 36 32 23 30 100 35 104 32
internal_value=0 6.52606e+06 -532280 135683 603739 963806 -344917 -61257.7 -795159 -940703 -624581 -452450
internal_weight=0 54 647 184 92 56 92 53 463 227 236 136
internal_count=701 54 647 184 92 56 92 53 463 227 236 136
shrinkage=0.1


Tree=7
num_leaves=15
num_cat=0
split_feature=0 5 0 13 3 2 13 0 3 13 0 13 13 3
split_gain=2.4883e+15 2.78612e+15 9.63828e+13 3.95916e+13 2.8731e+13 2.05326e+13 1.51643e+13 5.74489e+12 7.7145e+12 3.31954e+12 4.17405e+12 4.07209e+11 1.06229e+13 1.51908e+11
threshold=15.260696436912358 7.9998462240189836 14.455977480695308 3685.0000000000005 13.500000000000002 2900268.1343482914 5603.5000000000009 13.091425675545286 29.500000000000004 1923.5000000000002 14.114928808508628 3424.0000000000005 4029.5000000000005 5.5000000000000009
decision_type=2 8 2 2 2 2 2 2 2 2 2 2 2 2
left_child=2 -2 7 4 5 13 -5 8 -1 -9 11 -11 -13 -4
right_child=1 -3 3 6 -6 -7 -8 9 -10 10 -12 12 -14 -15
leaf_value=-101042.45303847104 1321364.0540309763 -6511.788340399271 -66930.691898784557 116280.10338069378 70855.372208887929 35265.43248083548 9707.2533653543342 -75218.244598411111 -26036.959175608084 -60784.433526464891 -10063.329517050894 19391.488971023722 -60810.545953241693 -30366.316618138968
leaf_weight=129 20 34 60 30 21 23 23 128 24 93 32 20 37 27
leaf_count=129 20 34 60 30 21 23 23 128 24 93 32 20 37 27
internal_value=0 6.07983e+06 -481955 126106 -174818 -385853 784399 -721311 -914590 -601877 -464506 -531649 -339050 -596400
internal_weight=0 54 647 184 131 110 53 463 153 310 182 150 57 87
internal_count=701 54 647 184 131 110 53 463 153 310 182 150 57 87
shrinkage=0.1


Tree=8
num_leaves=17
num_cat=0
split_feature=13 10 0 13 0 11 2 0 13 0 13 2 13 13 13 13
split_gain=2.44125e+15 2.39295e+14 3.66874e+14 4.89451e+13 5.49738e+13 6.10929e+13 4.22975e+13 1.44268e+13 1.36545e+13 1.02528e+13 6.37835e+12 4.28897e+12 4.2825e+12 6.2436e+12 3.66728e+12 2.97055e+12
threshold=7779.5000000000009 11.500000000000002 13.091425675545286 2572.5000000000005 14.455977480695308 22.500000000000004 3133000.1420454551 15.260696436912358 3750.0000000000005 14.822962068235409 4433.0000000000009 2600372.8963995385 3024.0000000000005 4493.0000000000009 2970.0000000000005 1902.5000000000002
decision_type=2 2 2 2 2 2 2 2 2 2 2 2 2 2 2 2
left_child=1 2 -1 7 11 6 8 9 -6 -3 -7 14 -13 -14 -5 -11
right_child=-2 3 -4 4 5 10 -8 -9 -10 15 -12 12 13 -15 -16 -17
leaf_value=-80351.506208284758 902986.68750580866 -66484.494176662774 416604.7871937803 -15700.841162276423 -17952.855815457708 152361.3527107595 -111373.87011071877 -143371.96861435834 77058.496633061222 -31206.466337229027 45322.756163309969 -53297.393467184091 21028.506076339665 -38930.20787381738 -73269.72653345947 14362.402705987721
leaf_weight=25 20 299 20 20 23 24 22 20 23 20 20 25 30 22 68 20
leaf_count=25 20 299 20 20 23 24 22 20 23 20 20 25 30 22 68 20
internal_value=0 -278885 1.74258e+06 -445143 -122929 398381 -204295 -684306 345551 -602710 1.2021e+06 -479181 -257647 -64099.4 -629566 -100208
internal_weight=0 681 45 636 277 112 68 359 46 339 44 165 77 52 88 40
internal_count=701 681 45 636 277 112 68 359 46 339 44 165 77 52 88 40
shrinkage=0.1


Tree=9
num_leaves=17
num_cat=0
split_feature=13 10 2 13 0 8 5 3 0 0 3 2 13 13 13 0
split_gain=2.11513e+15 2.06163e+14 3.30784e+14 4.04844e+13 4.67985e+13 5.68456e+13 4.21935e+13 1.98531e+13 1.34346e+13 9.34929e+12 1.08349e+13 3.43306e+12 3.6605e+12 5.37581e+12 2.9725e+12 1.5145e+12
threshold=7779.5000000000009 11.500000000000002 2431489.4341480923 2572.5000000000005 14.455977480695308 1.0000000180025095e-35 4.8750807662917142 8.5000000000000018 15.260696436912358 14.018243112018359 5.5000000000000009 2600372.8963995385 3024.0000000000005 4567.0000000000009 2970.0000000000005 14.822962068235409
decision_type=2 2 2 2 2 2 10 2 2 2 2 2 2 2 2 2
left_child=1 2 -1 8 11 6 7 -6 9 -3 15 14 -13 -14 -5 -11
right_child=-2 3 -4 4 5 -7 -8 -9 -10 10 -12 12 13 -15 -16 -17
leaf_value=-78487.094513456919 841501.80303745798 -66525.790404292013 392895.12348751788 -14631.761122247124 33088.140837980704 -70982.584566647929 -28195.220199483647 159348.61226282953 -133609.68136026242 -55120.940837150956 17076.628804111566 -49420.95163899754 18048.946893087163 -38047.898797697286 -66830.315038992281 -17501.778252921933
leaf_weight=25 20 223 20 20 26 28 24 34 20 56 33 25 32 20 68 27
leaf_count=25 20 223 20 20 26 28 24 34 20 56 33 25 32 20 68 27
internal_value=0 -249709 1.62629e+06 -404135 -111119 369773 764767 1.16498e+06 -621644 -544681 -280476 -439873 -239609 -60423.3 -575173 -459009
internal_weight=0 681 45 636 277 112 84 60 359 339 116 165 77 52 88 83
internal_count=701 681 45 636 277 112 84 60 359 339 116 165 77 52 88 83
shrinkage=0.1


Tree=10
num_leaves=16
num_cat=0
split_feature=0 2 0 6 11 2 10 10 3 2 2 2 10 2 2
split_gain=2.06405e+15 2.80473e+15 6.13359e+13 3.03286e+13 2.25909e+13 1.51032e+13 7.44814e+12 6.19912e+12 1.19037e+13 1.90402e+12 1.71563e+12 2.57365e+12 9.85601e+11 6.65259e+11 3.01647e+11
threshold=15.260696436912358 2439001.6520908172 14.114928808508628 8.0633738072724537 25.500000000000004 2681562.3931787694 18.500000000000004 38.500000000000007 13.500000000000002 1749048.4070632469 3064486.505876069 2681562.3931787694 27.500000000000004 628311.45910552843 3388426.8556425315
decision_type=2 2 2 10 2 2 2 2 2 2 2 2 2 2 2
left_child=2 -2 6 4 7 -6 -1 8 10 13 11 12 -4 -8 -11
right_child=1 -3 3 -5 5 -7 9 -9 -10 14 -12 -13 -14 -15 -16
leaf_value=-89646.914860510529 1249528.7013270995 -64912.656103884045 -28405.188584268206 94813.79406818829 -16179.873755236076 84257.686616315026 -34484.920122514239 -66638.128606510305 28665.620744814987 -46083.855048746824 -5530.8323669039992 -56567.458902268612 256.8422856594795 -77482.433029866865 -20666.402001735842
leaf_weight=109 21 33 20 20 22 25 29 30 32 182 20 42 20 68 28
leaf_count=109 21 33 20 20 22 25 29 30 32 182 20 42 20 68 28
internal_value=0 5.5546e+06 -421729 -6636.7 -133613 423708 -646999 -307604 -188969 -534491 -349751 -408526 -167459 -687987 -437226
internal_weight=0 54 647 231 211 47 416 164 134 307 102 82 40 97 210
internal_count=701 54 647 231 211 47 416 164 134 307 102 82 40 97 210
shrinkage=0.1


Tree=11
num_leaves=17
num_cat=0
split_feature=13 10 0 13 0 8 10 10 0 2 10 3 6 2 2 2
split_gain=1.825e+15 1.85768e+14 2.9344e+14 3.34355e+13 2.77543e+13 3.94669e+13 2.92568e+13 3.84177e+13 1.17597e+13 6.05312e+12 4.9608e+12 4.77947e+12 4.71863e+12 3.07599e+12 2.52875e+12 1.91225e+12
threshold=7779.5000000000009 11.500000000000002 13.091425675545286 2243.0000000000005 14.455977480695308 1.0000000180025095e-35 27.500000000000004 35.500000000000007 15.109392575578129 2600372.8963995385 30.500000000000004 12.500000000000002 7.4082109055043448 2900268.1343482914 3064486.505876069 746455.03571724973
decision_type=2 2 2 2 2 2 2 2 2 2 2 2 10 2 2 2
left_child=1 2 -1 8 9 6 -6 10 12 15 -8 14 13 -3 -11 -5
right_child=-2 3 -4 4 5 -7 7 -9 -10 11 -12 -13 -14 -15 -16 -17
leaf_value=-71878.303543232978 782656.52508441987 -59433.773083853339 372563.70068824466 -16788.295716864155 -33619.691954243433 -65391.277144315914 170383.9941332587 -6251.1264570744997 -119551.98684015113 -8104.3168306296157 59608.494237167906 9327.7016801313457 -6792.2585978548395 -18202.625893950106 -51195.677158063503 -58667.357262668585
leaf_weight=25 20 217 20 23 25 31 20 31 27 29 23 40 25 31 26 88
leaf_count=25 20 217 20 23 25 31 20 31 27 29 23 40 25 31 26 88
internal_value=0 -222048 1.55823e+06 -368812 -145673 207094 509938 801454 -606743 -367617 1.32403e+06 -159177 -510763 -551304 -329629 -519726
internal_weight=0 681 45 636 336 130 99 74 300 206 43 95 273 248 55 111
internal_count=701 681 45 636 336 130 99 74 300 206 43 95 273 248 55 111
shrinkage=0.1


Tree=12
num_leaves=17
num_cat=0
split_feature=0 5 13 0 13 3 2 2 10 13 0 5 13 5 13 13
split_gain=1.74959e+15 2.50192e+15 5.72507e+13 4.44416e+13 2.49921e+13 2.08055e+13 1.32581e+13 1.19941e+13 9.5768e+12 6.34171e+12 5.63657e+12 2.68317e+12 5.80383e+12 1.27236e+12 4.49339e+11 2.95113e+11
threshold=15.260696436912358 7.9998462240189836 7389.0000000000009 14.455977480695308 3685.0000000000005 13.500000000000002 2900268.1343482914 2600372.8963995385 18.500000000000004 1808.5000000000002 14.018243112018359 8.1859971685832029 3424.0000000000005 5.5682789438428806 2637.5000000000005 2232.5000000000005
decision_type=2 8 2 2 2 2 2 2 2 2 2 8 2 10 2 2
left_child=2 -2 3 8 5 6 -5 -6 -1 13 11 -11 14 -10 15 -13
right_child=1 -3 -4 4 7 -7 -8 -9 9 10 -12 12 -14 -15 -16 -17
leaf_value=-73710.424615293276 1189029.6176328934 -56397.965265452047 -175249.64701168833 -46889.200354439497 111882.13173151303 63040.016961444693 29218.902959210613 13071.52194206107 -59337.142082191713 -45950.613064514167 13424.822898779277 -25244.063701532723 12171.288706318766 -18626.705264320648 -42836.870299435199 -5909.1462351494838
leaf_weight=107 20 34 20 87 20 21 23 26 109 71 28 24 36 20 35 20
leaf_count=107 20 34 20 87 20 21 23 26 109 71 28 24 36 20 35 20
internal_value=0 5.12505e+06 -377256 -308224 112162 -118132 -299310 676985 -472490 -372533 -248733 -310061 -190120 -547146 -330058 -190365
internal_weight=0 54 647 627 177 131 110 46 450 343 214 186 115 129 79 44
internal_count=701 54 647 627 177 131 110 46 450 343 214 186 115 129 79 44
shrinkage=0.1


Tree=13
num_leaves=17
num_cat=0
split_feature=13 10 13 0 12 0 3 10 13 13 13 0 13 3 0 5
split_gain=1.60609e+15 1.61982e+14 2.81327e+14 4.14748e+13 4.16548e+13 2.51377e+13 1.34162e+13 2.71576e+13 1.51097e+13 5.90654e+12 4.85386e+12 4.25235e+12 3.04153e+12 2.98505e+12 3.15071e+12 9.42658e+11
threshold=7779.5000000000009 11.500000000000002 2219.0000000000005 15.260696436912358 31.500000000000004 14.384602028257115 12.500000000000002 32.500000000000007 3491.0000000000005 2386.5000000000005 1617.5000000000002 13.839905640048991 1808.5000000000002 29.500000000000004 13.49333204976902 2.6735537653587347
decision_type=2 2 2 2 2 2 2 2 2 2 2 2 2 2 2 10
left_child=1 2 -1 5 -5 10 8 -8 9 12 -3 13 -7 14 -12 -16
right_child=-2 3 -4 4 -6 6 7 -9 -10 -11 11 -13 -14 -15 15 -17
leaf_value=-75304.971122675852 735034.56919515692 -56421.693837154948 358761.81494935899 -8952.7768850348202 -187730.01875531048 -24407.521662566596 104873.28521290867 -31411.383124200238 40353.857029331499 -63639.766008677776 -49278.330924977636 944.9687143878059 13948.709336777372 -1790.5380396973007 -13381.048170080427 -35987.206127282901
leaf_weight=25 20 119 20 23 24 51 24 20 34 26 122 38 24 26 75 30
leaf_count=25 20 119 20 23 24 51 24 20 34 26 122 38 24 26 75 30
internal_value=0 -200159 1.46201e+06 -337290 -1.16278e+06 -254238 56715.6 482881 -104514 -295286 -388230 -300903 -119475 -346190 -381589 -222597
internal_weight=0 681 45 636 47 589 179 44 135 101 410 291 75 253 227 105
internal_count=701 681 45 636 47 589 179 44 135 101 410 291 75 253 227 105
shrinkage=0.1


Tree=14
num_leaves=17
num_cat=0
split_feature=0 2 13 0 6 3 12 10 13 0 13 2 3 0 3 13
split_gain=1.52109e+15 2.52964e+15 8.43629e+13 3.38518e+13 2.20433e+13 1.79635e+13 1.28503e+13 1.07818e+13 1.05405e+13 5.47915e+12 4.41492e+12 4.80934e+12 4.71047e+12 2.58882e+12 3.09565e+12 2.14835e+12
threshold=15.260696436912358 2439001.6520908172 7389.0000000000009 14.455977480695308 7.4082109055043448 15.500000000000002 37.500000000000007 18.500000000000004 3530.0000000000005 14.822962068235409 1808.5000000000002 2600372.8963995385 13.500000000000002 13.357364692026948 11.500000000000002 2493.0000000000005
decision_type=2 2 2 2 10 2 2 2 2 2 2 2 2 2 2 2
left_child=2 -2 3 7 5 6 8 -1 9 -5 -9 13 15 -12 -15 -13
right_child=1 -3 -4 4 -6 -7 -8 10 -10 -11 11 12 -14 14 -16 -17
leaf_value=-68068.442537949348 1138648.4709263071 -100522.03364144245 -200822.80060536531 -40625.252217280533 84001.119504294416 62024.37037191898 -65902.037849116503 -45107.970434665585 50250.07547991255 9002.7103838628118 -49142.340439020743 4078.9843930381994 25459.721297803433 1088.4229388917845 -40997.980480107573 -28923.08097018602
leaf_weight=107 21 33 20 39 24 23 34 129 21 36 51 28 29 42 20 44
leaf_count=107 21 33 20 39 24 23 34 129 21 36 51 28 29 42 20 44
internal_value=0 4.78509e+06 -345364 -263525 103150 -54251.6 -207271 -406913 -2889.32 -184500 -305675 -202776 -37536.6 -336281 -160888 -170974
internal_weight=0 54 647 627 177 153 130 450 96 75 343 214 101 113 62 72
internal_count=701 54 647 627 177 153 130 450 96 75 343 214 101 113 62 72
shrinkage=0.1


Tree=15
num_leaves=17
num_cat=0
split_feature=13 10 2 0 1 0 11 6 10 6 3 11 13 2 3 2
split_gain=1.42506e+15 1.45889e+14 2.45355e+14 7.40451e+13 4.97223e+13 1.74332e+13 2.0591e+13 9.87112e+12 5.10602e+12 7.51374e+12 8.56707e+12 4.10248e+12 3.44786e+12 3.52689e+12 4.01861e+12 2.67417e+12
threshold=7779.5000000000009 11.500000000000002 2286484.882658903 15.260696436912358 2332130.4596937005 14.384602028257115 25.500000000000004 6.9574901283903534 38.500000000000007 3.1345481418531311 9.5000000000000018 16.500000000000004 1617.5000000000002 2600372.8963995385 13.500000000000002 3133000.1420454551
decision_type=2 2 2 2 2 2 2 10 2 10 2 2 2 2 2 2
left_child=1 2 -1 5 -5 12 7 8 9 10 11 -7 -3 -14 15 -15
right_child=-2 3 -4 4 -6 6 -8 -9 -10 -11 -12 -13 13 14 -16 -17
leaf_value=-74222.879773316308 692733.5355106449 -46598.632779223764 330805.58075532172 -213839.77901014243 -13223.128792981493 -42897.028603892308 64118.269796136898 33452.878977223059 -60237.572438879884 -54831.130337179209 47550.821248402615 7331.451988167425 -34100.321451749543 -7432.2952351893391 14768.18185968032 -42126.923528179977
leaf_weight=24 20 119 21 26 21 22 36 28 23 20 21 29 162 63 36 30
leaf_count=24 20 119 21 26 21 22 36 28 23 20 21 29 162 63 36 30
internal_value=0 -184958 1.39232e+06 -315157 -1.41304e+06 -206789 51951.9 -126701 -255748 -121409 46671.5 -176316 -318388 -245373 -110316 -214563
internal_weight=0 681 45 636 47 589 179 143 115 92 72 51 410 291 129 93
internal_count=701 681 45 636 47 589 179 143 115 92 72 51 410 291 129 93
shrinkage=0.1


Tree=16
num_leaves=17
num_cat=0
split_feature=0 13 13 0 6 11 10 12 12 0 0 6 13 2 3 0
split_gain=1.33581e+15 2.52844e+15 1.1069e+14 2.51939e+13 1.74054e+13 1.91902e+13 1.37827e+13 3.5501e+12 6.86533e+12 5.87121e+12 3.52548e+12 2.06455e+12 3.90835e+12 7.77556e+12 1.89331e+12 2.24949e+12
threshold=15.260696436912358 4263.5000000000009 7389.0000000000009 14.455977480695308 7.4082109055043448 25.500000000000004 11.500000000000002 37.500000000000007 24.500000000000004 14.822962068235409 12.448826553421027 7.3565990594533854 3356.5000000000005 2431489.4341480923 5.5000000000000009 13.604713312945252
decision_type=2 2 2 2 10 2 2 2 2 2 2 8 2 2 2 2
left_child=2 -2 3 6 5 7 -1 8 -5 -10 -8 -12 14 -14 -13 -16
right_child=1 -3 -4 4 -6 -7 10 -9 9 -11 11 12 13 -15 15 -17
leaf_value=-87699.609532402537 -109786.53541773929 1130231.824560872 -222229.46214466199 -48341.059575966035 74295.827667186313 55461.712508405668 -48212.046219402087 -47209.614829823899 -19235.149636450566 33949.668369032464 -36701.54108737495 -32075.667102762447 -29791.377973541297 36752.49237166348 -27566.913725014252 1917.6960379889897
leaf_weight=38 34 20 20 23 24 31 74 34 34 31 83 110 24 28 37 56
leaf_count=38 34 20 20 23 24 31 74 34 34 31 83 110 24 28 37 56
internal_value=0 4.48713e+06 -320733 -228240 88124.9 -51550.5 -351936 -234156 -105632 72117.6 -285078 -230094 -174096 61806.1 -234585 -112626
internal_weight=0 54 647 627 177 153 450 122 88 65 412 338 255 52 203 93
internal_count=701 54 647 627 177 153 450 122 88 65 412 338 255 52 203 93
shrinkage=0.1


Tree=17
num_leaves=17
num_cat=0
split_feature=13 10 13 0 1 0 11 6 10 3 13 0 3 12 0 11
split_gain=1.20617e+15 1.29495e+14 2.26137e+14 9.08447e+13 3.79796e+13 1.19085e+13 1.50168e+13 6.78822e+12 4.36137e+12 6.6838e+12 2.78079e+12 3.22548e+12 2.72648e+12 2.11008e+12 3.41474e+12 1.50847e+12
threshold=7779.5000000000009 11.500000000000002 2219.0000000000005 15.260696436912358 2332130.4596937005 14.384602028257115 25.500000000000004 6.9574901283903534 38.500000000000007 13.500000000000002 1617.5000000000002 13.839905640048991 32.000000000000007 37.500000000000007 14.822962068235409 20.500000000000004
decision_type=2 2 2 2 2 2 2 10 2 2 2 2 2 2 2 2
left_child=1 2 -1 5 -5 10 7 8 9 13 -3 12 15 14 -7 -12
right_child=-2 3 -4 4 -6 6 -8 -9 -10 -11 11 -13 -14 -15 -16 -17
leaf_value=-66863.460377132214 637674.215191653 -39334.980224376333 322447.98937186605 -214591.33314993768 -29214.197693122842 -29119.553684105842 54667.521116780583 27385.278569446353 -53489.002624101464 32509.157046103282 -34933.421693884295 6060.5778647412189 7779.906631613183 -45371.047067019099 15350.031296054929 -16364.739203446545
leaf_weight=25 20 119 20 26 21 28 36 28 23 20 119 38 21 20 24 113
leaf_count=25 20 119 20 26 21 28 36 28 23 20 119 38 21 20 24 113
internal_value=0 -166574 1.31921e+06 -289332 -1.50392e+06 -170374 43451 -109069 -215913 -94087.5 -262612 -198543 -238241 -234559 -93853.4 -268758
internal_weight=0 681 45 636 47 589 179 143 115 92 410 291 253 72 52 232
internal_count=701 681 45 636 47 589 179 143 115 92 410 291 253 72 52 232
shrinkage=0.1


Tree=18
num_leaves=17
num_cat=0
split_feature=5 13 13 11 6 5 12 13 11 2 13 10 10 13 1 10
split_gain=1.07966e+15 1.60325e+15 2.69037e+14 1.29387e+14 2.65054e+14 2.74366e+13 2.79689e+13 2.5592e+13 3.90359e+13 4.72523e+13 1.39071e+13 8.2157e+12 1.46497e+13 8.8173e+12 5.46626e+12 5.37761e+12
threshold=3.348517123833243 4055.0000000000005 7484.0000000000009 28.500000000000004 9.263623778370583 4.4601277074540464 33.500000000000007 2243.0000000000005 23.500000000000004 2681562.3931787694 2911.5000000000005 18.500000000000004 29.500000000000004 3491.0000000000005 2332130.4596937005 30.500000000000004
decision_type=8 2 2 2 8 10 2 2 2 2 2 2 2 2 2 2
left_child=1 -1 3 5 -5 7 10 -2 11 -10 -7 -9 14 -14 -13 -8
right_child=2 -3 -4 4 -6 6 15 8 9 -11 -12 12 13 -15 -16 -17
leaf_value=-26210.933854100134 -40630.667028995675 945958.45024480415 -320615.895786368 343069.76620648964 -40823.944237199867 -48855.866502626406 -60499.912270233886 -55342.761921708814 -29413.665509253056 144117.93353192791 32443.452364367218 57283.912615604771 3272.702808077292 -63602.716618361628 -5253.5371013945187 -155724.96539806837
leaf_weight=39 216 20 21 20 42 64 32 34 22 29 22 28 36 32 20 24
leaf_count=39 216 20 21 20 42 64 32 34 22 29 22 28 36 32 20 24
internal_value=0 3.87836e+06 -298931 -154410 1.11802e+06 -311648 -678249 -174645 81315.6 763160 -269139 -181759 -39592.3 -320904 346252 -1.17786e+06
internal_weight=0 59 642 621 62 559 142 417 201 51 86 150 116 68 48 56
internal_count=701 59 642 621 62 559 142 417 201 51 86 150 116 68 48 56
shrinkage=0.1


Tree=19
num_leaves=17
num_cat=0
split_feature=0 2 13 6 0 9 10 1 10 13 10 3 10 0 11 11
split_gain=1.18274e+15 2.45184e+15 1.24468e+14 1.51907e+13 2.43131e+13 1.67144e+13 2.02094e+13 2.26453e+13 1.21659e+13 8.29641e+12 7.12478e+12 2.64521e+12 2.2631e+12 2.24945e+12 1.81068e+12 1.32513e+12
threshold=15.260696436912358 2439001.6520908172 7389.0000000000009 6.4264832207863298 14.114928808508628 1.0000000180025095e-35 32.500000000000007 2199808.8339584065 27.500000000000004 1935.5000000000002 11.500000000000002 24.500000000000004 37.500000000000007 13.49333204976902 10.500000000000002 21.500000000000004
decision_type=2 2 2 8 2 2 2 2 2 2 2 2 2 2 2 2
left_child=2 -2 3 14 10 9 7 -7 -9 -6 -5 13 -8 -12 -1 -15
right_child=1 -3 -4 4 5 6 12 8 -10 -11 11 -13 -14 15 -16 -17
leaf_value=-15442.883652269622 1073639.8876487282 -138045.92214979543 -231652.82036755295 -69365.159052431161 -47664.745298155103 135954.75058292266 -30768.657426777456 -25108.571788804587 62816.216441629163 14109.171717482846 -34828.238587033578 3099.8732045102001 7953.1851294969547 -22500.605976345287 -58493.018414124475 -2259.6402285709009
leaf_weight=20 21 33 20 31 38 22 21 24 22 34 133 34 24 78 91 55
leaf_count=20 21 33 20 31 38 22 21 24 22 34 133 34 24 78 91 55
internal_value=0 4.22263e+06 -301385 -203934 -126636 158606 386436 697666 204572 -202286 -286039 -224181 -123059 -256742 -525426 -148301
internal_weight=0 54 647 627 516 185 113 68 46 72 331 300 45 266 111 133
internal_count=701 54 647 627 516 185 113 68 46 72 331 300 45 266 111 133
shrinkage=0.1


Tree=20
num_leaves=17
num_cat=0
split_feature=13 10 2 6 6 3 2 1 12 11 2 2 13 12 11 13
split_gain=1.13184e+15 1.17425e+14 1.87905e+14 2.88939e+13 1.7363e+13 2.4915e+13 3.43098e+13 1.4244e+13 1.03288e+13 6.09845e+12 5.75147e+12 5.51073e+12 1.3173e+13 6.86484e+12 1.0715e+13 1.13946e+13
threshold=7779.5000000000009 11.500000000000002 2286484.882658903 8.6287063396363006 8.0633738072724537 15.500000000000002 2681562.3931787694 2199808.8339584065 17.500000000000004 27.500000000000004 2900268.1343482914 3133000.1420454551 2742.5000000000005 37.500000000000007 27.500000000000004 3424.0000000000005
decision_type=2 2 2 10 8 2 2 2 2 2 2 2 2 2 2 2
left_child=1 2 -1 4 7 8 -7 -3 -6 10 -9 13 -13 14 15 -10
right_child=-2 3 -4 -5 5 6 -8 9 11 -11 -12 12 -14 -15 -16 -17
leaf_value=-62399.248331009585 617516.03109647206 -79281.032255358688 292634.06383577659 -119391.94183427557 35481.434167547115 -19067.359734874433 106757.66763197031 -13192.32620161154 -9222.5750044950801 21120.829201984314 -66160.678626308261 -5850.1971528429303 -102905.5355239574 -44268.727290930401 -51845.014215970441 56786.830530339532
leaf_weight=24 20 74 21 24 21 43 30 67 148 20 25 29 20 75 38 22
leaf_count=24 20 74 21 24 21 43 30 67 148 20 25 29 20 75 38 22
internal_value=0 -163326 1.25167e+06 -280167 -226865 -110839 389052 -474536 -221605 -219265 -323721 -266806 -556270 -200461 -97798.1 18407
internal_weight=0 681 45 636 612 426 73 186 353 112 92 332 49 283 208 170
internal_count=701 681 45 636 612 426 73 186 353 112 92 332 49 283 208 170
shrinkage=0.1


Tree=21
num_leaves=17
num_cat=0
split_feature=13 11 5 5 13 11 3 12 10 13 12 11 3 13 10 12
split_gain=9.81486e+14 1.08716e+14 2.53558e+14 2.57071e+13 2.54065e+13 2.95413e+13 2.5321e+13 2.20753e+13 1.22677e+13 7.99878e+12 1.30775e+13 1.04728e+13 6.65954e+12 9.52147e+12 6.17449e+12 5.77948e+12
threshold=7779.5000000000009 28.500000000000004 7.2678158247063784 4.4601277074540464 2572.5000000000005 23.500000000000004 3.5000000000000004 33.500000000000007 37.500000000000007 3491.0000000000005 37.500000000000007 8.5000000000000018 5.5000000000000009 1955.5000000000002 30.500000000000004 30.500000000000004
decision_type=2 2 8 10 2 2 2 2 2 2 2 2 2 2 2 2
left_child=1 3 -3 4 12 6 -6 8 -5 10 -8 -11 -1 -14 -9 -4
right_child=-2 2 15 7 5 -7 9 14 -10 11 -12 -13 13 -15 -16 -17
leaf_value=-46794.170997581408 575468.97004487971 329312.27766350744 2053.4534449130219 -46853.090006186081 69714.201585054674 76968.669367943017 38657.807084487351 -53809.017045828317 31186.418065435231 9494.3142267071962 -49053.877197565846 -68226.108699902106 -35787.17741861791 20671.565769154822 -146559.52431245681 -64275.86671931907
leaf_weight=174 20 20 20 67 23 42 31 32 20 21 20 54 65 42 24 26
leaf_count=174 20 20 20 67 23 42 31 32 20 21 20 54 65 42 24 26
internal_value=0 -147819 989680 -282916 -163801 114561 -104727 -641819 -276247 -289233 19855.9 -478271 -350598 -137458 -1.08873e+06 -399708
internal_weight=0 681 66 615 472 191 149 143 87 126 51 75 281 107 56 46
internal_count=701 681 66 615 472 191 149 143 87 126 51 75 281 107 56 46
shrinkage=0.1


Tree=22
num_leaves=17
num_cat=0
split_feature=0 5 13 10 0 6 12 10 11 12 0 0 13 3 2 11
split_gain=9.91842e+14 2.2554e+15 1.90515e+14 1.68741e+13 1.13573e+13 1.6091e+13 1.7579e+13 2.01245e+13 2.35136e+13 3.22973e+12 3.17069e+12 2.82358e+12 3.05941e+12 3.47355e+12 2.4626e+12 6.12905e+12
threshold=15.260696436912358 7.9998462240189836 7389.0000000000009 9.5000000000000018 14.384602028257115 6.4264832207863298 30.500000000000004 34.500000000000007 17.500000000000004 21.500000000000004 14.822962068235409 12.448826553421027 4493.0000000000009 5.5000000000000009 1594233.6703646688 20.500000000000004
decision_type=2 8 2 2 2 8 2 2 2 2 2 2 2 2 2 2
left_child=2 -2 3 -1 11 -6 9 8 -8 -7 -11 -5 13 -13 -15 -16
right_child=1 -3 -4 4 5 6 7 -9 -10 10 -12 12 -14 14 15 -17
leaf_value=-79872.495776157462 1031881.6078506621 -133320.5628273974 -276327.62785207329 -36266.814964739919 -49172.02591824159 18096.040349508006 10937.939942333194 -8111.9157708107277 149878.07611450824 -44138.991235579524 -70.588883758264942 -21421.293930369837 -38653.800952264828 -19755.929584320569 -14484.572902379212 28656.751839170262
leaf_weight=29 20 34 20 81 29 21 23 30 21 23 33 146 40 37 58 56
leaf_count=29 20 34 20 81 29 21 23 30 21 23 33 146 40 37 58 56
internal_value=0 3.87022e+06 -272658 -153684 -110560 95989.1 231001 550168 919250 -102146 -219035 -199659 -151725 -109243 -1161.73 72747.3
internal_weight=0 54 647 627 598 180 151 74 44 77 56 418 337 297 151 114
internal_count=701 54 647 627 598 180 151 74 44 77 56 418 337 297 151 114
shrinkage=0.1


Tree=23
num_leaves=17
num_cat=0
split_feature=5 0 13 5 13 0 12 10 1 2 0 10 10 13 12 13
split_gain=9.26185e+14 1.41734e+15 3.04874e+14 1.00269e+14 2.07406e+14 1.02392e+14 6.33422e+13 2.08526e+13 6.23255e+12 1.0481e+13 1.71486e+13 9.17636e+12 1.3296e+13 4.86285e+12 3.66092e+12 2.15058e+12
threshold=3.348517123833243 14.455977480695308 7484.0000000000009 5.5682789438428806 3750.0000000000005 15.260696436912358 31.500000000000004 10.500000000000002 2332130.4596937005 1802521.1854488114 14.455977480695308 34.500000000000007 29.500000000000004 3336.0000000000005 32.500000000000007 2405.5000000000005
decision_type=8 2 2 8 2 2 2 2 2 2 2 2 2 2 2 2
left_child=1 -1 3 4 14 7 -7 -5 9 15 13 12 -12 -11 -2 -9
right_child=2 -3 -4 5 -6 6 -8 8 -10 10 11 -13 -14 -15 -16 -17
leaf_value=-48303.984745385853 -2541.8739520803001 854039.03252862394 -337213.96210094553 -80991.825152116551 304004.02038785955 -16240.145402716777 -253692.54697816444 -6006.4643577563365 -19851.806497408194 -16548.178335421384 12306.333708577964 1970.2513976301216 122802.32615945739 29840.535868296389 -58898.086676263323 -34162.922065804647
leaf_weight=37 20 22 21 32 20 20 21 59 202 92 21 23 20 20 21 50
leaf_count=37 20 22 21 32 20 20 21 59 202 92 21 23 20 20 21 50
internal_value=0 3.59112e+06 -277890 -124671 1.00406e+06 -262127 -1.62436e+06 -127608 -68327.7 27330.2 174974 551239 790271 -65998.1 -369953 -206046
internal_weight=0 59 642 621 61 560 41 519 487 285 176 64 41 112 41 109
internal_count=701 59 642 621 61 560 41 519 487 285 176 64 41 112 41 109
shrinkage=0.1


Tree=24
num_leaves=17
num_cat=0
split_feature=13 10 0 0 1 5 0 12 12 1 0 12 5 11 0 10
split_gain=9.5328e+14 1.07242e+14 1.72182e+14 1.45163e+14 5.18963e+13 1.64942e+13 7.34949e+12 9.69481e+12 1.48598e+13 1.86003e+13 2.89874e+12 2.94985e+12 2.50559e+12 2.69546e+12 2.55271e+12 2.81172e+12
threshold=7779.5000000000009 11.500000000000002 13.091425675545286 15.260696436912358 2332130.4596937005 2.4414009612931857 14.384602028257115 30.500000000000004 38.500000000000007 2332130.4596937005 14.822962068235409 25.500000000000004 7.438909205170197 25.500000000000004 13.49333204976902 35.500000000000007
decision_type=2 2 2 2 2 8 2 2 2 2 2 2 8 2 2 2
left_child=1 2 -1 5 -5 -3 12 10 9 -9 -8 -12 13 -7 15 -14
right_child=-2 3 -4 4 -6 6 7 8 -10 -11 11 -13 14 -15 -16 -17
leaf_value=-54472.336219153032 566620.76571968861 -72395.253966833217 286109.87182799907 -254833.64749546276 -36601.598039980141 -14611.89940858216 -32013.670472843831 100240.86459829779 -19609.827594241735 -8690.9951097961657 -19699.124996356284 23438.851985361976 -25714.596344410173 -51900.38356928993 283.19943827555124 5396.9401244963592
leaf_weight=25 20 32 20 26 21 76 35 32 31 23 21 24 106 24 150 35
leaf_count=25 20 32 20 26 21 76 35 32 31 23 21 24 106 24 150 35
internal_value=0 -150841 1.20124e+06 -262563 -1.79623e+06 -113964 -67519.3 104780 322333 600547 -138368 33822.4 -141410 -272418 -89294 -181368
internal_weight=0 681 45 636 47 589 557 166 86 55 80 45 391 100 291 141
internal_count=701 681 45 636 47 589 557 166 86 55 80 45 391 100 291 141
shrinkage=0.1


Tree=25
num_leaves=17
num_cat=0
split_feature=13 10 13 5 13 3 2 3 11 1 3 12 3 10 13 1
split_gain=8.27133e+14 9.30213e+13 1.64189e+14 3.78054e+13 3.15854e+13 2.38912e+13 3.1331e+13 2.74612e+13 1.52195e+13 1.34602e+13 1.17507e+13 9.41504e+12 5.51071e+12 5.19414e+12 6.34389e+12 4.77748e+12
threshold=7779.5000000000009 11.500000000000002 2219.0000000000005 8.0865461148579012 4327.0000000000009 15.500000000000002 1506248.8249342984 22.500000000000004 7.5000000000000009 2199808.8339584065 13.500000000000002 17.500000000000004 4.5000000000000009 33.500000000000007 2793.5000000000005 2199808.8339584065
decision_type=2 2 2 8 2 2 2 2 2 2 2 2 2 2 2 2
left_child=1 2 -1 4 8 11 -7 -8 -3 12 -6 -5 -10 14 15 -13
right_child=-2 3 -4 5 10 6 7 -9 9 -11 -12 13 -14 -15 -16 -17
leaf_value=-57209.279491481699 528039.19625483186 31685.516703790905 274467.62580018182 37007.342341266587 -42026.824492186555 -33082.428679292345 144070.22153840875 -1313.5849092184444 -21934.95764687068 -18061.39330128903 -169478.28826644307 -22994.27801475006 -97879.991490740154 -38205.933371455241 -38629.916087328602 11520.377249964591
leaf_weight=25 20 23 20 21 20 29 24 21 20 89 22 53 41 117 53 103
leaf_count=25 20 23 20 21 20 29 24 21 20 89 22 53 41 117 53 103
internal_value=0 -138134 1.12104e+06 -242214 -573919 -64005.4 419639 876931 -346859 -461278 -1.27527e+06 -175470 -792177 -219972 -116731 -8443.83
internal_weight=0 681 45 636 215 421 74 45 173 150 42 347 61 326 209 156
internal_count=701 681 45 636 215 421 74 45 173 150 42 347 61 326 209 156
shrinkage=0.1


Tree=26
num_leaves=17
num_cat=0
split_feature=0 2 13 10 5 6 10 11 12 0 10 13 10 5 13 9
split_gain=9.14204e+14 2.18714e+15 2.25172e+14 1.75796e+13 1.43687e+13 1.11411e+13 8.49307e+12 7.06007e+12 8.81957e+12 9.22064e+12 1.87199e+13 7.51737e+12 3.72972e+12 2.45895e+12 4.40875e+12 2.88062e+12
threshold=15.260696436912358 2439001.6520908172 7389.0000000000009 9.5000000000000018 1.777674030744707 8.0633738072724537 19.500000000000004 1.5000000000000002 24.500000000000004 14.455977480695308 30.500000000000004 2771.0000000000005 32.500000000000007 2.6735537653587347 1935.5000000000002 1.0000000180025095e-35
decision_type=2 2 2 2 8 10 2 2 2 2 2 2 2 10 2 2
left_child=2 -2 3 -1 -5 6 -6 -8 12 13 -11 -12 -9 14 -10 -16
right_child=1 -3 -4 4 5 -7 7 8 9 10 11 -13 -14 -15 15 -17
leaf_value=-79804.350740526163 987105.8382621468 -152952.82782918017 -297641.19976158155 -76773.469353331762 -33947.320995851711 40668.860561659189 -37161.66669535351 -2859.1697135581726 -13600.16006457283 88362.436715047239 -26042.930081714778 33943.826445567851 -49428.464011444434 -17782.77197042471 -3333.9524345367531 31227.282591480529
leaf_weight=29 21 33 20 21 107 38 45 31 72 29 38 28 33 67 37 52
leaf_count=29 21 33 20 21 107 38 45 31 72 29 38 28 33 67 37 52
internal_value=0 3.70822e+06 -269182 -140261 -96539.4 -60230.1 -99536.7 -34161.2 12937.2 81915.4 328204 4623.33 -301181 -29611.8 38457.7 179104
internal_weight=0 54 647 627 598 577 539 432 387 323 95 66 64 228 161 89
internal_count=701 54 647 627 598 577 539 432 387 323 95 66 64 228 161 89
shrinkage=0.1


Tree=27
num_leaves=17
num_cat=0
split_feature=5 1 5 10 0 12 10 3 0 3 12 12 10 9 6 0
split_gain=8.23931e+14 1.43961e+15 1.10591e+14 2.00755e+14 1.66278e+14 7.51707e+13 3.47937e+13 2.13977e+13 2.57161e+13 8.8888e+12 2.73963e+12 2.49517e+12 5.0919e+12 1.04258e+13 8.27019e+12 3.6788e+12
threshold=3.348517123833243 2199808.8339584065 5.5682789438428806 26.500000000000004 15.260696436912358 31.500000000000004 10.500000000000002 21.500000000000004 13.160843897972393 15.500000000000002 32.500000000000007 37.500000000000007 29.500000000000004 1.0000000180025095e-35 7.5823294860571151 14.114928808508628
decision_type=8 2 8 2 2 2 2 2 2 2 2 2 2 2 8 2
left_child=1 -1 3 -2 6 -6 -4 9 -9 11 -5 12 -8 -14 -15 -16
right_child=2 -3 4 10 5 -7 7 8 -10 -11 -12 -13 13 14 15 -17
leaf_value=837310.49283930706 292914.09345719434 -68039.124248235647 -109349.24015543109 -8511.4421504746806 -37944.646953019306 -298112.66465337278 -19790.297221829816 -7423.0577107811323 -134246.86597354829 35507.867390177511 -61023.51986233057 -24709.408025993878 -21537.729541396657 -19419.069026849051 14538.635287302001 63959.338725601374
leaf_weight=22 20 37 34 20 21 25 146 35 22 35 21 101 72 23 35 32
leaf_count=22 20 37 34 20 21 25 146 35 22 35 21 101 72 23 35 32
internal_value=0 3.38052e+06 -268656 923684 -406518 -2.05867e+06 -231465 -153957 -684176 -73151.3 -417578 -116931 -68210.5 53103.8 267945 430951
internal_weight=0 59 642 61 581 46 535 501 57 444 41 409 308 162 90 67
internal_count=701 59 642 61 581 46 535 501 57 444 41 409 308 162 90 67
shrinkage=0.1


Tree=28
num_leaves=17
num_cat=0
split_feature=0 13 13 6 0 12 3 13 10 13 13 10 11 11 11 13
split_gain=8.4591e+14 2.22235e+15 1.96977e+14 2.60109e+13 9.02963e+12 7.49997e+12 1.07774e+13 1.77885e+13 4.64866e+12 4.49545e+12 3.92866e+12 3.82479e+12 3.76872e+12 3.65843e+12 4.70567e+12 3.12015e+12
threshold=15.260696436912358 4263.5000000000009 7389.0000000000009 6.4264832207863298 13.49333204976902 30.500000000000004 15.500000000000002 3424.0000000000005 12.500000000000002 3559.0000000000005 2621.5000000000005 20.500000000000004 26.500000000000004 23.500000000000004 15.500000000000002 2550.0000000000005
decision_type=2 2 2 8 2 2 2 2 2 2 2 2 2 2 2 2
left_child=2 -2 3 9 8 12 7 10 -5 11 13 -1 15 14 -7 -6
right_child=1 -3 -4 4 5 6 -8 -9 -10 -11 -12 -13 -14 -15 -16 -17
leaf_value=-65673.564834014294 -154785.19141723157 997710.32262136345 -279323.34444360877 -51398.66983196661 -6092.875618974017 -17762.706822276112 74274.286300882974 59931.41295402588 -12343.883847759482 -86322.617281818239 -38377.31115876064 -17261.149134780131 14768.52553223908 -24386.34068844009 34773.950260280624 -39912.433138012857
leaf_weight=21 34 20 20 32 82 21 21 38 156 32 30 58 39 29 33 35
leaf_count=21 34 20 20 32 82 21 21 38 156 32 30 58 39 29 33 35
internal_value=0 3.56494e+06 -261017 -140295 -41855.9 58358.1 197505 82700.3 -211166 -559014 -123624 -357306 -97558.4 -195.335 147376 -184197
internal_weight=0 54 647 627 516 328 172 151 188 111 113 79 156 83 54 117
internal_count=701 54 647 627 516 328 172 151 188 111 113 79 156 83 54 117
shrinkage=0.1


Tree=29
num_leaves=17
num_cat=0
split_feature=13 10 0 0 1 5 0 3 3 6 10 11 13 12 3 1
split_gain=7.68836e+14 8.6705e+13 1.73227e+14 1.33247e+14 5.83142e+13 1.96121e+13 5.38306e+12 5.50499e+12 1.475e+13 4.67593e+12 3.13475e+12 2.91998e+12 5.67295e+12 3.66965e+12 4.49495e+12 4.57529e+12
threshold=7779.5000000000009 11.500000000000002 15.260696436912358 13.091425675545286 2332130.4596937005 2.6735537653587347 13.49333204976902 21.500000000000004 15.500000000000002 7.9575117204167398 35.500000000000007 1.5000000000000002 3685.0000000000005 24.500000000000004 5.5000000000000009 2332130.4596937005
decision_type=2 2 2 2 2 8 2 2 2 10 2 2 2 2 2 2
left_child=1 3 5 -1 -4 -3 10 8 9 11 -7 -8 13 -13 -15 -16
right_child=-2 2 4 -5 -6 6 7 -9 -10 -11 -12 12 -14 14 15 -17
leaf_value=-46434.733185975914 508417.83944426879 -71086.44520973519 -271298.0491846326 253521.53664945485 -39512.44903130125 -22683.359877772185 -28563.530047220524 -35120.33577185488 69278.879837207074 37209.423221214318 6224.0305327836641 -27586.989895838513 33290.833248342155 -10958.536739711404 -2060.85748156101 45351.01245280185
leaf_weight=25 20 36 26 20 21 145 29 23 26 23 45 47 36 108 43 28
leaf_count=25 20 36 26 20 21 145 29 23 26 23 45 47 36 108 43 28
internal_value=0 -139875 -240281 1.076e+06 -1.91522e+06 -78720.9 -26407.1 45068 80577.2 11274 -158661 -27965.1 9435.8 -53295.5 15964.1 197449
internal_weight=0 681 636 45 47 589 553 363 340 314 190 291 262 226 179 71
internal_count=701 681 636 45 47 589 553 363 340 314 190 291 262 226 179 71
shrinkage=0.1


Tree=30
num_leaves=17
num_cat=0
split_feature=0 2 3 2 10 6 0 12 3 5 12 10 3 3 10 0
split_gain=7.74344e+14 2.0414e+15 3.60035e+13 2.03099e+13 1.67248e+13 1.57795e+13 1.22236e+13 8.31204e+12 2.03298e+13 1.12236e+13 5.81398e+12 5.78846e+12 3.22817e+12 4.09762e+12 3.07783e+12 3.07554e+12
threshold=15.260696436912358 2439001.6520908172 21.500000000000004 828329.27466753952 9.5000000000000018 3.8162005633007272 13.160843897972393 30.500000000000004 15.500000000000002 4.7659944969956198 37.500000000000007 30.500000000000004 7.5000000000000009 5.5000000000000009 35.500000000000007 13.839905640048991
decision_type=2 2 2 2 2 8 2 2 2 8 2 2 2 2 2 2
left_child=2 -2 4 -4 -1 -6 -5 12 9 -9 11 -11 13 -7 -13 -12
right_child=1 -3 3 6 5 7 -8 8 -10 10 15 14 -14 -15 -16 -17
leaf_value=-82177.575950494269 937087.33927104343 -161792.7762897152 -4466.4083815177046 -45348.966875318787 -68703.721429295067 -17684.977236012663 -153673.1115118954 54447.970511384367 84929.921480041376 -16548.675384880702 -9821.2571475335153 47268.88880407573 -35312.576625702597 19248.954413835683 4562.4881813533611 -44344.33349921726
leaf_weight=26 21 33 25 30 34 130 28 21 20 58 65 23 74 30 40 43
leaf_count=26 21 33 25 30 34 130 28 21 20 58 65 23 74 30 40 43
internal_value=0 3.40939e+06 -251136 -831653 -153507 -107694 -1.11747e+06 -56781.1 62140.4 -29246.8 -101199 49132.4 -191107 -100779 242561 -260100
internal_weight=0 54 647 83 564 538 58 504 270 250 229 121 234 160 63 108
internal_count=701 54 647 83 564 538 58 504 270 250 229 121 234 160 63 108
shrinkage=0.1


Tree=31
num_leaves=17
num_cat=0
split_feature=5 6 13 11 6 5 12 10 2 3 11 11 13 11 10 2
split_gain=7.24582e+14 1.39394e+15 3.99728e+14 9.20299e+13 1.87026e+14 2.38778e+13 2.95196e+13 1.71365e+13 1.50588e+13 3.1684e+13 1.49936e+13 1.39234e+13 1.61154e+13 9.83012e+12 8.35505e+12 6.87298e+12
threshold=3.348517123833243 4.7788056179198115 7484.0000000000009 28.500000000000004 9.263623778370583 4.4601277074540464 33.500000000000007 10.500000000000002 2439001.6520908172 15.500000000000002 17.500000000000004 22.500000000000004 2311.5000000000005 24.500000000000004 29.500000000000004 1027373.8494773878
decision_type=8 10 2 2 8 10 2 2 2 2 2 2 2 2 2 2
left_child=1 -1 3 5 -5 7 -7 -2 13 11 -8 -10 -13 14 -9 -16
right_child=2 -3 -4 4 -6 6 10 8 9 -11 -12 12 -14 -15 15 -17
leaf_value=-61025.006675310331 -78715.072453468965 837859.72417769954 -379688.36930829793 293286.92574475141 -29886.252948884616 -15093.744500440214 -25956.170999575741 10091.547492283637 -21316.923092678146 95327.649128224526 -141365.21113256615 -11712.6463142703 86935.482988776464 -66345.083757890257 2292.1788964742045 -57119.04363016248
leaf_weight=39 23 20 21 20 42 86 22 86 121 31 34 31 22 32 31 40
leaf_count=39 23 20 21 20 42 86 22 86 121 31 34 31 22 32 31 40
internal_value=0 3.16767e+06 -254421 -79955.1 991875 -213230 -553946 -87580.5 -29401.6 155057 -1.06248e+06 -28609.5 361460 -227349 -106094 -339366
internal_weight=0 59 642 621 62 559 142 417 394 205 56 174 53 189 157 71
internal_count=701 59 642 621 62 559 142 417 394 205 56 174 53 189 157 71
shrinkage=0.1


Tree=32
num_leaves=17
num_cat=0
split_feature=13 10 0 13 2 6 1 13 2 0 10 3 11 13 13 3
split_gain=7.29829e+14 7.79653e+13 1.93287e+14 1.20157e+14 9.58331e+13 1.24096e+13 1.13873e+13 8.2551e+12 7.67533e+12 1.34839e+13 1.91506e+13 3.46348e+12 2.64915e+12 2.25937e+12 4.26996e+12 2.11624e+12
threshold=7779.5000000000009 11.500000000000002 15.260696436912358 2219.0000000000005 2755208.2227763007 7.4860299693526073 2332130.4596937005 3916.0000000000005 1844317.7792997023 14.455977480695308 34.500000000000007 12.500000000000002 16.500000000000004 2637.5000000000005 2013.5000000000002 1.5000000000000002
decision_type=2 2 2 2 2 8 2 2 2 2 2 2 2 2 2 2
left_child=1 3 5 -1 -4 7 8 11 13 12 -11 -3 -10 14 -7 -8
right_child=-2 2 4 -5 -6 6 15 -9 9 10 -12 -13 -14 -15 -16 -17
leaf_value=-44637.774145708798 495137.88467779849 -22711.796599738918 -322338.01969330147 240077.36093013344 -42392.011719294504 -14650.978510352752 5445.9149457618169 -65981.003709998608 -14969.70822098381 107117.59959654971 -4130.5359788555397 15334.519124630478 16513.152759448694 -23010.694245818959 32014.354727332826 -20747.98130570419
leaf_weight=25 20 93 21 20 26 37 34 37 33 31 24 24 65 35 25 151
leaf_count=25 20 93 21 20 26 37 34 37 33 31 24 24 65 35 25 151
internal_value=0 -138419 -233562 1.01474e+06 -2.0027e+06 -63232.7 24514.4 -298277 161180 294421 650396 -143489 55304.6 -56408.5 58987.9 -159035
internal_weight=0 681 636 45 47 589 435 154 250 153 55 117 98 97 62 185
internal_count=701 681 636 45 47 589 435 154 250 153 55 117 98 97 62 185
shrinkage=0.1


Tree=33
num_leaves=17
num_cat=0
split_feature=0 11 13 5 10 3 1 2 13 13 3 10 13 0 12 3
split_gain=7.1523e+14 2.07438e+15 2.13495e+14 1.98143e+13 2.24166e+13 4.6677e+12 4.41882e+12 8.06542e+12 8.98084e+12 9.27168e+12 1.21071e+13 4.84563e+12 3.58486e+12 3.29339e+12 3.28503e+12 2.99066e+12
threshold=15.260696436912358 26.500000000000004 7389.0000000000009 3.0201273556387074 11.500000000000002 7.5000000000000009 2332130.4596937005 1370294.7197750753 3356.5000000000005 2621.5000000000005 10.500000000000002 32.500000000000007 3295.0000000000005 13.762830300135363 36.500000000000007 5.5000000000000009
decision_type=2 2 2 8 2 2 2 2 2 2 2 2 2 2 2 2
left_child=2 -2 3 5 -5 -1 7 13 9 10 -9 -10 15 -6 -14 -8
right_child=1 -3 -4 4 6 -7 12 8 11 -11 -12 -13 14 -15 -16 -17
leaf_value=-25491.302323463871 -202859.8838018901 894107.01169893332 -287883.01381687005 -72138.845817868816 -319.96963994054408 -97319.048766021297 -13165.771980524421 2363.8291074342351 17305.040427546308 -34120.247771181334 72728.161755479334 79009.226596197637 -45181.513339792553 -42215.345850870843 -152.77243616063387 12358.591649646569
leaf_weight=26 31 23 20 38 37 21 100 129 35 39 21 20 37 29 25 70
leaf_count=26 31 23 20 38 37 21 100 129 35 39 21 20 37 29 25 70
internal_value=0 3.27501e+06 -243016 -117778 -61718.3 -684291 -3991.9 73249.1 156849 44640.7 159126 479797 -106038 -216889 -294292 -25591.4
internal_weight=0 54 647 627 580 47 542 310 244 189 150 55 232 66 62 170
internal_count=701 54 647 627 580 47 542 310 244 189 150 55 232 66 62 170
shrinkage=0.1


Tree=34
num_leaves=17
num_cat=0
split_feature=13 10 0 2 2 5 0 13 13 13 13 10 3 10 3 2
split_gain=6.56615e+14 7.48805e+13 2.06819e+14 1.14605e+14 6.22801e+13 2.27998e+13 4.52869e+12 3.45998e+12 5.56787e+12 1.11178e+13 5.74797e+12 6.05726e+12 9.62481e+12 3.30077e+12 2.14921e+12 2.06438e+12
threshold=7732.5000000000009 11.500000000000002 15.260696436912358 2286484.882658903 2755208.2227763007 2.6735537653587347 13.49333204976902 991.00000000000011 2621.5000000000005 2269.5000000000005 3039.5000000000005 24.500000000000004 13.500000000000002 35.500000000000007 7.5000000000000009 2900268.1343482914
decision_type=2 2 2 2 2 8 2 2 2 2 2 2 2 2 2 2
left_child=1 3 5 -1 -4 -3 13 -8 9 15 -10 -12 -13 -7 -15 -9
right_child=-2 2 4 -5 -6 6 7 8 10 -11 11 12 -14 14 -16 -17
leaf_value=-47799.663261235553 453761.12311968388 -74696.375256326879 -307695.37281200493 229685.05577880616 -64680.493826401565 -19401.740752375172 -17808.990284638388 127.54885110811531 -29788.905207227108 64208.707964447713 -30364.590578051164 48171.11258215148 -14825.850834872665 -8887.5802029888255 28606.354288841991 29248.971007111264
leaf_weight=24 22 35 21 21 26 145 43 109 47 37 21 46 37 25 20 22
leaf_count=24 22 35 21 21 26 145 43 109 47 37 21 46 37 25 20 22
internal_value=0 -140497 -233961 989641 -2.06367e+06 -57329.3 -1861.32 63436.4 100147 220454 -38765 93284.8 214333 -123404 98349.8 66445.7
internal_weight=0 679 634 45 47 587 552 362 319 168 151 104 83 190 45 131
internal_count=701 679 634 45 47 587 552 362 319 168 151 104 83 190 45 131
shrinkage=0.1


Tree=35
num_leaves=17
num_cat=0
split_feature=0 2 13 10 5 13 1 6 13 2 0 13 13 13 12 3
split_gain=6.57058e+14 1.94437e+15 2.25276e+14 1.84652e+13 1.91524e+13 3.96369e+12 3.76597e+12 7.89385e+12 7.02654e+12 9.94059e+12 7.21606e+12 5.1059e+12 4.63701e+12 3.11037e+12 2.98359e+12 2.36331e+12
threshold=15.260696436912358 2439001.6520908172 7389.0000000000009 11.500000000000002 2.9430520157250784 1843.5000000000002 2332130.4596937005 7.4860299693526073 2013.5000000000002 2503959.1109853452 14.455977480695308 2405.5000000000005 3424.0000000000005 3295.0000000000005 36.500000000000007 5.5000000000000009
decision_type=2 2 2 2 8 2 2 8 2 2 2 2 2 2 2 2
left_child=2 -2 3 5 -5 -1 7 -6 -9 11 -11 -10 -13 15 -15 -8
right_child=1 -3 -4 4 6 -7 13 8 9 10 -12 12 -14 14 -16 -17
leaf_value=-20606.653727702815 896244.84042066522 -173526.43054595438 -294412.01812136633 -64617.833392052089 -22728.789618612482 -90918.782529063988 -11481.086254474627 -4419.5971970546316 39798.059664567249 19068.235154653183 94174.918587292792 -30985.506900108088 16091.731497523768 -42113.301926570188 543.7981210708482 11162.478072666745
leaf_weight=20 21 33 20 41 62 23 101 106 22 32 22 33 33 37 25 70
leaf_count=20 21 33 20 41 62 23 101 106 22 32 22 33 33 37 25 70
internal_value=0 3.13519e+06 -236722 -108272 -56315.4 -677558 -1568.31 69786.3 149627 288090 590700 63414.2 -83729 -95531.2 -271002 -21134.1
internal_weight=0 54 647 627 584 43 543 310 248 142 54 88 66 233 62 171
internal_count=701 54 647 627 584 43 543 310 248 142 54 88 66 233 62 171
shrinkage=0.1


Tree=36
num_leaves=17
num_cat=0
split_feature=5 11 13 5 13 0 2 10 12 10 13 10 0 10 13 13
split_gain=6.70351e+14 1.34081e+15 4.02792e+14 7.07219e+13 1.72937e+14 1.29538e+14 6.28898e+13 1.75823e+13 5.4077e+12 3.38201e+12 1.2131e+13 1.30482e+13 1.93133e+13 6.18602e+12 5.89591e+12 4.9664e+12
threshold=3.348517123833243 21.500000000000004 7484.0000000000009 5.6818413607477778 3750.0000000000005 15.260696436912358 2786695.9843750005 10.500000000000002 33.500000000000007 29.500000000000004 4221.5000000000009 31.500000000000004 14.114928808508628 33.500000000000007 2793.5000000000005 2405.5000000000005
decision_type=8 2 2 8 2 2 2 2 2 2 2 2 2 2 2 2
left_child=1 -1 3 4 8 7 -7 -5 -2 14 11 12 -11 -12 -9 -13
right_child=2 -3 -4 5 -6 6 -8 9 -10 10 13 15 -14 -15 -16 -17
leaf_value=-84028.179811066671 1753.1328458681016 786115.86248392425 -381034.94941340573 -67261.444560214033 273125.62110441702 -268013.60838849336 -27358.16250594522 3302.5317187496948 -62628.393129677454 -13409.116053093514 6980.6320510289297 -2516.043755358523 94618.937085700818 81058.477595710414 -29470.457776656585 -37940.174642045262
leaf_weight=37 22 22 21 32 20 20 21 156 21 32 21 104 21 21 74 56
leaf_count=37 22 22 21 32 20 20 21 156 21 32 21 104 21 21 74 56
internal_value=0 3.03717e+06 -254342 -79224.6 853255 -196861 -1.72776e+06 -46851.4 -352701 6405.14 84257.4 -20076.4 371806 520507 -79828.7 -163279
internal_weight=0 59 642 621 63 558 41 517 43 485 255 213 53 42 230 160
internal_count=701 59 642 621 63 558 41 517 43 485 255 213 53 42 230 160
shrinkage=0.1


Tree=37
num_leaves=17
num_cat=0
split_feature=13 10 0 12 2 5 11 11 12 12 3 10 8 11 13 10
split_gain=6.72364e+14 7.57208e+13 1.98803e+14 1.02783e+14 9.66919e+13 3.37022e+13 3.4171e+12 9.34266e+12 8.07482e+12 3.22678e+12 3.48308e+12 2.72746e+12 4.18631e+12 5.26991e+12 2.3979e+12 1.9889e+12
threshold=7732.5000000000009 11.500000000000002 15.260696436912358 35.500000000000007 2755208.2227763007 2.9430520157250784 27.500000000000004 25.500000000000004 29.500000000000004 29.500000000000004 1.5000000000000002 36.500000000000007 1.0000000180025095e-35 1.5000000000000002 3424.0000000000005 18.500000000000004
decision_type=2 2 2 2 2 8 2 2 2 2 2 2 2 2 2 2
left_child=1 3 5 -1 -4 -3 7 9 -8 -7 -11 12 13 -12 -13 -15
right_child=-2 2 4 -5 -6 6 8 -9 -10 10 11 14 -14 15 -16 -17
leaf_value=-37599.501364527459 458356.5901237707 -85339.903938941396 -326553.16900758166 226611.31030179479 -44419.452070072461 -11355.352846016001 19118.544087097715 51597.305092442519 -38743.678926454173 31801.668254780619 -20479.887729165952 -25893.476382956822 -19924.386632665126 678.7444276899073 10355.085679520003 31735.096341988668
leaf_weight=25 22 41 21 20 26 161 32 28 53 35 25 46 34 27 21 84
leaf_count=25 22 41 21 20 26 161 32 28 53 35 25 46 34 27 21 84
internal_value=0 -150279 -244160 986484 -2.03814e+06 -70745.5 1435.54 36254 -172249 -5041.89 60830.4 12196.1 79151.2 157109 -146555 248219
internal_weight=0 679 634 45 47 587 546 461 85 433 272 237 170 136 67 111
internal_count=701 679 634 45 47 587 546 461 85 433 272 237 170 136 67 111
shrinkage=0.1


Tree=38
num_leaves=17
num_cat=0
split_feature=0 13 13 6 10 11 0 10 1 6 11 13 13 10 13 2
split_gain=6.47803e+14 1.86442e+15 2.00565e+14 2.01524e+13 6.31013e+12 3.95128e+12 3.79718e+12 6.35226e+12 6.11319e+12 8.85897e+12 6.45184e+12 1.22293e+13 2.95562e+12 2.59365e+12 2.57247e+12 2.44838e+12
threshold=15.260696436912358 4263.5000000000009 7389.0000000000009 6.3750190154417226 9.5000000000000018 15.500000000000002 13.49333204976902 40.500000000000007 2332130.4596937005 7.4082109055043448 22.500000000000004 2572.5000000000005 2440.0000000000005 35.500000000000007 4168.0000000000009 3303219.4635691172
decision_type=2 2 2 8 2 2 2 2 2 10 2 2 2 2 2 2
left_child=2 -2 3 5 -5 -1 13 8 9 10 12 -12 -8 14 -6 -10
right_child=1 -3 -4 4 6 -7 7 -9 15 -11 11 -13 -14 -15 -16 -17
leaf_value=-9163.8506213813944 -154693.14942080798 898685.09698894888 -279631.14271017507 -46249.130653431348 -10315.000434613403 -58860.543291541893 6739.2232085644246 -38234.742752741491 304.19832597600089 67492.218734074428 -5809.5228021952889 74593.059427000742 -27789.752045476089 9111.1904789350247 -43889.893162185661 -32263.957769641554
leaf_weight=24 34 20 20 23 111 84 55 21 107 25 38 26 32 38 23 20
leaf_count=24 34 20 20 23 111 84 55 21 107 25 38 26 32 38 23 20
internal_value=0 3.10659e+06 -241473 -119994 -34716.3 -494305 -6670.5 56805.6 97801 214018 102725 322101 -74285.9 -122998 -185703 -66895.8
internal_weight=0 54 647 627 519 108 496 324 303 176 151 64 87 172 134 127
internal_count=701 54 647 627 519 108 496 324 303 176 151 64 87 172 134 127
shrinkage=0.1


Tree=39
num_leaves=17
num_cat=0
split_feature=5 5 13 10 0 2 13 3 13 10 0 3 13 12 3 13
split_gain=5.93192e+14 1.26273e+15 4.10907e+14 6.83556e+13 1.46308e+14 6.09455e+13 3.33704e+12 1.13229e+13 4.90683e+12 9.99879e+12 4.34834e+12 2.68916e+12 2.55503e+12 1.88122e+12 2.06316e+12 3.01213e+12
threshold=3.348517123833243 2.4414009612931857 7484.0000000000009 11.500000000000002 15.260696436912358 2755208.2227763007 2621.5000000000005 15.500000000000002 3685.0000000000005 32.500000000000007 14.237370577483935 6.5000000000000009 4221.5000000000009 39.500000000000007 3.5000000000000004 1617.5000000000002
decision_type=8 10 2 2 2 2 2 2 2 2 2 2 2 2 2 2
left_child=1 -1 3 -2 6 -6 7 13 10 12 11 -8 -10 14 -5 -16
right_child=2 -3 -4 4 5 -7 8 -9 9 -11 -12 -13 -14 -15 15 -17
leaf_value=-98299.004354192264 107924.61316048737 740699.63513710094 -383314.32208723715 -6208.1393895098136 -271785.1451494213 -38540.108272357415 -27129.29749901469 59747.706551424373 12055.329411602059 46247.978733739983 -47960.450945206663 7743.2357790912392 -24947.805517350749 -20251.942019190195 -7018.2933157152329 21529.410959811001
leaf_weight=36 39 23 21 126 20 24 29 26 20 31 36 45 53 31 54 87
leaf_count=36 39 23 21 126 20 24 29 26 20 31 36 45 53 31 54 87
internal_value=0 2.8547e+06 -241587 -64946.7 -157509 -1.7367e+06 -829.962 62556.8 -95396.8 58672.8 -234232 -74365.1 -145918 -909.6 28572.5 108403
internal_weight=0 59 642 621 582 44 538 324 214 104 110 74 73 298 267 141
internal_count=701 59 642 621 582 44 538 324 214 104 110 74 73 298 267 141
shrinkage=0.1


end of trees

feature importances:
description_len=142
target_amount=105
period=79
category=58
images=52
start_date_day=41
title_len=39
twitter_friends=34
twitter_followers=30
method=20
web_page_existence=7
instagram_existence=3

parameters:
[boosting: gbdt]
[objective: regression]
[metric: rmse]
[tree_learner: serial]
[device_type: cpu]
[data: ]
[valid: ]
[num_iterations: 100]
[learning_rate: 0.1]
[num_leaves: 17]
[num_threads: -1]
[max_depth: -1]
[min_data_in_leaf: 20]
[min_sum_hessian_in_leaf: 0.001]
[bagging_fraction: 1]
[pos_bagging_fraction: 1]
[neg_bagging_fraction: 1]
[bagging_freq: 0]
[bagging_seed: 3]
[feature_fraction: 0.9]
[feature_fraction_bynode: 1]
[feature_fraction_seed: 2]
[early_stopping_round: 0]
[first_metric_only: 0]
[max_delta_step: 0]
[lambda_l1: 6.36556]
[lambda_l2: 9.37262]
[min_gain_to_split: 0]
[drop_rate: 0.1]
[max_drop: 50]
[skip_drop: 0.5]
[xgboost_dart_mode: 0]
[uniform_drop: 0]
[drop_seed: 4]
[top_rate: 0.2]
[other_rate: 0.1]
[min_data_per_group: 100]
[max_cat_threshold: 32]
[cat_l2: 10]
[cat_smooth: 10]
[max_cat_to_onehot: 4]
[top_k: 20]
[monotone_constraints: ]
[feature_contri: ]
[forcedsplits_filename: ]
[forcedbins_filename: ]
[refit_decay_rate: 0.9]
[cegb_tradeoff: 1]
[cegb_penalty_split: 0]
[cegb_penalty_feature_lazy: ]
[cegb_penalty_feature_coupled: ]
[verbosity: -1]
[max_bin: 255]
[max_bin_by_feature: ]
[min_data_in_bin: 3]
[bin_construct_sample_cnt: 200000]
[histogram_pool_size: -1]
[data_random_seed: 1]
[output_model: LightGBM_model.txt]
[snapshot_freq: -1]
[input_model: ]
[output_result: LightGBM_predict_result.txt]
[initscore_filename: ]
[valid_data_initscores: ]
[pre_partition: 0]
[enable_bundle: 1]
[max_conflict_rate: 0]
[is_enable_sparse: 1]
[sparse_threshold: 0.8]
[use_missing: 1]
[zero_as_missing: 0]
[two_round: 0]
[save_binary: 0]
[header: 0]
[label_column: ]
[weight_column: ]
[group_column: ]
[ignore_column: ]
[categorical_feature: ]
[predict_raw_score: 0]
[predict_leaf_index: 0]
[predict_contrib: 0]
[num_iteration_predict: -1]
[pred_early_stop: 0]
[pred_early_stop_freq: 10]
[pred_early_stop_margin: 10]
[convert_model_language: ]
[convert_model: gbdt_prediction.cpp]
[num_class: 1]
[is_unbalance: 0]
[scale_pos_weight: 1]
[sigmoid: 1]
[boost_from_average: 1]
[reg_sqrt: 0]
[alpha: 0.9]
[fair_c: 1]
[poisson_max_delta_step: 0.7]
[tweedie_variance_power: 1.5]
[max_position: 20]
[lambdamart_norm: 1]
[label_gain: ]
[metric_freq: 1]
[is_provide_training_metric: 0]
[eval_at: ]
[multi_error_top_k: 1]
[num_machines: 1]
[local_listen_port: 12400]
[time_out: 120]
[machine_list_filename: ]
[machines: ]
[gpu_platform_id: -1]
[gpu_device_id: -1]
[gpu_use_dp: 0]

end of parameters

pandas_categorical:[]
