tree
version=v3
num_class=1
num_tree_per_iteration=1
label_index=0
max_feature_idx=7
objective=binary sigmoid:1
feature_names=target_amount method category images twitter_friends twitter_followers period tfidf-sum
feature_infos=[9.2104403669765169:18.420680753952364] [0.39373601789709173:0.8461538461477639] [0.18421052631578946:0.92945658610354154] [0:110] [-inf:9.8268224676006426] [-inf:12.778401563790201] [2:45] [0:18.652784094258259]
tree_sizes=832 836 836 839 834 843 842 829 839 837 840 837 836 841 822 832 842 844 839 840 848 842 840 833 845 835 844 838 843 844 842 837 837 846 824 845 836 839 849 843 840 827 846 841 844 827 846 845

Tree=0
num_leaves=7
num_cat=0
split_feature=7 3 0 0 7 3
split_gain=105.8 41.271 16.6547 12.5542 11.2259 8.38069
threshold=1.0000000180025095e-35 3.5000000000000004 12.832456808345684 14.058265250470201 10.514818074666266 6.5000000000000009
decision_type=2 2 2 2 2 2
left_child=-1 2 -2 5 -4 -3
right_child=1 3 4 -5 -6 -7
leaf_value=-0.48397274425786624 -0.23382224377044458 -0.2779558707014459 -0.42194964358104248 -0.28934569033221569 -0.29672553218703412 -0.19848584287692278
leaf_weight=30.259115636348724 8.2968542873859388 18.789934709668159 27.330814123153687 43.924522697925568 9.5169799178838712 48.805025219917297
leaf_count=124 34 77 112 180 39 200
internal_value=0 0.316051 -0.488825 0.642702 -0.777809 0.913192
internal_weight=0 156.664 45.1446 111.519 36.8478 67.595
internal_count=766 642 185 457 151 277
shrinkage=1


Tree=1
num_leaves=7
num_cat=0
split_feature=7 0 7 6 2 5
split_gain=88.4606 23.0749 23.9724 6.4094 6.18831 5.85917
threshold=1.0000000180025095e-35 12.832456808345684 9.7225642149792595 39.500000000000007 0.37638079935745705 4.744894319750431
decision_type=2 2 2 2 2 2
left_child=-1 -2 4 -4 5 -3
right_child=1 2 3 -5 -6 -7
leaf_value=-0.16071276717665192 0.10530256815082684 -0.078315107356867697 0.064149676006151374 -0.03867823216573002 0.0059116128299671142 0.014438706669168914
leaf_weight=29.253303587436676 31.108757823705673 31.083699405193329 55.96951287984848 6.62349610030651 23.884281754493713 8.5082120150327665
leaf_count=124 126 128 228 27 98 35
internal_value=0 0.283276 0.0919219 0.530991 -0.340091 -0.582175
internal_weight=0 157.178 126.069 62.593 63.4762 39.5919
internal_count=766 642 516 255 261 163
shrinkage=0.1


Tree=2
num_leaves=7
num_cat=0
split_feature=7 3 7 3 4 7
split_gain=74.7344 31.689 8.89449 8.59376 6.85288 5.5605
threshold=1.0000000180025095e-35 3.5000000000000004 8.3888463338660646 9.5000000000000018 6.6167287124549583 10.038611624384265
decision_type=2 2 2 2 2 2
left_child=-1 2 -2 4 5 -3
right_child=1 3 -4 -5 -6 -7
leaf_value=-0.15156104425039996 -0.097629989510968865 -0.015664707898165851 -0.0070871161790701373 0.078838007405757665 0.12808520107990543 0.056825916569288253
leaf_weight=27.989611148834229 18.880523979663849 29.384982109069824 25.777112320065498 61.649159297347069 5.4326863735914221 16.313010811805725
leaf_count=124 79 120 106 249 22 66
internal_value=0 0.254328 -0.456909 0.536788 0.23087 0.101377
internal_weight=0 157.437 44.6576 112.78 51.1307 45.698
internal_count=766 642 185 457 208 186
shrinkage=0.1


Tree=3
num_leaves=7
num_cat=0
split_feature=7 3 0 0 6 7
split_gain=63.6725 25.7061 11.6498 9.05307 8.22372 7.68099
threshold=1.0000000180025095e-35 3.5000000000000004 12.832456808345684 14.058265250470201 23.500000000000004 10.662888039786633
decision_type=2 2 2 2 2 2
left_child=-1 2 -2 4 -3 -4
right_child=1 3 5 -5 -6 -7
leaf_value=-0.14416475671609319 0.063036199166498039 0.024688578092466322 -0.093084984277000016 0.012690476166637694 0.097068690497319157 0.013371439968244065
leaf_weight=26.562576293945313 8.4327117502689344 25.102338179945946 26.940197095274925 44.392311841249466 43.700849294662476 8.8538186997175199
leaf_count=124 34 101 115 180 176 36
internal_value=0 0.228724 -0.416098 0.481478 0.70857 -0.665955
internal_weight=0 157.422 44.2267 113.195 68.8032 35.794
internal_count=766 642 185 457 277 151
shrinkage=0.1


Tree=4
num_leaves=7
num_cat=0
split_feature=7 3 7 5 2 5
split_gain=54.6432 22.0047 9.84372 3.66289 3.30861 2.47144
threshold=1.0000000180025095e-35 6.5000000000000009 9.7951467681303566 7.0093889396368469 0.56812173466320925 2.249904835165133
decision_type=2 2 2 2 2 2
left_child=-1 2 3 -2 -3 -4
right_child=1 4 5 -5 -6 -7
leaf_value=-0.13808251124239482 -0.055633031462038129 0.051337641773490553 0.0089889601013512371 0.026750348826758981 0.13593341244777085 0.074237087844679167
leaf_weight=25.042906641960144 42.306050151586533 76.122953653335571 19.239192187786106 5.983059123158454 4.9919354021549216 8.422650068998335
leaf_count=124 179 306 78 25 20 34
internal_value=0 0.20628 -0.179697 -0.452345 0.568299 0.29356
internal_weight=0 157.066 75.951 48.2891 81.1149 27.6618
internal_count=766 642 316 204 326 112
shrinkage=0.1


Tree=5
num_leaves=7
num_cat=0
split_feature=7 3 0 0 5 3
split_gain=47.1791 18.1679 9.65283 7.30748 6.15288 5.35507
threshold=1.0000000180025095e-35 3.5000000000000004 12.832456808345684 14.058265250470201 2.249904835165133 20.500000000000004
decision_type=2 2 2 2 2 2
left_child=-1 2 -2 -3 -4 -5
right_child=1 3 4 5 -6 -7
leaf_value=-0.13300896865501735 0.058513816644436792 0.060079096185260576 -0.085673143134870386 -0.0088126493999029203 0.0072536925846529215 0.078900774160472545
leaf_weight=23.483268439769745 8.4532664120197278 68.893017664551735 25.144669771194458 36.052742093801498 9.7055850476026517 8.4747738689184171
leaf_count=124 34 277 110 146 41 34
internal_value=0 0.186266 -0.363187 0.396847 -0.596522 0.0789045
internal_weight=0 156.724 43.3035 113.421 34.8503 44.5275
internal_count=766 642 185 457 151 180
shrinkage=0.1


Tree=6
num_leaves=7
num_cat=0
split_feature=7 3 0 7 6 4
split_gain=40.9297 15.3175 9.96515 11.5533 7.0941 5.86282
threshold=1.0000000180025095e-35 9.5000000000000018 12.832456808345684 10.038611624384265 27.500000000000004 3.1345481418531311
decision_type=2 2 2 2 2 2
left_child=-1 2 -2 4 -4 -5
right_child=1 -3 3 5 -6 -7
leaf_value=-0.12872578936011311 0.063756747874700162 0.055399953789540726 -0.10023594162170957 -0.0017405424323434166 -0.022554249882881936 0.097684798760791683
leaf_weight=21.922545611858368 15.704559966921805 61.964167267084122 18.641182437539101 18.675423771142963 32.640696734189987 8.4732161909341794
leaf_count=124 63 249 80 76 140 34
internal_value=0 0.168265 -0.0852673 -0.231693 -0.511041 0.293251
internal_weight=0 156.099 94.1351 78.4305 51.2819 27.1486
internal_count=766 642 393 330 220 110
shrinkage=0.1


Tree=7
num_leaves=7
num_cat=0
split_feature=7 0 7 3 7 7
split_gain=37.0862 15.527 7.06588 6.28355 7.48042 5.63085
threshold=5.2145299757105796 14.114929550266593 11.154813910360163 17.500000000000004 11.093277565503314 13.749291676581356
decision_type=2 2 2 2 2 2
left_child=-1 2 -2 5 -5 -3
right_child=1 3 -4 4 -6 -7
leaf_value=-0.12069325513789098 0.027869873448548327 -0.045319613719549623 0.093355442153086457 0.1370255195469397 -0.024925244821361242 0.06489140833297917
leaf_weight=22.193755283951759 67.39886799454689 47.922960087656975 22.031891971826553 4.9930132776498777 6.2441306114196777 4.9726277738809577
leaf_count=132 278 202 89 20 25 20
internal_value=0 0.17261 0.441891 -0.201894 0.471003 -0.346965
internal_weight=0 153.563 89.4308 64.1327 11.2371 52.8956
internal_count=766 634 367 267 45 222
shrinkage=0.1


Tree=8
num_leaves=7
num_cat=0
split_feature=0 1 6 3 3 1
split_gain=12.6574 6.63979 5.25068 4.91673 4.15696 4.62135
threshold=14.114929550266593 0.55431270196294957 18.500000000000004 9.5000000000000018 12.500000000000002 0.39520507084265483
decision_type=2 2 2 2 2 2
left_child=1 3 -2 -1 5 -4
right_child=2 -3 4 -5 -6 -7
leaf_value=-0.0002839466190912676 -0.12631640690687068 0.13998410896817401 -0.0011088317644541595 0.046332694601601707 0.01643015441095004 -0.063875079099493304
leaf_weight=60.490509212017059 5.3698518723249427 4.5044497251510611 19.681344896554947 35.732335716485977 18.187178239226341 29.825785785913467
leaf_count=267 24 20 89 152 78 136
internal_value=0 0.227244 -0.319059 0.16989 -0.240955 -0.391326
internal_weight=0 100.727 73.0642 96.2228 67.6943 49.5071
internal_count=766 439 327 419 303 225
shrinkage=0.1


Tree=9
num_leaves=7
num_cat=0
split_feature=7 0 3 6 5 7
split_gain=32.2518 10.8774 6.79835 6.76413 6.54042 4.92826
threshold=1.0000000180025095e-35 14.237371233397699 12.500000000000002 28.500000000000004 5.7328173380877665 10.462571018913385
decision_type=2 2 2 2 2 2
left_child=-1 4 3 -3 -2 -5
right_child=1 2 -4 5 -6 -7
leaf_value=-0.12199755718833938 0.021384112416187217 -0.10218074914029968 0.036981055823587981 -0.045123462381239293 0.084663727312113204 0.043320029321279437
leaf_weight=19.206008940935135 78.489899128675461 12.689463704824446 14.690540239214895 17.593839257955555 20.753663718700409 9.6010695546865445
leaf_count=126 325 55 59 77 85 39
internal_value=0 0.150461 -0.207013 -0.421762 0.347779 -0.1358
internal_weight=0 153.818 54.5749 39.8844 99.2436 27.1949
internal_count=766 640 230 171 410 116
shrinkage=0.1


Tree=10
num_leaves=7
num_cat=0
split_feature=1 0 6 3 6 5
split_gain=9.28336 7.43935 5.35585 3.88982 4.00058 3.56778
threshold=0.55431270196294957 14.114929550266593 18.500000000000004 9.5000000000000018 15.500000000000002 6.7072178990787021
decision_type=2 2 2 2 2 2
left_child=1 3 -3 5 -5 -1
right_child=-2 2 -4 4 -6 -7
leaf_value=-0.011457275881988771 0.12696882439364413 -0.12992163800644738 -0.021469612229785676 -0.026445248487538511 0.056814437862183868 0.059876972664849107
leaf_weight=52.076016634702682 5.4244467020034781 4.8222970068454734 65.480998545885086 7.0396115183830252 28.184841245412827 7.9699135124683371
leaf_count=232 25 23 299 30 122 35
internal_value=0 -0.0454318 -0.292244 0.136083 0.399366 -0.017663
internal_weight=0 165.574 70.3033 95.2704 35.2245 60.0459
internal_count=766 741 322 419 152 267
shrinkage=0.1


Tree=11
num_leaves=7
num_cat=0
split_feature=7 2 0 5 7 3
split_gain=28.3324 8.33428 6.84107 5.64926 5.02289 4.81966
threshold=1.0000000180025095e-35 0.56812173466320925 14.599818975254427 6.8680853849257781 13.843451060453029 19.500000000000004
decision_type=2 2 2 2 2 2
left_child=-1 2 3 4 -2 -4
right_child=1 -3 5 -5 -6 -7
leaf_value=-0.11936441959838551 0.0058578081913045659 0.11397529562217452 -0.047384795912203431 0.07873515004319713 0.10659969615485375 0.055608851012047149
leaf_weight=17.755880311131477 91.547951579093933 7.7490179389715186 28.540012031793594 14.279670640826224 5.1289057135581961 5.2329138070344916
leaf_count=126 382 33 124 59 21 21
internal_value=0 0.136908 0.0817969 0.202127 0.114052 -0.3107
internal_weight=0 152.478 144.729 110.957 96.6769 33.7729
internal_count=766 640 607 462 403 145
shrinkage=0.1


Tree=12
num_leaves=7
num_cat=0
split_feature=7 3 7 7 5 4
split_gain=24.9193 7.4504 6.84631 5.79037 2.63704 5.03989
threshold=1.0000000180025095e-35 12.500000000000002 14.087603575472139 9.6798503942091489 6.7072178990787021 7.6499283957787076
decision_type=2 2 2 2 2 2
left_child=-1 2 4 -3 -2 -6
right_child=1 3 -4 -5 5 -7
leaf_value=-0.11696626939944504 -0.015079450090288297 0.094625180061698178 0.11138778692216332 0.019519207593635436 0.065912751978756567 -0.04743871466941809
leaf_weight=16.380983896553516 84.266057580709457 15.971097558736799 4.9407024383544913 29.508674219250679 11.48875103890896 5.7468819469213477
leaf_count=126 360 66 20 122 48 24
internal_value=0 0.124096 -0.020122 0.46236 -0.0773083 0.276336
internal_weight=0 151.922 106.442 45.4798 101.502 17.2356
internal_count=766 640 452 188 432 72
shrinkage=0.1


Tree=13
num_leaves=7
num_cat=0
split_feature=7 2 3 7 7 2
split_gain=21.9714 6.55885 4.72271 4.9541 4.24218 5.02371
threshold=1.0000000180025095e-35 0.56812173466320925 12.500000000000002 9.4116709436396366 10.427461305015644 0.47568389051746224
decision_type=2 2 2 2 2 2
left_child=-1 2 4 -4 -2 -6
right_child=1 -3 3 -5 5 -7
leaf_value=-0.11485564579352708 -0.019142876604399565 0.10115640880498572 0.088804139257227355 0.012198849992160379 0.040789483414301712 -0.065278553398021591
leaf_weight=15.082621127367018 69.463962107896805 7.5882917046546927 12.012551635503767 28.859448447823524 28.315435156226158 5.1398672610521308
leaf_count=126 301 33 50 119 116 21
internal_value=0 0.112393 0.0636183 0.350881 -0.0500416 0.240999
internal_weight=0 151.38 143.791 40.872 102.919 33.4553
internal_count=766 640 607 169 438 137
shrinkage=0.1


Tree=14
num_leaves=7
num_cat=0
split_feature=7 0 6 2 2 6
split_gain=20.1989 9.62865 6.3257 4.23505 11.4643 6.385
threshold=1.0000000180025095e-35 13.141975695517507 18.500000000000004 0.40740740740740827 0.4396135257939528 35.500000000000007
decision_type=2 2 2 2 2 2
left_child=-1 2 -2 -3 -5 -6
right_child=1 3 -4 4 5 -7
leaf_value=-0.11299816565068177 -0 -0.023970217202461903 0.076408622306193469 0.098573400650050949 -0.038508115350369583 0.060764552000423779
leaf_weight=14.172837875783442 16.825658515095711 56.741125777363777 29.98648726940155 12.393391653895376 25.425798192620277 8.5265151262283307
leaf_count=129 70 246 126 52 107 36
internal_value=0 0.114023 0.489647 -0.0562287 0.166883 -0.132366
internal_weight=0 149.899 46.8121 103.087 46.3457 33.9523
internal_count=766 637 196 441 195 143
shrinkage=0.1


Tree=15
num_leaves=7
num_cat=0
split_feature=7 7 3 6 7 3
split_gain=17.8757 3.35719 4.22227 5.83261 4.38508 3.27555
threshold=5.4365762814024423 14.311675790098398 3.5000000000000004 18.500000000000004 8.2877578949536446 32.000000000000007
decision_type=2 2 2 2 2 2
left_child=-1 2 -2 4 -4 -5
right_child=1 -3 3 5 -6 -7
leaf_value=-0.10283566893557801 -0.020869914444049342 0.07207935046124285 0.03367259732452843 0.024722114222327632 -0.065413494833745034 0.11123961875952451
leaf_weight=15.056837998330591 38.167564734816551 8.4196698069572431 6.6556403338909176 76.805270805954933 12.687331855297087 4.5984681099653235
leaf_count=138 172 35 28 320 53 20
internal_value=0 0.111295 0.0732303 0.180878 -0.309508 0.298579
internal_weight=0 147.334 138.914 100.747 19.343 81.4037
internal_count=766 628 593 421 81 340
shrinkage=0.1


Tree=16
num_leaves=7
num_cat=0
split_feature=7 0 7 2 2 4
split_gain=15.9773 8.06816 3.99726 3.2647 9.16947 4.03161
threshold=1.0000000180025095e-35 13.141975695517507 11.207972243720087 0.40740740740740827 0.4396135257939528 6.4876735932388359
decision_type=2 2 2 2 2 2
left_child=-1 2 -2 5 -5 -3
right_child=1 3 -4 4 -6 -7
leaf_value=-0.10995272038506139 0.028973521800996601 -0.030563554057711235 0.10311892690299962 0.086651771158915758 -0.013387018180944791 0.064418343246385887
leaf_weight=12.003491349518297 37.108023270964622 51.659276679158211 9.1589757800102216 12.389589875936506 33.861697509884834 4.7336412072181693
leaf_count=129 156 226 40 52 143 20
internal_value=0 0.0941041 0.440407 -0.0616282 0.134133 -0.223405
internal_weight=0 148.911 46.267 102.644 46.2513 56.3929
internal_count=766 637 196 441 195 246
shrinkage=0.1


Tree=17
num_leaves=7
num_cat=0
split_feature=7 0 7 2 2 3
split_gain=14.1871 6.61189 3.44112 2.65364 7.45937 3.31424
threshold=1.0000000180025095e-35 13.141975695517507 11.207972243720087 0.40740740740740827 0.4396135257939528 1.5000000000000002
decision_type=2 2 2 2 2 2
left_child=-1 2 -2 5 -5 -3
right_child=1 3 -4 4 -6 -7
leaf_value=-0.10859490364254053 0.026171353200213417 -0.082780487394869026 0.095809926289008529 0.078229025842627156 -0.012065950512251884 -0.010549918506477976
leaf_weight=10.991525083780287 36.992459133267403 7.2620455473661414 8.8951479792594892 12.36535796523094 33.827499598264694 48.88629224896431
leaf_count=129 156 37 40 52 143 209
internal_value=0 0.0854085 0.400468 -0.0554623 0.120921 -0.201803
internal_weight=0 148.229 45.8876 102.341 46.1929 56.1483
internal_count=766 637 196 441 195 246
shrinkage=0.1


Tree=18
num_leaves=7
num_cat=0
split_feature=7 0 6 6 2 0
split_gain=12.6131 5.4302 4.45754 3.31564 3.63652 3.84293
threshold=1.0000000180025095e-35 13.141975695517507 18.500000000000004 27.500000000000004 0.35907374279467308 14.362059690972041
decision_type=2 2 2 2 2 2
left_child=-1 2 -2 4 5 -3
right_child=1 3 -4 -5 -6 -7
leaf_value=-0.10736068182613814 -0.004209671707958185 0.064434222487858919 0.060238104299828267 0.0073588492703333718 -0.053977946572975 -0.057077850679335518
leaf_weight=10.055380761623381 16.732373043894768 6.4955780953168851 28.765196457505226 68.959263846278191 22.345925226807594 4.1292357444763184
leaf_count=129 70 28 126 296 97 20
internal_value=0 0.0773483 0.364305 -0.0503135 -0.310955 0.16425
internal_weight=0 147.428 45.4976 101.93 32.9707 10.6248
internal_count=766 637 196 441 145 48
shrinkage=0.1


Tree=19
num_leaves=7
num_cat=0
split_feature=7 0 7 5 5 5
split_gain=11.228 4.44692 2.97177 2.56549 4.27526 3.66451
threshold=1.0000000180025095e-35 13.141975695517507 11.207972243720087 6.8680853849257781 6.1590931536403168 5.1615756900220537
decision_type=2 2 2 2 2 2
left_child=-1 2 -2 4 5 -3
right_child=1 3 -4 -5 -6 -7
leaf_value=-0.1062307196525078 0.020343747356805393 -0.011742058443071699 0.086326138423244339 0.029849452710068749 -0.10050625955173327 0.075971759086744639
leaf_weight=9.1915715336799604 36.632003277540207 74.121418371796608 8.4723395556211454 17.672039464116096 5.001331537961959 4.9545759707689276
leaf_count=129 156 325 40 74 21 21
internal_value=0 0.0698774 0.330979 -0.0454155 -0.118889 -0.0604599
internal_weight=0 146.854 45.1043 101.749 84.0773 79.076
internal_count=766 637 196 441 367 346
shrinkage=0.1


Tree=20
num_leaves=7
num_cat=0
split_feature=1 6 0 0 3 6
split_gain=7.1061 3.45961 4.79983 3.81319 3.27771 2.5123
threshold=0.55431270196294957 18.500000000000004 13.141975695517507 13.420241779541222 1.0000000180025095e-35 21.500000000000004
decision_type=2 2 2 2 2 2
left_child=1 3 -3 -1 -4 -6
right_child=-2 2 4 -5 5 -7
leaf_value=-0.0053814127172727147 0.12321982440348489 0.040382637756269608 -0.061972435709057749 -0.080062957355862052 0.061739875152406365 -0.0053366987923747057
leaf_weight=18.013636119663719 4.4348808228969565 27.690811067819595 9.5693974792957288 11.148804739117621 5.8895574286580077 77.944499254226685
leaf_count=85 25 135 55 58 31 377
internal_value=0 -0.035253 0.0387639 -0.343945 -0.0690789 -0.00455096
internal_weight=0 150.257 121.094 29.1624 93.4035 83.8341
internal_count=766 741 598 143 463 408
shrinkage=0.1


Tree=21
num_leaves=7
num_cat=0
split_feature=7 1 2 2 0 6
split_gain=9.55537 10.2157 4.68802 3.25315 4.40788 3.8341
threshold=1.0000000180025095e-35 0.55431270196294957 0.56812173466320925 0.47922998986828774 12.643810243368572 38.500000000000007
decision_type=2 2 2 2 2 2
left_child=-1 2 3 5 -5 -2
right_child=1 -3 -4 4 -6 -7
leaf_value=-0.10508983322272776 0.010996359142392617 0.1537728680715757 0.085588234745110806 0.027631737275066848 -0.074630649329013171 -0.046109519474290928
leaf_weight=7.8748509921133509 104.70188677310944 4.4814004302024832 6.3406530618667594 6.1496980339288738 12.393156141042708 13.095151558518408
leaf_count=121 457 22 29 27 53 57
internal_value=0 0.0713479 0.0235049 -0.0154101 -0.403697 0.0454547
internal_weight=0 147.162 142.681 136.34 18.5429 117.797
internal_count=766 645 623 594 80 514
shrinkage=0.1


Tree=22
num_leaves=7
num_cat=0
split_feature=7 1 2 7 7 6
split_gain=8.51934 8.84178 3.93314 2.57449 3.23634 5.85519
threshold=1.0000000180025095e-35 0.55431270196294957 0.61240559256078198 9.2421243225559007 7.080714824037325 31.500000000000004
decision_type=2 2 2 2 2 2
left_child=-1 2 3 4 5 -2
right_child=1 -3 -4 -5 -6 -7
leaf_value=-0.10410294646615602 0.05898040074731116 0.14657875137807327 0.088909719849254443 0.011272468260920862 -0.031839869793601872 -0.053484781397867054
leaf_weight=7.1906832717359057 12.34469895064831 4.2492050379514685 4.9163514673709861 75.801486000418663 42.136210918426514 7.1982055753469458
leaf_count=121 55 22 23 324 189 32
internal_value=0 0.0647379 0.0211984 -0.010077 -0.162089 0.171137
internal_weight=0 146.646 142.397 137.481 61.6791 19.5429
internal_count=766 645 623 600 276 87
shrinkage=0.1


Tree=23
num_leaves=7
num_cat=0
split_feature=7 1 3 7 7 7
split_gain=7.60552 7.69519 4.47675 7.24187 7.97966 4.9925
threshold=1.0000000180025095e-35 0.55431270196294957 13.500000000000002 13.843451060453029 12.266525127328567 11.935230744396224
decision_type=2 2 2 2 2 2
left_child=-1 2 3 4 5 -2
right_child=1 -3 -4 -5 -6 -7
leaf_value=-0.10317538527477532 -0.012355931327152118 0.14043670536921779 0.030740795884053269 0.1018648793800918 -0.11107306343417617 0.092414271592995798
leaf_weight=6.562975011765956 85.04720550775528 4.0092887654900542 39.04558826982975 5.4411801397800437 7.8798543512821189 4.6729402989149085
leaf_count=121 376 22 171 23 33 20
internal_value=0 0.058834 0.0191813 -0.089572 -0.153294 -0.067001
internal_weight=0 146.096 142.087 103.041 97.6 89.7201
internal_count=766 645 623 452 429 396
shrinkage=0.1


Tree=24
num_leaves=7
num_cat=0
split_feature=7 1 3 7 7 0
split_gain=6.7984 6.72689 3.64864 5.98005 6.57244 4.51337
threshold=1.0000000180025095e-35 0.55431270196294957 13.500000000000002 13.843451060453029 12.334760031814492 14.237371233397699
decision_type=2 2 2 2 2 2
left_child=-1 2 3 4 5 -2
right_child=1 -3 -4 -5 -6 -7
leaf_value=-0.10229564385411785 0.0092275085085543693 0.13511725375567576 0.027871020433689733 0.09347824226341124 -0.10548160518263999 -0.038197955455460342
leaf_weight=5.9879135340452185 60.464825823903084 3.7677186205983153 38.786167532205582 5.3520509600639334 7.1308883279561988 29.794730588793755
leaf_count=121 259 22 171 23 30 140
internal_value=0 0.0536544 0.0174633 -0.0806718 -0.138321 -0.0637828
internal_weight=0 145.296 141.529 102.742 97.3904 90.2596
internal_count=766 645 623 452 429 399
shrinkage=0.1


Tree=25
num_leaves=7
num_cat=0
split_feature=0 1 3 6 6 3
split_gain=5.22244 5.08413 3.50042 4.40542 3.92424 3.98311
threshold=10.988031545427015 0.55431270196294957 3.5000000000000004 38.500000000000007 15.500000000000002 32.000000000000007
decision_type=2 2 2 2 2 2
left_child=-1 2 3 -2 -4 -6
right_child=1 -3 4 -5 5 -7
leaf_value=0.11288835115436512 -0.017881453382705768 0.11157528936210775 -0.051583691628112709 -0.1205175693075195 0.0058918929739101254 0.095508447469055541
leaf_weight=3.9301446639001361 34.060402557253838 3.6980008631944647 11.05528901144862 4.7115813903510562 87.130865089595318 5.1604104973375788
leaf_count=21 189 26 53 25 424 28
internal_value=0 -0.0218086 -0.0528523 -0.3088 0.0427239 0.111009
internal_weight=0 145.817 142.119 38.772 103.347 92.2913
internal_count=766 745 719 214 505 452
shrinkage=0.1


Tree=26
num_leaves=7
num_cat=0
split_feature=7 1 2 3 4 2
split_gain=6.12025 5.26431 3.14598 3.02691 3.59947 3.49228
threshold=1.0000000180025095e-35 0.55431270196294957 0.56812173466320925 2.5000000000000004 4.7317154998291731 0.42020373514431192
decision_type=2 2 2 2 2 2
left_child=-1 2 3 4 5 -2
right_child=1 -3 -4 -5 -6 -7
leaf_value=-0.10155363162603566 -0.039726031105341793 0.12689279403674375 0.071914100128687972 0.0057892028513411922 -0.098843370759900448 0.052228107693726634
leaf_weight=5.4915767312049857 12.933299079537397 3.3296692222356787 6.0028638392686835 109.22183194756508 6.0980000495910636 5.8835402727127066
leaf_count=121 66 22 29 474 27 27
internal_value=0 0.048678 0.0180869 -0.0133762 -0.327442 -0.104409
internal_weight=0 143.469 140.14 134.137 24.9148 18.8168
internal_count=766 645 623 594 120 93
shrinkage=0.1


Tree=27
num_leaves=7
num_cat=0
split_feature=7 2 2 3 2 7
split_gain=5.47795 3.4665 2.4479 3.5459 3.11436 2.77402
threshold=1.0000000180025095e-35 0.61240559256078198 0.47922998986828774 19.500000000000004 0.35214626692383494 14.311675790098398
decision_type=2 2 2 2 2 2
left_child=-1 2 4 -4 -2 -6
right_child=1 -3 3 -5 5 -7
leaf_value=-0.10073349837577897 -0.037647838281628779 0.08180668506988939 -0.054964910043200338 0.043827410248172854 0.008505727000954557 0.077670068976935888
leaf_weight=5.0083478949964038 13.754075959324835 5.4435367286205283 15.012635886669161 4.599277287721633 97.990447118878365 6.0885135680437079
leaf_count=121 60 30 66 22 439 28
internal_value=0 0.0442008 0.012325 -0.313023 0.0673568 0.127077
internal_weight=0 142.888 137.445 19.6119 117.833 104.079
internal_count=766 645 615 88 527 467
shrinkage=0.1


Tree=28
num_leaves=7
num_cat=0
split_feature=0 7 6 3 2 2
split_gain=6.04594 4.62251 4.11071 3.52625 3.29978 4.043
threshold=10.988031545427015 1.0000000180025095e-35 15.500000000000002 32.000000000000007 0.48324001493094443 0.35214626692383494
decision_type=2 2 2 2 2 2
left_child=-1 -2 -3 4 5 -4
right_child=1 2 3 -5 -6 -7
leaf_value=0.13001359439901236 -0.099874323416149491 -0.046505558585646922 -0.046486951693338829 0.092905839726550268 -0.042907702760128286 0.017058736985721201
leaf_weight=3.4607780687510958 4.4995477292686692 15.508439570665358 11.022631973028181 4.5810897126793853 12.912456788122652 95.190372541546822
leaf_count=20 119 70 48 25 60 424
internal_value=0 -0.014619 0.0175205 0.0790024 0.0447856 0.103501
internal_weight=0 143.715 139.215 123.707 119.125 106.213
internal_count=766 746 627 557 532 472
shrinkage=0.1


Tree=29
num_leaves=7
num_cat=0
split_feature=0 7 5 2 1 7
split_gain=5.11325 4.15693 3.86206 3.67895 3.25205 3.3803
threshold=10.988031545427015 1.0000000180025095e-35 6.7072178990787021 0.48324001493094443 0.39429530201342289 9.2086889328290837
decision_type=2 2 2 2 2 2
left_child=-1 -2 3 -3 -4 -6
right_child=1 2 4 -5 5 -7
leaf_value=0.1214602007219968 -0.099081801602250053 0.00027387190445742109 -0.031876141618011299 -0.056875300448452883 0.0014236095171013844 0.090670060270491348
leaf_weight=3.3485674262046805 4.1032197643071404 103.08236119151115 4.9610922187566784 12.490461327135561 6.9313357099890736 11.565633848309515
leaf_count=20 119 461 21 61 33 51
internal_value=0 -0.0134591 0.0157136 -0.0589373 0.384962 0.578444
internal_weight=0 143.134 139.031 115.573 23.4581 18.497
internal_count=766 746 627 522 105 84
shrinkage=0.1


Tree=30
num_leaves=7
num_cat=0
split_feature=0 1 6 3 2 2
split_gain=4.33275 3.48772 4.00273 2.73663 2.52944 2.44065
threshold=10.988031545427015 0.55431270196294957 15.500000000000002 32.000000000000007 0.44562647754127865 0.35214626692383494
decision_type=2 2 2 2 2 2
left_child=-1 2 4 5 -2 -4
right_child=1 -3 3 -5 -6 -7
leaf_value=0.1136863689926791 -0.026319325946875222 0.10500573702621702 -0.044460486238355891 0.079408659682043942 -0.12053228878116296 0.0040300818121252338
leaf_weight=3.2342074289917937 11.105907719582317 2.8983101546764365 11.342827521264551 4.3138434886932364 3.9169889837503424 109.13784543797374
leaf_count=20 57 24 60 26 20 559
internal_value=0 -0.0122605 -0.0356981 0.0226438 -0.521375 -0.00515757
internal_weight=0 142.716 139.817 124.795 15.0229 120.481
internal_count=766 746 722 645 77 619
shrinkage=0.1


Tree=31
num_leaves=7
num_cat=0
split_feature=7 5 7 6 0 4
split_gain=4.36095 3.07575 3.64616 3.08332 3.3547 2.82466
threshold=1.0000000180025095e-35 5.1615756900220537 7.9274128877205365 36.500000000000007 13.038747592654905 2.3502401828962087
decision_type=2 2 2 2 2 2
left_child=-1 5 -3 4 -4 -2
right_child=1 2 3 -5 -6 -7
leaf_value=-0.099079076613331055 0.0012668147392690728 -0.032608195661951965 0.10984462474286814 0.10736292488083032 0.0083086677493954542 -0.052458701444223002
leaf_weight=4.0789638161659232 95.374234117567539 7.2029592692852011 3.9261020272970262 6.3385548442602149 17.755699798464775 10.755631472915409
leaf_count=124 435 33 21 28 78 47
internal_value=0 0.0428077 0.298565 0.462426 0.2754 -0.0416416
internal_weight=0 141.353 35.2233 28.0204 21.6818 106.13
internal_count=766 642 160 127 99 482
shrinkage=0.1


Tree=32
num_leaves=7
num_cat=0
split_feature=0 1 6 3 0 2
split_gain=3.69901 3.049 3.2115 2.28676 2.38699 2.39618
threshold=10.988031545427015 0.55431270196294957 15.500000000000002 32.000000000000007 14.961778254716316 0.48324001493094443
decision_type=2 2 2 2 2 2
left_child=-1 2 -2 4 5 -4
right_child=1 -3 3 -5 -6 -7
leaf_value=0.10769389338146221 -0.047048887257530529 0.10106384064107539 0.010018710350839363 0.073925581478850033 -0.03914555081726695 -0.036585591687144536
leaf_weight=3.0648721344768992 14.898940682411192 2.7292443588376036 93.477076485753059 4.1326357722282401 14.099493954330681 12.346842242404817
leaf_count=20 77 24 471 26 77 71
internal_value=0 -0.0121236 -0.0336042 0.0186956 -0.00626275 0.04477
internal_weight=0 141.684 138.955 124.056 119.923 105.824
internal_count=766 746 722 645 619 542
shrinkage=0.1


Tree=33
num_leaves=7
num_cat=0
split_feature=7 1 5 7 1 2
split_gain=3.95549 3.38157 2.62096 3.58197 2.73969 2.27251
threshold=1.0000000180025095e-35 0.55431270196294957 5.1615756900220537 7.9274128877205365 0.39429530201342289 0.49999999974400067
decision_type=2 2 2 2 2 2
left_child=-1 2 5 -4 -5 -2
right_child=1 -3 3 4 -6 -7
leaf_value=-0.098483296969191031 -0.0018006238406611448 0.11727792152910732 -0.038489466120575466 -0.014920205625804043 0.05918271996334723 -0.057084291026805539
leaf_weight=3.7578269205987445 95.95638644695282 2.4591361172497264 6.7473695874214163 6.2813935279846218 21.073905356228352 7.9725669994950286
leaf_count=124 430 20 30 28 96 38
internal_value=0 0.0384379 0.0166834 0.257133 0.419134 -0.0617321
internal_weight=0 140.491 138.032 34.1027 27.3553 103.929
internal_count=766 642 622 154 124 468
shrinkage=0.1


Tree=34
num_leaves=7
num_cat=0
split_feature=7 1 2 7 3 7
split_gain=3.54415 3.00408 2.35073 3.26885 2.50451 2.27434
threshold=1.0000000180025095e-35 0.55431270196294957 0.35214626692383494 14.311675790098398 5.5000000000000009 13.154729090501295
decision_type=2 2 2 2 2 2
left_child=-1 2 4 5 -2 -4
right_child=1 -3 3 -5 -6 -7
leaf_value=-0.097681925543596559 0 0.11429019218910473 0.0051995049520051802 0.080167731458371208 -0.087681592425603458 -0.061269283841795003
leaf_weight=3.4276750776916733 7.1377264708280546 2.283347960561513 114.26419508457184 5.5164377689361563 5.6978930979967117 5.2601290792226783
leaf_count=124 33 20 516 26 24 23
internal_value=0 0.0346952 0.0148202 0.0572873 -0.389935 0.0215414
internal_weight=0 140.16 137.876 125.041 12.8356 119.524
internal_count=766 642 622 565 57 539
shrinkage=0.1


Tree=35
num_leaves=7
num_cat=0
split_feature=2 5 5 4 6 2
split_gain=3.55805 3.49886 3.88722 2.83432 3.60911 4.06978
threshold=0.35214626692383494 8.4874393210360637 7.4241538888604834 7.0293358077236654 37.500000000000007 0.4396135257939528
decision_type=2 2 2 2 2 2
left_child=-1 2 3 4 5 -2
right_child=1 -3 -4 -5 -6 -7
leaf_value=-0.053864037164837578 0.025776530492939837 -0.063473497518382632 0.067705824103338752 -0.082904450101737984 -0.038458393001826026 -0.017453086273199272
leaf_weight=13.267286935821174 60.703653996810317 7.9776357226073733 8.8652458097785694 3.9116437900811425 17.956167114898562 33.623974714428186
leaf_count=71 308 42 47 23 93 182
internal_value=0 0.00164307 0.0433965 -0.00499049 0.0239469 0.102878
internal_weight=0 133.038 125.061 116.195 112.284 94.3276
internal_count=766 695 653 606 583 490
shrinkage=0.1


Tree=36
num_leaves=7
num_cat=0
split_feature=0 3 2 3 5 0
split_gain=3.23291 2.92181 2.83503 4.66166 2.4816 3.79653
threshold=14.599818975254427 20.500000000000004 0.40988927071401621 4.5000000000000009 6.8680853849257781 14.058265250470201
decision_type=2 2 2 2 2 2
left_child=4 2 -2 -4 -1 -6
right_child=1 -3 3 -5 5 -7
leaf_value=-0.0018376972310972452 -0.076162667380914373 0.043428985212603639 0.045319022303340659 -0.058201572127965451 0.007127251485054927 0.11554585380985694
leaf_weight=95.559642964974046 13.392108710482718 4.4641508571803561 7.3429346680641201 10.202485595829783 10.535400919616221 4.6530994009226552
leaf_count=498 75 23 40 48 60 22
internal_value=0 -0.305565 -0.415941 -0.144544 0.0407621 0.414729
internal_weight=0 35.4017 30.9375 17.5454 110.748 15.1885
internal_count=766 186 163 88 580 82
shrinkage=0.1


Tree=37
num_leaves=7
num_cat=0
split_feature=0 1 7 4 0 6
split_gain=2.6513 2.7291 2.21572 2.12363 2.0899 2.9009
threshold=14.599818975254427 0.3965528334570651 1.0000000180025095e-35 0.89587973461402759 11.431676882514681 18.500000000000004
decision_type=2 2 2 2 2 2
left_child=2 -2 -1 -3 -4 -6
right_child=1 3 4 -5 5 -7
leaf_value=-0.094317829853042906 -0.0028435159077524587 -0.0288461352127523 0.080233815780924977 -0.10745700649018269 -0.028703144314920888 0.011809067661759131
leaf_weight=2.1294958051294079 19.81629685126245 9.5471309693530184 3.5287746377289286 5.7229654639959326 22.300805389881134 82.748117599636316
leaf_count=81 106 51 20 29 99 380
internal_value=0 -0.277833 0.0368431 -0.593985 0.0577702 0.0311661
internal_weight=0 35.0864 110.707 15.2701 108.578 105.049
internal_count=766 186 580 80 499 479
shrinkage=0.1


Tree=38
num_leaves=7
num_cat=0
split_feature=1 0 1 7 6 6
split_gain=2.34997 2.38238 2.30123 1.88596 1.8371 2.27218
threshold=0.55431270196294957 15.109392850014183 0.3965528334570651 1.0000000180025095e-35 18.500000000000004 16.500000000000004
decision_type=2 2 2 2 2 2
left_child=1 3 -3 -1 5 -5
right_child=-2 2 -4 4 -6 -7
leaf_value=-0.093372695908040745 0.092693675817220017 -0.0097397682458439678 -0.090293129514503967 -0.005351959427978943 0.0070593074928073252 -0.074028279982335285
leaf_weight=2.0388784641399971 2.3652613721787921 9.0945019982755166 5.9873980013653627 19.751871421933178 99.619955822825432 6.380065217614173
leaf_count=91 26 48 32 91 450 28
internal_value=0 -0.0523502 -0.426641 -0.00724509 0.00809677 -0.226616
internal_weight=0 142.873 15.0819 127.791 125.752 26.1319
internal_count=766 740 80 660 569 119
shrinkage=0.1


Tree=39
num_leaves=7
num_cat=0
split_feature=2 6 5 5 0 6
split_gain=2.86777 2.82257 2.69335 2.94814 2.38914 8.55679
threshold=0.35214626692383494 26.500000000000004 8.4874393210360637 7.4241538888604834 14.114929550266593 38.500000000000007
decision_type=2 2 2 2 2 2
left_child=1 -1 3 4 -2 -6
right_child=2 -3 -4 -5 5 -7
leaf_value=-0.099320078058494687 0.012260089811552397 -0.0048444605914369585 -0.054825431386237571 0.060545508865071235 -0.00077428606201572156 -0.13265704481298321
leaf_weight=5.7605656664818508 69.507589608430862 7.2376512736082077 7.9202225208282462 8.7134548723697645 40.125498513691127 5.5032584425061932
leaf_count=33 360 38 42 47 217 29
internal_value=0 -0.478015 0.0118116 0.0487173 0.00535791 -0.171512
internal_weight=0 12.9982 131.77 123.85 115.136 45.6288
internal_count=766 71 695 653 606 246
shrinkage=0.1


Tree=40
num_leaves=7
num_cat=0
split_feature=2 0 2 2 7 5
split_gain=2.3697 2.32397 2.3286 6.07386 4.19367 2.73288
threshold=0.35214626692383494 11.431676882514681 0.48324001493094443 0.56812173466320925 10.360016904318341 8.6155535363693918
decision_type=2 2 2 2 2 2
left_child=-1 -2 5 4 -4 -3
right_child=1 2 3 -5 -6 -7
leaf_value=-0.043719786091208912 0.08160673007078717 0.0077475164949333299 -0.020740314457019821 0.051460884385421041 -0.13804735595608655 -0.069895135290658897
leaf_weight=12.850321116857229 3.3651307187974444 105.20787914283574 7.2603506743907946 5.5687009003013364 5.4284666329622269 4.6036546751856795
leaf_count=71 24 542 48 35 24 22
internal_value=0 0.0103798 -0.0109865 -0.340885 -0.723304 0.0435247
internal_weight=0 131.434 128.069 18.2575 12.6888 109.812
internal_count=766 695 671 107 72 564
shrinkage=0.1


Tree=41
num_leaves=7
num_cat=0
split_feature=7 1 2 6 5 5
split_gain=2.10854 2.58216 1.80338 2.47805 1.98462 2.58669
threshold=1.0000000180025095e-35 0.55431270196294957 0.35214626692383494 26.500000000000004 8.4874393210360637 7.457294702222014
decision_type=2 2 2 2 2 2
left_child=-1 2 3 -2 5 -4
right_child=1 -3 4 -5 -6 -7
leaf_value=-0.094628220055228321 -0.088536842642272934 0.10875651492946953 6.7844937159909432e-05 0 -0.048286903352479198 0.059458524023884435
leaf_weight=2.3294766005128613 5.4604187011718732 1.9855154864490019 111.75025308132172 7.0663551688194275 7.5899090319871894 7.7447460219264022
leaf_count=107 27 21 510 31 34 36
internal_value=0 -0.010115 -0.027183 -0.387391 0.00809363 0.0403447
internal_weight=0 141.597 139.612 12.5268 127.085 119.495
internal_count=766 659 638 58 580 546
shrinkage=0.1


Tree=42
num_leaves=7
num_cat=0
split_feature=7 1 5 5 2 7
split_gain=2.51841 2.15348 1.87709 2.73779 2.42782 3.3427
threshold=1.0000000180025095e-35 0.55431270196294957 5.1615756900220537 3.1132683346437333 0.40740740740740827 8.6273506998737375
decision_type=2 2 2 2 2 2
left_child=-1 2 3 4 5 -2
right_child=1 -3 -4 -5 -6 -7
leaf_value=-0.094681200722888048 -0.043003998692693057 0.10674437701721302 0.022781567802937525 -0.056776474638535523 0.021298800928253352 0.0081252505794132384
leaf_weight=2.4530719909816971 21.041998654603958 1.9329932220280162 36.496303126215935 8.7307334989309293 36.577614568173885 31.796603493392467
leaf_count=125 103 22 168 38 168 142
internal_value=0 0.0504086 0.0343142 -0.0370992 0.014615 -0.12152
internal_weight=0 136.576 134.643 98.147 89.4162 52.8386
internal_count=766 641 619 451 413 245
shrinkage=0.1


Tree=43
num_leaves=7
num_cat=0
split_feature=7 1 5 4 7 5
split_gain=2.25135 1.92941 1.52586 3.40943 2.65777 2.23804
threshold=1.0000000180025095e-35 0.55431270196294957 5.1615756900220537 7.6499283957787076 11.177778072801482 3.1132683346437333
decision_type=2 2 2 2 2 2
left_child=-1 2 5 4 -4 -2
right_child=1 -3 3 -5 -6 -7
leaf_value=-0.093791512996311471 0.0013119820367307902 0.10448549030332417 0.016806222261540469 -0.033800771455962837 0.084825901277531396 -0.0514773246863727
leaf_weight=2.2407411057502022 89.163753792643547 1.7874505110084999 19.551962263882164 8.5767581164836866 8.3012257814407331 8.6817543208599073
leaf_count=125 413 22 90 39 39 38
internal_value=0 0.045664 0.0308848 0.205503 0.376195 -0.0335675
internal_weight=0 136.063 134.275 36.4299 27.8532 97.8455
internal_count=766 641 619 168 129 451
shrinkage=0.1


Tree=44
num_leaves=7
num_cat=0
split_feature=7 1 0 0 7 6
split_gain=2.01427 1.72923 1.52499 3.33193 2.51317 3.50241
threshold=1.0000000180025095e-35 0.55431270196294957 12.832456808345684 12.31764892117703 9.2421243225559007 38.500000000000007
decision_type=2 2 2 2 2 2
left_child=-1 2 3 -2 -4 -6
right_child=1 -3 4 -5 5 -7
leaf_value=-0.092869053881358077 -0.0015109928179090513 0.10232791225135821 -0.020212538182286938 0.075041557761734851 0.019158992714704753 -0.052401522068207577
leaf_weight=2.0477985637262455 15.849114470183851 1.6521764267235983 45.440159343183041 8.5877811908721906 56.563213735818863 7.620402827858924
leaf_count=125 76 22 219 41 249 34
internal_value=0 0.0414651 0.0279032 0.253376 -0.0219267 0.104667
internal_weight=0 135.713 134.061 24.4369 109.624 64.1836
internal_count=766 641 619 117 502 283
shrinkage=0.1


Tree=45
num_leaves=7
num_cat=0
split_feature=7 2 2 7 7 2
split_gain=1.80278 1.5565 2.95379 2.96067 2.39874 3.96924
threshold=1.0000000180025095e-35 0.61240559256078198 0.48324001493094443 10.360016904318341 10.484839784776666 0.37638079935745705
decision_type=2 2 2 2 2 2
left_child=-1 2 4 -4 5 -2
right_child=1 -3 3 -5 -6 -7
leaf_value=-0.091909290772660024 -0.020391506897286443 0.059746477483184179 0 -0.091176485369845461 0.025821864221601033 0.028637261465331049
leaf_weight=1.8725262153893698 49.11511130258441 4.6745918542146674 7.7478405833244306 6.3578153401613235 42.620901951566339 24.669576831161976
leaf_count=125 236 30 38 30 193 114
internal_value=0 0.037595 0.0164471 -0.412972 0.0694823 -0.0388089
internal_weight=0 135.186 130.511 14.1057 116.406 73.7847
internal_count=766 641 611 68 543 350
shrinkage=0.1


Tree=46
num_leaves=7
num_cat=0
split_feature=7 1 2 6 6 7
split_gain=1.61385 1.53328 1.50381 1.66213 3.65579 3.57566
threshold=1.0000000180025095e-35 0.55431270196294957 0.25677655677655692 27.500000000000004 21.500000000000004 11.154813910360163
decision_type=2 2 2 2 2 2
left_child=-1 2 -2 4 5 -4
right_child=1 -3 3 -5 -6 -7
leaf_value=-0.090908077662730111 0.049953882119654291 0.10001571432613454 -0.012126706147967514 0.0088878429036346306 -0.052696576828153235 0.068672599294756831
leaf_weight=1.7133455919101823 6.1530248597264281 1.5035960096865881 25.866066008806229 77.906080514192581 16.551779396831989 6.8006242141127577
leaf_count=125 28 22 123 359 77 32
internal_value=0 0.033984 0.0216335 -0.00138881 -0.1456 0.0466769
internal_weight=0 134.781 133.278 127.125 49.2185 32.6667
internal_count=766 641 619 591 232 155
shrinkage=0.1


Tree=47
num_leaves=7
num_cat=0
split_feature=0 2 2 4 5 2
split_gain=1.52979 1.33818 3.00737 1.80923 1.80713 2.79987
threshold=10.988031545427015 0.61240559256078198 0.49999999974400067 8.047466477474261 5.1615756900220537 0.40740740740740827
decision_type=2 2 2 2 2 2
left_child=-1 2 3 4 5 -2
right_child=1 -3 -4 -5 -6 -7
leaf_value=0.074349482348330206 -0.015120448580147007 0.052632918536238971 -0.058848190873317531 -0.058272328099033391 0.028045057810437715 0.021564220123030664
leaf_weight=2.7304540593177071 57.129909934476018 4.5955132991075507 8.4482578346505743 4.5773686324246219 26.134600459598005 32.512535123154521
leaf_count=22 319 33 51 25 142 174
internal_value=0 0.00279349 -0.0158077 0.024349 0.0495645 -0.0172347
internal_weight=0 133.398 128.803 120.354 115.777 89.6424
internal_count=766 744 711 660 635 493
shrinkage=0.1


end of trees

feature importances:
tfidf-sum=78
category=44
target_amount=40
images=33
period=32
twitter_followers=27
method=24
twitter_friends=10

parameters:
[boosting: gbdt]
[objective: binary]
[metric: binary_logloss]
[tree_learner: serial]
[device_type: cpu]
[data: ]
[valid: ]
[num_iterations: 100]
[learning_rate: 0.1]
[num_leaves: 7]
[num_threads: -1]
[max_depth: -1]
[min_data_in_leaf: 20]
[min_sum_hessian_in_leaf: 0.001]
[bagging_fraction: 0.828302]
[pos_bagging_fraction: 1]
[neg_bagging_fraction: 1]
[bagging_freq: 7]
[bagging_seed: 3]
[feature_fraction: 0.9]
[feature_fraction_bynode: 1]
[feature_fraction_seed: 2]
[early_stopping_round: 0]
[first_metric_only: 0]
[max_delta_step: 0]
[lambda_l1: 0.0722568]
[lambda_l2: 0.122543]
[min_gain_to_split: 0]
[drop_rate: 0.1]
[max_drop: 50]
[skip_drop: 0.5]
[xgboost_dart_mode: 0]
[uniform_drop: 0]
[drop_seed: 4]
[top_rate: 0.2]
[other_rate: 0.1]
[min_data_per_group: 100]
[max_cat_threshold: 32]
[cat_l2: 10]
[cat_smooth: 10]
[max_cat_to_onehot: 4]
[top_k: 20]
[monotone_constraints: ]
[feature_contri: ]
[forcedsplits_filename: ]
[forcedbins_filename: ]
[refit_decay_rate: 0.9]
[cegb_tradeoff: 1]
[cegb_penalty_split: 0]
[cegb_penalty_feature_lazy: ]
[cegb_penalty_feature_coupled: ]
[verbosity: -1]
[max_bin: 255]
[max_bin_by_feature: ]
[min_data_in_bin: 3]
[bin_construct_sample_cnt: 200000]
[histogram_pool_size: -1]
[data_random_seed: 1]
[output_model: LightGBM_model.txt]
[snapshot_freq: -1]
[input_model: ]
[output_result: LightGBM_predict_result.txt]
[initscore_filename: ]
[valid_data_initscores: ]
[pre_partition: 0]
[enable_bundle: 1]
[max_conflict_rate: 0]
[is_enable_sparse: 1]
[sparse_threshold: 0.8]
[use_missing: 1]
[zero_as_missing: 0]
[two_round: 0]
[save_binary: 0]
[header: 0]
[label_column: ]
[weight_column: ]
[group_column: ]
[ignore_column: ]
[categorical_feature: ]
[predict_raw_score: 0]
[predict_leaf_index: 0]
[predict_contrib: 0]
[num_iteration_predict: -1]
[pred_early_stop: 0]
[pred_early_stop_freq: 10]
[pred_early_stop_margin: 10]
[convert_model_language: ]
[convert_model: gbdt_prediction.cpp]
[num_class: 1]
[is_unbalance: 0]
[scale_pos_weight: 1]
[sigmoid: 1]
[boost_from_average: 1]
[reg_sqrt: 0]
[alpha: 0.9]
[fair_c: 1]
[poisson_max_delta_step: 0.7]
[tweedie_variance_power: 1.5]
[max_position: 20]
[lambdamart_norm: 1]
[label_gain: ]
[metric_freq: 1]
[is_provide_training_metric: 0]
[eval_at: ]
[multi_error_top_k: 1]
[num_machines: 1]
[local_listen_port: 12400]
[time_out: 120]
[machine_list_filename: ]
[machines: ]
[gpu_platform_id: -1]
[gpu_device_id: -1]
[gpu_use_dp: 0]

end of parameters

pandas_categorical:[]
