tree
version=v3
num_class=1
num_tree_per_iteration=1
label_index=0
max_feature_idx=8
objective=binary sigmoid:1
feature_names=target_amount method category images twitter_friends twitter_followers period friends_per_follower tfidf-sum
feature_infos=[9.2103403719761836:17.72753356339242] [0.40909090909090912:0.92857142857051567] [0.20000000000000043:0.98964218258992398] [0:110] [-inf:9.762557428101923] [-inf:10.609452236806687] [2:45] [-inf:0.84239791590877489] [0:18.655491637483884]
tree_sizes=433 435 433 436 434 435 429 431 436 435 429 431 436 437 435 430 436 437 436 438 432 435 434 437 434 440 433 433 433 438 436 434 432 434 437 431 434 435 434 438 436 433 436 435 439 439 432 435 431 433 437 436 437 439 437 435 430 436 432 433 434 434 439 437 438 438 432 436 433 434 431 438 437 433 438 434 435 439 436 435 434 434 427 438 434 436 434 431 432 438 430 436 432

Tree=0
num_leaves=3
num_cat=0
split_feature=8 3
split_gain=58.1379 49.6903
threshold=1.0000000180025095e-35 9.5000000000000018
decision_type=2 2
left_child=-1 -2
right_child=1 -3
leaf_value=-0.41703762176527415 -0.26233145238789707 -0.14921189187048789
leaf_weight=16.757314622402191 108.18325175344944 60.375618860125542
leaf_count=68 439 245
internal_value=0 0.181728
internal_weight=0 168.559
internal_count=752 684
shrinkage=1


Tree=1
num_leaves=3
num_cat=0
split_feature=8 3
split_gain=48.459 39.8935
threshold=1.0000000180025095e-35 9.5000000000000018
decision_type=2 2
left_child=-1 -2
right_child=1 -3
leaf_value=-0.16415350321511227 -0.020060519039814928 0.081051347161336107
leaf_weight=16.281748354434967 107.88326007127762 60.910341963171959
leaf_count=68 439 245
internal_value=0 0.163036
internal_weight=0 168.794
internal_count=752 684
shrinkage=0.1


Tree=2
num_leaves=3
num_cat=0
split_feature=8 0
split_gain=40.8699 34.7583
threshold=1.0000000180025095e-35 13.14197373398097
decision_type=2 2
left_child=-1 -2
right_child=1 -3
leaf_value=-0.1541292451182254 0.084438240326664915 -0.014715564715831297
leaf_weight=15.641536414623259 50.195858955383301 118.57380206882954
leaf_count=68 203 481
internal_value=0 0.146544
internal_weight=0 168.77
internal_count=752 684
shrinkage=0.1


Tree=3
num_leaves=3
num_cat=0
split_feature=8 3
split_gain=34.7836 31.1437
threshold=1.0000000180025095e-35 9.5000000000000018
decision_type=2 2
left_child=-1 -2
right_child=1 -3
leaf_value=-0.14607119411019587 -0.019047349977856069 0.070189431671852279
leaf_weight=14.894309043884276 107.68459816277027 61.184522345662117
leaf_count=68 439 245
internal_value=0 0.131606
internal_weight=0 168.869
internal_count=752 684
shrinkage=0.1


Tree=4
num_leaves=3
num_cat=0
split_feature=8 0
split_gain=29.8323 27.1374
threshold=1.0000000180025095e-35 13.14197373398097
decision_type=2 2
left_child=-1 -2
right_child=1 -3
leaf_value=-0.13946656346585129 0.07333869970815439 -0.014190165400201252
leaf_weight=14.083155930042265 50.392740249633789 118.20852442085743
leaf_count=68 203 481
internal_value=0 0.118487
internal_weight=0 168.601
internal_count=752 684
shrinkage=0.1


Tree=5
num_leaves=3
num_cat=0
split_feature=8 3
split_gain=25.7419 24.4861
threshold=1.0000000180025095e-35 9.5000000000000018
decision_type=2 2
left_child=-1 -2
right_child=1 -3
leaf_value=-0.13396541896949454 -0.017936044759755174 0.061265543795376791
leaf_weight=13.240233480930327 107.38860662281513 61.09069786965847
leaf_count=68 439 245
internal_value=0 0.106568
internal_weight=0 168.479
internal_count=752 684
shrinkage=0.1


Tree=6
num_leaves=3
num_cat=0
split_feature=8 1
split_gain=22.9234 21.007
threshold=5.1914316458680858 0.65156113212625189
decision_type=2 2
left_child=-1 -2
right_child=1 -3
leaf_value=-0.11876939679789895 0.0033623037112555619 0.19835339999755425
leaf_weight=14.980774402618406 159.6149460375309 5.6991879642009726
leaf_count=79 650 23
internal_value=0 0.102627
internal_weight=0 165.314
internal_count=752 673
shrinkage=0.1


Tree=7
num_leaves=3
num_cat=0
split_feature=0 5
split_gain=19.0977 15.8866
threshold=12.68861309355197 7.3559604897625013
decision_type=2 10
left_child=-1 -2
right_child=1 -3
leaf_value=0.065863371131804654 -0.0292067649286081 0.070345844525664059
leaf_weight=34.934667244553566 126.31816454231739 18.225222185254097
leaf_count=144 533 75
internal_value=0 -0.164848
internal_weight=0 144.543
internal_count=752 608
shrinkage=0.1


Tree=8
num_leaves=3
num_cat=0
split_feature=8 3
split_gain=19.9363 16.4725
threshold=1.0000000180025095e-35 4.5000000000000009
decision_type=2 2
left_child=-1 -2
right_child=1 -3
leaf_value=-0.12539450230943619 -0.032506469908032902 0.032525810018594635
leaf_weight=11.872834861278532 61.376369625329971 105.77540527284145
leaf_count=70 252 430
internal_value=0 0.085109
internal_weight=0 167.152
internal_count=752 682
shrinkage=0.1


Tree=9
num_leaves=3
num_cat=0
split_feature=8 1
split_gain=17.4407 18.3235
threshold=1.0000000180025095e-35 0.65156113212625189
decision_type=2 2
left_child=-1 -2
right_child=1 -3
leaf_value=-0.12197276099701185 0.0011722248354482253 0.18076385200679262
leaf_weight=11.02971677482128 161.05400541424751 5.8633498400449744
leaf_count=70 658 24
internal_value=0 0.0765335
internal_weight=0 166.917
internal_count=752 682
shrinkage=0.1


Tree=10
num_leaves=3
num_cat=0
split_feature=8 0
split_gain=16.7632 18.3893
threshold=14.016157968023526 12.68861309355197
decision_type=2 2
left_child=1 -1
right_child=-2 -3
leaf_value=0.057666738506774 0.13357722454903304 -0.02429508749766374
leaf_weight=34.292119324207306 8.8367363810539228 133.88164930045605
leaf_count=143 36 573
internal_value=0 -0.0744034
internal_weight=0 168.174
internal_count=752 716
shrinkage=0.1


Tree=11
num_leaves=3
num_cat=0
split_feature=8 1
split_gain=15.193 13.5894
threshold=5.4552945901460603 0.65156113212625189
decision_type=2 2
left_child=-1 -2
right_child=1 -3
leaf_value=-0.10096833593054438 0.002700931359570365 0.16347959318471711
leaf_weight=13.786039561033247 157.21029523015022 5.4172551780939093
leaf_count=85 644 23
internal_value=0 0.0823001
internal_weight=0 162.628
internal_count=752 667
shrinkage=0.1


Tree=12
num_leaves=3
num_cat=0
split_feature=2 3
split_gain=14.9734 9.7874
threshold=0.39936709863769965 1.5000000000000002
decision_type=2 2
left_child=1 -1
right_child=-2 -3
leaf_value=-0.096354114048539483 0.033873193251571919 -0.0099401348491054489
leaf_weight=15.895009681582449 80.734920144081116 78.927349045872688
leaf_count=68 344 340
internal_value=0 -0.246934
internal_weight=0 94.8224
internal_count=752 408
shrinkage=0.1


Tree=13
num_leaves=3
num_cat=0
split_feature=8 0
split_gain=14.193 13.2861
threshold=1.0000000180025095e-35 13.14197373398097
decision_type=2 2
left_child=-1 -2
right_child=1 -3
leaf_value=-0.11662092204100727 0.052539251810544141 -0.0093758212870760048
leaf_weight=9.4963844418525678 49.044156029820442 116.71951386332512
leaf_count=70 201 481
internal_value=0 0.0881551
internal_weight=0 165.764
internal_count=752 682
shrinkage=0.1


Tree=14
num_leaves=3
num_cat=0
split_feature=8 3
split_gain=13.5551 13.2068
threshold=11.150872272963623 13.500000000000002
decision_type=2 2
left_child=1 -1
right_child=-2 -3
leaf_value=-0.032178475028954621 0.048375032751757939 0.044795213402908644
leaf_weight=99.812477350234985 45.895519956946373 28.474087104201317
leaf_count=435 189 128
internal_value=0 -0.149113
internal_weight=0 128.287
internal_count=752 563
shrinkage=0.1


Tree=15
num_leaves=3
num_cat=0
split_feature=5 1
split_gain=12.901 9.61665
threshold=5.2648733937772212 0.65156113212625189
decision_type=10 2
left_child=1 -1
right_child=-2 -3
leaf_value=-0.018940673245610315 0.04940835852901642 0.1361244236248888
leaf_weight=126.98541104793549 42.556882910430431 4.0650878399610511
leaf_count=552 181 19
internal_value=0 -0.13923
internal_weight=0 131.05
internal_count=752 571
shrinkage=0.1


Tree=16
num_leaves=3
num_cat=0
split_feature=2 3
split_gain=10.7643 7.62482
threshold=0.39936709863769965 1.5000000000000002
decision_type=2 2
left_child=1 -1
right_child=-2 -3
leaf_value=-0.086128346947496701 0.028378159590001086 -0.008580009246322946
leaf_weight=15.335441574454306 79.964855372905731 77.966732449829578
leaf_count=68 344 340
internal_value=0 -0.215948
internal_weight=0 93.3022
internal_count=752 408
shrinkage=0.1


Tree=17
num_leaves=3
num_cat=0
split_feature=8 1
split_gain=12.3308 10.4679
threshold=1.0000000180025095e-35 0.65156113212625189
decision_type=2 2
left_child=-1 -2
right_child=1 -3
leaf_value=-0.11426716669012348 0.0027641019791771332 0.14738391798030584
leaf_weight=8.7238652259111387 159.00064754486084 5.1477331221103659
leaf_count=70 658 24
internal_value=0 0.0746779
internal_weight=0 164.148
internal_count=752 682
shrinkage=0.1


Tree=18
num_leaves=3
num_cat=0
split_feature=5 3
split_gain=10.0907 9.64663
threshold=5.2648733937772212 9.5000000000000018
decision_type=10 2
left_child=1 -1
right_child=-2 -3
leaf_value=-0.034487861100030097 0.041721157985423446 0.022554064080022626
leaf_weight=85.422416783869267 41.893399335443974 44.891200743615627
leaf_count=374 179 199
internal_value=0 -0.146652
internal_weight=0 130.314
internal_count=752 573
shrinkage=0.1


Tree=19
num_leaves=3
num_cat=0
split_feature=8 8
split_gain=10.8747 9.25347
threshold=14.226800675380256 1.0000000180025095e-35
decision_type=2 2
left_child=1 -1
right_child=-2 -3
leaf_value=-0.11219463803005825 0.1140404980821042 -0.00087155736572928813
leaf_weight=7.8305980414152137 7.8228680193424216 155.90755572915077
leaf_count=68 33 651
internal_value=0 -0.0635615
internal_weight=0 163.738
internal_count=752 719
shrinkage=0.1


Tree=20
num_leaves=3
num_cat=0
split_feature=0 8
split_gain=9.80848 9.24001
threshold=13.14197373398097 14.016157968023526
decision_type=2 2
left_child=-1 -2
right_child=1 -3
leaf_value=0.036796581595703939 -0.023223293675399451 0.091744314533341323
leaf_weight=49.316977329552174 114.12678007036448 7.348649948835372
leaf_count=216 505 31
internal_value=0 -0.160585
internal_weight=0 121.475
internal_count=752 536
shrinkage=0.1


Tree=21
num_leaves=3
num_cat=0
split_feature=1 3
split_gain=8.5624 8.00538
threshold=0.65156113212625189 3.5000000000000004
decision_type=2 2
left_child=1 -1
right_child=-2 -3
leaf_value=-0.038433500909793743 0.12779389329670918 0.0096028851473943903
leaf_weight=49.306775353848934 4.9942233934998503 115.78961608558893
leaf_count=217 26 509
internal_value=0 -0.0461327
internal_weight=0 165.096
internal_count=752 726
shrinkage=0.1


Tree=22
num_leaves=3
num_cat=0
split_feature=0 5
split_gain=8.05528 6.84831
threshold=12.83245412977786 7.3559604897625013
decision_type=2 10
left_child=-1 -2
right_child=1 -3
leaf_value=0.044036591846782082 -0.020040955711826451 0.046092203225812034
leaf_weight=32.586411342024803 119.05610612779856 17.839778795838356
leaf_count=143 534 75
internal_value=0 -0.112492
internal_weight=0 136.896
internal_count=752 609
shrinkage=0.1


Tree=23
num_leaves=3
num_cat=0
split_feature=8 1
split_gain=9.04369 7.80472
threshold=1.0000000180025095e-35 0.65156113212625189
decision_type=2 2
left_child=-1 -2
right_child=1 -3
leaf_value=-0.1102775113984418 0.00047018120310083418 0.13385663119429211
leaf_weight=7.1515558511018744 157.25596857070923 4.4870380312204352
leaf_count=68 660 24
internal_value=0 0.0433854
internal_weight=0 161.743
internal_count=752 684
shrinkage=0.1


Tree=24
num_leaves=3
num_cat=0
split_feature=8 3
split_gain=9.73574 9.11322
threshold=9.7416584128655845 13.500000000000002
decision_type=2 2
left_child=1 -1
right_child=-2 -3
leaf_value=-0.035132217911690446 0.028060386940016741 0.044421743426036955
leaf_weight=79.793702073395252 70.720482051372528 17.316715970635414
leaf_count=367 298 87
internal_value=0 -0.207044
internal_weight=0 97.1104
internal_count=752 454
shrinkage=0.1


Tree=25
num_leaves=3
num_cat=0
split_feature=8 5
split_gain=8.29094 7.31532
threshold=1.0000000180025095e-35 5.2648733937772212
decision_type=2 10
left_child=-1 -2
right_child=1 -3
leaf_value=-0.10861254739810758 -0.0077755090704016558 0.041364251328279929
leaf_weight=6.7232381552457801 120.14556779712439 40.319382950663567
leaf_count=70 513 169
internal_value=0 0.0443889
internal_weight=0 160.465
internal_count=752 682
shrinkage=0.1


Tree=26
num_leaves=3
num_cat=0
split_feature=0 7
split_gain=7.25226 5.49773
threshold=12.68861309355197 0.089343980557144917
decision_type=2 10
left_child=1 -1
right_child=-2 -3
leaf_value=0.052349087231233243 -0.010323637850664195 -0.1400818031618532
leaf_weight=30.476581871509556 134.51889780908823 1.4684819430112828
leaf_count=137 609 6
internal_value=0 0.426523
internal_weight=0 31.9451
internal_count=752 143
shrinkage=0.1


Tree=27
num_leaves=3
num_cat=0
split_feature=8 7
split_gain=7.71287 8.07582
threshold=9.7416584128655845 -0.92317703634762727
decision_type=2 8
left_child=1 -1
right_child=-2 -3
leaf_value=0.19310484404301653 0.024951830009089748 -0.022813725542118642
leaf_weight=1.7095109671354292 70.44562865793705 93.885126911103725
leaf_count=7 298 447
internal_value=0 -0.186455
internal_weight=0 95.5946
internal_count=752 454
shrinkage=0.1


Tree=28
num_leaves=3
num_cat=0
split_feature=8 3
split_gain=7.20534 6.84949
threshold=5.4552945901460603 37.500000000000007
decision_type=2 2
left_child=-1 -2
right_child=1 -3
leaf_value=-0.084701864789603551 0.0012598316760687124 0.12638435341330057
leaf_weight=9.4567028582096082 151.68949169665575 4.4830433577299109
leaf_count=85 647 20
internal_value=0 0.0502385
internal_weight=0 156.173
internal_count=752 667
shrinkage=0.1


Tree=29
num_leaves=3
num_cat=0
split_feature=8 7
split_gain=6.55597 6.24908
threshold=1.0000000180025095e-35 0.32120038690558467
decision_type=2 10
left_child=-1 -2
right_child=1 -3
leaf_value=-0.10554467436330306 0.006401098328740056 -0.14703772495441825
leaf_weight=5.6556048132479182 156.70931763201952 2.6557842046022406
leaf_count=70 671 11
internal_value=0 0.0367027
internal_weight=0 159.365
internal_count=752 682
shrinkage=0.1


Tree=30
num_leaves=3
num_cat=0
split_feature=8 7
split_gain=8.30723 6.67851
threshold=14.226800675380256 0.070585910061605403
decision_type=2 8
left_child=1 -1
right_child=-2 -3
leaf_value=0.026013974720249095 0.10419262561735945 -0.019249637937620336
leaf_weight=45.759356863796711 7.1202927231788626 111.50946687906981
leaf_count=205 32 515
internal_value=0 -0.0593436
internal_weight=0 157.269
internal_count=752 720
shrinkage=0.1


Tree=31
num_leaves=3
num_cat=0
split_feature=8 8
split_gain=6.92801 5.95029
threshold=14.226800675380256 4.9245316353171162
decision_type=2 2
left_child=1 -1
right_child=-2 -3
leaf_value=-0.10616091831469195 0.096549503345943755 -0.0014270336571178266
leaf_weight=5.6125033237040034 6.928578443825244 151.34254877269268
leaf_count=73 32 647
internal_value=0 -0.0533877
internal_weight=0 156.955
internal_count=752 720
shrinkage=0.1


Tree=32
num_leaves=3
num_cat=0
split_feature=5 0
split_gain=6.24329 5.57063
threshold=5.2648733937772212 12.958111343918313
decision_type=10 2
left_child=-1 -2
right_child=1 -3
leaf_value=-0.01213186918251093 0.11070387706276173 0.014459236342223715
leaf_weight=122.91296795010567 7.5761674717068663 32.713021636009216
leaf_count=572 35 145
internal_value=0 0.331971
internal_weight=0 40.2892
internal_count=752 180
shrinkage=0.1


Tree=33
num_leaves=3
num_cat=0
split_feature=8 8
split_gain=5.82503 5.32034
threshold=14.226800675380256 4.9245316353171162
decision_type=2 2
left_child=1 -1
right_child=-2 -3
leaf_value=-0.10465965778477669 0.089944373832016686 -0.0011954277314401719
leaf_weight=5.1233957782387725 6.7357446402311316 150.91885151714087
leaf_count=73 32 647
internal_value=0 -0.047598
internal_weight=0 156.042
internal_count=752 720
shrinkage=0.1


Tree=34
num_leaves=3
num_cat=0
split_feature=1 8
split_gain=5.98103 5.43079
threshold=0.65156113212625189 5.1914316458680858
decision_type=2 2
left_child=1 -1
right_child=-2 -3
leaf_value=-0.099695098265540447 0.11619629193548316 -0.00017806213393428409
leaf_weight=5.6703520305454722 4.2183555439114562 152.24555397033691
leaf_count=75 27 650
internal_value=0 -0.0391557
internal_weight=0 157.916
internal_count=752 725
shrinkage=0.1


Tree=35
num_leaves=3
num_cat=0
split_feature=5 5
split_gain=5.33711 8.11015
threshold=7.437427946205001 8.3253018611430125
decision_type=10 8
left_child=-1 -2
right_child=1 -3
leaf_value=-0.0070123380845138351 0.12658674154039293 -0.0086147896440141366
leaf_weight=144.2054583914578 7.8716520071029663 9.4563557505607623
leaf_count=676 35 41
internal_value=0 0.516534
internal_weight=0 17.328
internal_count=752 76
shrinkage=0.1


Tree=36
num_leaves=3
num_cat=0
split_feature=3 7
split_gain=6.05915 8.99102
threshold=4.5000000000000009 -0.25039594193156006
decision_type=2 8
left_child=1 -1
right_child=-2 -3
leaf_value=0.11972449290152386 0.014463152176863003 -0.036718123811277176
leaf_weight=3.8501361757516861 103.59871024638414 54.18769134953618
leaf_count=16 482 254
internal_value=0 -0.258852
internal_weight=0 58.0378
internal_count=752 270
shrinkage=0.1


Tree=37
num_leaves=3
num_cat=0
split_feature=2 3
split_gain=5.67745 4.94457
threshold=0.29285732080177423 3.5000000000000004
decision_type=2 2
left_child=-1 -2
right_child=1 -3
leaf_value=-0.065133104434627137 -0.022852474786137739 0.01718264948989965
leaf_weight=12.324718683958052 43.241673413664103 105.55991448462009
leaf_count=56 201 495
internal_value=0 0.0539534
internal_weight=0 148.802
internal_count=752 696
shrinkage=0.1


Tree=38
num_leaves=3
num_cat=0
split_feature=1 3
split_gain=5.09861 4.9142
threshold=0.65156113212625189 4.5000000000000009
decision_type=2 2
left_child=1 -1
right_child=-2 -3
leaf_value=-0.026957942154299194 0.11098310779179424 0.010030434980972589
leaf_weight=55.336264573037624 3.9964176043868056 101.42118827626109
leaf_count=260 27 465
internal_value=0 -0.0288723
internal_weight=0 156.757
internal_count=752 725
shrinkage=0.1


Tree=39
num_leaves=3
num_cat=0
split_feature=7 0
split_gain=4.91435 5.45434
threshold=0.070585910061605403 12.83245412977786
decision_type=10 2
left_child=1 -1
right_child=-2 -3
leaf_value=0.043351112116843671 -0.073000564190151648 -0.0048538147097585502
leaf_weight=28.866140812635422 8.6849731653928739 122.60603502392769
leaf_count=136 40 576
internal_value=0 0.0419325
internal_weight=0 151.472
internal_count=752 712
shrinkage=0.1


Tree=40
num_leaves=3
num_cat=0
split_feature=2 7
split_gain=4.55202 5.59107
threshold=0.29285732080177423 0.32120038690558467
decision_type=2 10
left_child=-1 -2
right_child=1 -3
leaf_value=-0.058846695232008729 0.0072243379226055813 -0.16232858756420901
leaf_weight=12.11718066036701 145.71298208087683 1.9264741986989964
leaf_count=56 686 10
internal_value=0 0.0482042
internal_weight=0 147.639
internal_count=752 696
shrinkage=0.1


Tree=41
num_leaves=3
num_cat=0
split_feature=0 6
split_gain=4.3141 4.46749
threshold=11.223016217343758 10.500000000000002
decision_type=2 2
left_child=-1 -2
right_child=1 -3
leaf_value=0.098678418421875691 -0.07575166050230564 0.0010120169960577549
leaf_weight=4.2701952904462805 7.9315132871270171 147.40927070751786
leaf_count=21 36 695
internal_value=0 -0.0278048
internal_weight=0 155.341
internal_count=752 731
shrinkage=0.1


Tree=42
num_leaves=3
num_cat=0
split_feature=8 0
split_gain=4.17552 4.09734
threshold=13.979779597747045 14.237370577483935
decision_type=2 2
left_child=1 -1
right_child=-2 -3
leaf_value=0.0069115794686058392 0.070308698902849728 -0.027241084708995167
leaf_weight=97.457290627062321 7.6496574133634558 54.388421598821878
leaf_count=464 38 250
internal_value=0 -0.0517761
internal_weight=0 151.846
internal_count=752 714
shrinkage=0.1


Tree=43
num_leaves=3
num_cat=0
split_feature=1 1
split_gain=4.12395 3.98395
threshold=0.65156113212625189 0.43134647616381527
decision_type=2 2
left_child=1 -1
right_child=-2 -3
leaf_value=0.0088493524584770233 0.1043123597238983 -0.023859496199088438
leaf_weight=94.599710814654827 3.566569246351718 60.918971836566925
leaf_count=438 26 288
internal_value=0 -0.0382196
internal_weight=0 155.519
internal_count=752 726
shrinkage=0.1


Tree=44
num_leaves=3
num_cat=0
split_feature=8 1
split_gain=4.10477 4.37472
threshold=1.0000000180025095e-35 0.65156113212625189
decision_type=2 2
left_child=-1 -2
right_child=1 -3
leaf_value=-0.10065918258931093 -0.00089692654758354051 0.11815768541626287
leaf_weight=4.0035341177135697 151.72817003726959 3.1088764965534201
leaf_count=70 659 23
internal_value=0 0.0137658
internal_weight=0 154.837
internal_count=752 682
shrinkage=0.1


Tree=45
num_leaves=3
num_cat=0
split_feature=8 1
split_gain=3.66759 3.84652
threshold=1.0000000180025095e-35 0.65156113212625189
decision_type=2 2
left_child=-1 -2
right_child=1 -3
leaf_value=-0.09939570625954891 -0.00080730786873974805 0.11480577089073118
leaf_weight=3.6667180471122256 151.71896147727966 2.8919557556509963
leaf_count=70 659 23
internal_value=0 0.0123737
internal_weight=0 154.611
internal_count=752 682
shrinkage=0.1


Tree=46
num_leaves=3
num_cat=0
split_feature=7 6
split_gain=3.66226 5.91022
threshold=0.10143003013900972 34.500000000000007
decision_type=10 2
left_child=-1 -2
right_child=1 -3
leaf_value=0.0023228712252996403 -0.11568125093932605 0.10659573345641296
leaf_weight=150.51501546613872 5.8716832604259244 1.3682679664343593
leaf_count=717 28 7
internal_value=0 -0.702711
internal_weight=0 7.23995
internal_count=752 35
shrinkage=0.1


Tree=47
num_leaves=3
num_cat=0
split_feature=2 1
split_gain=3.47349 7.23842
threshold=0.39936709863769965 0.43134647616381527
decision_type=2 2
left_child=-1 -2
right_child=1 -3
leaf_value=-0.014565140488260617 0.043222012577433633 -0.02021871398953656
leaf_weight=85.362600367516279 40.73028365150094 31.610183127224445
leaf_count=410 186 156
internal_value=0 0.151954
internal_weight=0 72.3405
internal_count=752 342
shrinkage=0.1


Tree=48
num_leaves=3
num_cat=0
split_feature=0 6
split_gain=3.8174 8.00315
threshold=13.14197373398097 13.500000000000002
decision_type=2 2
left_child=1 -1
right_child=-2 -3
leaf_value=-0.051182812105382516 -0.008586892092948108 0.048862708014395594
leaf_weight=10.139892753213642 112.44572451896966 34.914702987298369
leaf_count=48 535 169
internal_value=0 0.25827
internal_weight=0 45.0546
internal_count=752 217
shrinkage=0.1


Tree=49
num_leaves=3
num_cat=0
split_feature=0 2
split_gain=3.7634 4.11902
threshold=16.320828205012408 0.39936709863769965
decision_type=2 2
left_child=1 -1
right_child=-2 -3
leaf_value=-0.012134948970880849 -0.17548938917244189 0.020456466660289156
leaf_weight=85.361021908000112 1.1589199602603901 70.637688741087914
leaf_count=411 5 336
internal_value=0 0.0248069
internal_weight=0 155.999
internal_count=752 747
shrinkage=0.1


Tree=50
num_leaves=3
num_cat=0
split_feature=8 6
split_gain=3.4849 3.45599
threshold=1.0000000180025095e-35 6.5000000000000009
decision_type=2 2
left_child=-1 -2
right_child=1 -3
leaf_value=-0.098463923739992187 -0.10963816456047391 0.0053534274069418786
leaf_weight=3.4046199899166814 2.6112565696239463 150.89819454401731
leaf_count=70 11 671
internal_value=0 0.0322578
internal_weight=0 153.509
internal_count=752 682
shrinkage=0.1


Tree=51
num_leaves=3
num_cat=0
split_feature=2 7
split_gain=3.19573 4.3476
threshold=0.29285732080177423 0.32120038690558467
decision_type=2 10
left_child=-1 -2
right_child=1 -3
leaf_value=-0.049420649202133196 0.0070142694285459245 -0.14847445738019133
leaf_weight=11.644157828763126 143.22747860662639 1.7747974228113879
leaf_count=55 687 10
internal_value=0 0.0491958
internal_weight=0 145.002
internal_count=752 697
shrinkage=0.1


Tree=52
num_leaves=3
num_cat=0
split_feature=0 2
split_gain=3.30852 4.97272
threshold=12.83245412977786 0.5577777777756403
decision_type=2 2
left_child=-1 -2
right_child=1 -3
leaf_value=0.031171989726643229 -0.00047643523789007254 -0.076925063668550286
leaf_weight=29.058084826916456 118.25196982733905 9.1855784468352777
leaf_count=142 566 44
internal_value=0 -0.0618298
internal_weight=0 127.438
internal_count=752 610
shrinkage=0.1


Tree=53
num_leaves=3
num_cat=0
split_feature=8 0
split_gain=3.09415 3.25276
threshold=1.0000000180025095e-35 14.237370577483935
decision_type=2 2
left_child=-1 -2
right_child=1 -3
leaf_value=-0.097261876777071862 0.014016975187419428 -0.016077588139389334
leaf_weight=3.1214763913303605 96.247116610407829 56.899359129369259
leaf_count=70 432 250
internal_value=0 0.0268852
internal_weight=0 153.146
internal_count=752 682
shrinkage=0.1


Tree=54
num_leaves=3
num_cat=0
split_feature=7 6
split_gain=3.53856 4.55028
threshold=-0.81563586432157253 6.5000000000000009
decision_type=8 2
left_child=-1 -2
right_child=1 -3
leaf_value=0.077380043039892585 -0.13892637666703916 0.00016970429011675827
leaf_weight=5.8060510903596878 2.3482886403799048 147.85326929204166
leaf_count=27 10 715
internal_value=0 -0.0188958
internal_weight=0 150.202
internal_count=752 725
shrinkage=0.1


Tree=55
num_leaves=3
num_cat=0
split_feature=0 7
split_gain=2.94603 4.78407
threshold=14.599818516921198 -0.81563586432157253
decision_type=2 8
left_child=1 -1
right_child=-2 -3
leaf_value=0.12108549332288616 -0.023133781383693097 0.0049729715977644487
leaf_weight=3.656505785882473 38.153287522494793 114.06702385470271
leaf_count=18 177 557
internal_value=0 0.0880624
internal_weight=0 117.724
internal_count=752 575
shrinkage=0.1


Tree=56
num_leaves=3
num_cat=0
split_feature=6 1
split_gain=3.43071 6.49283
threshold=39.500000000000007 0.41680960548885088
decision_type=2 2
left_child=-1 -2
right_child=1 -3
leaf_value=0.0054483839990045746 0.11016115504907889 -0.078599632125587293
leaf_weight=142.351233324036 2.0538606941699973 11.249713543802498
leaf_count=690 9 53
internal_value=0 -0.475567
internal_weight=0 13.3036
internal_count=752 62
shrinkage=0.1


Tree=57
num_leaves=3
num_cat=0
split_feature=1 5
split_gain=2.81377 3.23835
threshold=0.65156113212625189 9.6042388931773548
decision_type=2 10
left_child=1 -1
right_child=-2 -3
leaf_value=0.00038522345863661552 0.097530771248741349 -0.13614858779315811
leaf_weight=150.97715323232114 2.9116230495274058 1.7177912145853032
leaf_count=719 26 7
internal_value=0 -0.0103675
internal_weight=0 152.695
internal_count=752 726
shrinkage=0.1


Tree=58
num_leaves=3
num_cat=0
split_feature=8 3
split_gain=2.8211 5.15364
threshold=11.034154220505238 9.5000000000000018
decision_type=2 2
left_child=1 -1
right_child=-2 -3
leaf_value=-0.0216809817393258 0.022482994140929344 0.024976674098779312
leaf_weight=78.85964816249907 43.130551863461733 33.466729076579213
leaf_count=386 194 172
internal_value=0 -0.0757693
internal_weight=0 112.326
internal_count=752 558
shrinkage=0.1


Tree=59
num_leaves=3
num_cat=0
split_feature=6 1
split_gain=2.84181 5.32737
threshold=39.500000000000007 0.41680960548885088
decision_type=2 2
left_child=-1 -2
right_child=1 -3
leaf_value=0.0048357315028387266 0.099083208337408898 -0.072109034874573305
leaf_weight=141.73277074284852 2.0420712530612937 11.120562715455888
leaf_count=690 9 53
internal_value=0 -0.436521
internal_weight=0 13.1626
internal_count=752 62
shrinkage=0.1


Tree=60
num_leaves=3
num_cat=0
split_feature=8 6
split_gain=3.88083 2.88412
threshold=14.016157968023526 8.5000000000000018
decision_type=2 2
left_child=1 -1
right_child=-2 -3
leaf_value=-0.085204882544865801 0.073147347501387364 -0.0013808462575349667
leaf_weight=4.214896071702241 6.790978852659463 143.40818136930466
leaf_count=20 35 697
internal_value=0 -0.0394639
internal_weight=0 147.623
internal_count=752 717
shrinkage=0.1


Tree=61
num_leaves=3
num_cat=0
split_feature=8 2
split_gain=3.2588 2.8916
threshold=14.226800675380256 0.67948635537840418
decision_type=2 2
left_child=1 -1
right_child=-2 -3
leaf_value=-0.0060327161159464586 0.072055464746769438 0.074817017295384092
leaf_weight=143.74541590921581 5.9115954115986815 4.5018867552280417
leaf_count=695 32 25
internal_value=0 -0.0340862
internal_weight=0 148.247
internal_count=752 720
shrinkage=0.1


Tree=62
num_leaves=3
num_cat=0
split_feature=8 1
split_gain=2.79999 3.09951
threshold=1.0000000180025095e-35 0.65156113212625189
decision_type=2 2
left_child=-1 -2
right_child=1 -3
leaf_value=-0.096539537411182111 -0.00027980687514305612 0.10980502809817937
leaf_weight=2.9339566901326171 148.34999932348728 2.5597334951162329
leaf_count=71 657 24
internal_value=0 0.0146558
internal_weight=0 150.91
internal_count=752 681
shrinkage=0.1


Tree=63
num_leaves=3
num_cat=0
split_feature=5 4
split_gain=2.77223 3.92891
threshold=5.2648733937772212 8.0471465011163037
decision_type=10 10
left_child=-1 -2
right_child=1 -3
leaf_value=-0.0081157777303263959 0.036250295790586022 -0.055595036653199363
leaf_weight=115.38223760202527 32.799981871619821 5.2267021909356108
leaf_count=571 158 23
internal_value=0 0.229968
internal_weight=0 38.0267
internal_count=752 181
shrinkage=0.1


Tree=64
num_leaves=3
num_cat=0
split_feature=7 8
split_gain=2.75105 3.83815
threshold=0.070585910061605403 14.016157968023526
decision_type=10 2
left_child=1 -1
right_child=-2 -3
leaf_value=-0.0003260794596315725 -0.056711295402438647 0.083098082002588336
leaf_weight=139.35740943811834 8.1632462888956052 5.6851345263421527
leaf_count=680 40 32
internal_value=0 0.0280989
internal_weight=0 145.043
internal_count=752 712
shrinkage=0.1


Tree=65
num_leaves=3
num_cat=0
split_feature=8 3
split_gain=2.49593 2.89876
threshold=1.0000000180025095e-35 37.500000000000007
decision_type=2 2
left_child=-1 -2
right_child=1 -3
leaf_value=-0.095265938642811354 -0.00079432873354026538 0.08470221794087468
leaf_weight=2.6828621076419941 146.19062921777368 4.0299882963299742
leaf_count=71 660 21
internal_value=0 0.013706
internal_weight=0 150.221
internal_count=752 681
shrinkage=0.1


Tree=66
num_leaves=3
num_cat=0
split_feature=2 2
split_gain=2.79126 6.367
threshold=0.5577777777756403 0.67948635537840418
decision_type=2 2
left_child=-1 -2
right_child=1 -3
leaf_value=0.0034832333191588006 -0.088893513154165091 0.052007238529649363
leaf_weight=138.64809062425047 9.7905841134488565 4.5181629359722129
leaf_count=678 48 26
internal_value=0 -0.428232
internal_weight=0 14.3087
internal_count=752 74
shrinkage=0.1


Tree=67
num_leaves=3
num_cat=0
split_feature=2 7
split_gain=2.83077 4.05949
threshold=0.29285732080177423 0.32120038690558467
decision_type=2 10
left_child=-1 -2
right_child=1 -3
leaf_value=-0.048178523338106634 0.0052657282220487465 -0.14187603854569125
leaf_weight=11.582215558737515 139.59318566694856 1.8568226052448142
leaf_count=56 685 11
internal_value=0 0.0313956
internal_weight=0 141.45
internal_count=752 696
shrinkage=0.1


Tree=68
num_leaves=3
num_cat=0
split_feature=0 6
split_gain=2.55781 2.5092
threshold=10.250061142816103 27.500000000000004
decision_type=2 2
left_child=-1 -2
right_child=1 -3
leaf_value=0.12975614480832784 -0.018819942936058251 0.0077576429314686508
leaf_weight=1.4496714994311322 56.335280719213188 95.060553707182407
leaf_count=8 284 460
internal_value=0 -0.0198644
internal_weight=0 151.396
internal_count=752 744
shrinkage=0.1


Tree=69
num_leaves=3
num_cat=0
split_feature=2 2
split_gain=2.28939 5.15338
threshold=0.5577777777756403 0.67948635537840418
decision_type=2 2
left_child=-1 -2
right_child=1 -3
leaf_value=0.0033257281152350607 -0.079786198149193258 0.046980571693079821
leaf_weight=138.41103037633002 9.8533738721162063 4.4803711250424376
leaf_count=678 48 26
internal_value=0 -0.385861
internal_weight=0 14.3337
internal_count=752 74
shrinkage=0.1


Tree=70
num_leaves=3
num_cat=0
split_feature=2 0
split_gain=2.31475 3.5783
threshold=0.29285732080177423 12.448826553421027
decision_type=2 2
left_child=1 -1
right_child=-2 -3
leaf_value=0.083632981942886875 0.0029665094227876434 -0.068278320476271012
leaf_weight=1.689073085784911 141.34963133744895 9.7525687776505929
leaf_count=7 696 49
internal_value=0 -0.437064
internal_weight=0 11.4416
internal_count=752 56
shrinkage=0.1


Tree=71
num_leaves=3
num_cat=0
split_feature=0 7
split_gain=2.2876 2.55166
threshold=11.223016217343758 0.089343980557144917
decision_type=2 10
left_child=-1 -2
right_child=1 -3
leaf_value=0.077979936183164858 0.00043011736697443873 -0.060059919148903275
leaf_weight=3.5886506736278525 141.77108774147928 7.2642043530941001
leaf_count=20 695 37
internal_value=0 -0.0238228
internal_weight=0 149.035
internal_count=752 732
shrinkage=0.1


Tree=72
num_leaves=3
num_cat=0
split_feature=5 5
split_gain=3.61988 4.23576
threshold=5.0530509062989237 3.0201273556387074
decision_type=10 10
left_child=1 -1
right_child=-2 -3
leaf_value=-0.0013541574251866352 0.028023781642514612 -0.068003853765410002
leaf_weight=104.03626904450357 37.56865101121366 10.553748825564979
leaf_count=521 181 50
internal_value=0 -0.0770771
internal_weight=0 114.59
internal_count=752 571
shrinkage=0.1


Tree=73
num_leaves=3
num_cat=0
split_feature=5 0
split_gain=2.94493 3.46117
threshold=5.0530509062989237 12.958111343918313
decision_type=10 2
left_child=-1 -2
right_child=1 -3
leaf_value=-0.0069656705004526465 0.091039170145703216 0.01032481951533012
leaf_weight=114.50593403168023 6.6379321962594977 30.827089328318834
leaf_count=571 37 144
internal_value=0 0.252977
internal_weight=0 37.465
internal_count=752 181
shrinkage=0.1


Tree=74
num_leaves=3
num_cat=0
split_feature=5 5
split_gain=2.4164 3.46304
threshold=5.0530509062989237 3.0201273556387074
decision_type=10 10
left_child=1 -1
right_child=-2 -3
leaf_value=-0.00052350780799392512 0.023027375780718246 -0.060978998405194274
leaf_weight=103.92104929685593 37.204713106155396 10.48057155869901
leaf_count=521 181 50
internal_value=0 -0.0627536
internal_weight=0 114.402
internal_count=752 571
shrinkage=0.1


Tree=75
num_leaves=3
num_cat=0
split_feature=8 0
split_gain=2.41267 6.77107
threshold=11.034154220505238 15.109392575578129
decision_type=2 2
left_child=-1 -2
right_child=1 -3
leaf_value=-0.0069747412930966507 0.039695396537561448 -0.067150226620020459
leaf_weight=109.64654896873981 34.787831246852875 6.991998314857482
leaf_count=557 164 31
internal_value=0 0.212359
internal_weight=0 41.7798
internal_count=752 195
shrinkage=0.1


Tree=76
num_leaves=3
num_cat=0
split_feature=3 7
split_gain=2.20049 6.89355
threshold=3.5000000000000004 -0.25039594193156006
decision_type=2 8
left_child=1 -1
right_child=-2 -3
leaf_value=0.12652472663429512 0.0086268157002869911 -0.028467049296374558
leaf_weight=3.0026801079511642 105.70217604748905 42.488592384383082
leaf_count=13 528 211
internal_value=0 -0.17651
internal_weight=0 45.4913
internal_count=752 224
shrinkage=0.1


Tree=77
num_leaves=3
num_cat=0
split_feature=8 1
split_gain=2.23912 2.60898
threshold=1.0000000180025095e-35 0.65156113212625189
decision_type=2 2
left_child=-1 -2
right_child=1 -3
leaf_value=-0.094036849789344068 0.00039719915217366905 0.10708543087192984
leaf_weight=2.4164246683940283 146.10798341035843 2.3005217574536792
leaf_count=69 659 24
internal_value=0 0.0222793
internal_weight=0 148.409
internal_count=752 683
shrinkage=0.1


Tree=78
num_leaves=3
num_cat=0
split_feature=5 5
split_gain=2.20588 3.52267
threshold=9.6042388931773548 7.437427946205001
decision_type=10 10
left_child=1 -1
right_child=-2 -3
leaf_value=-0.0056614904380419889 -0.10901977590877786 0.045721441683851199
leaf_weight=133.90534528531134 1.8636225163936604 14.771829253062604
leaf_count=673 8 71
internal_value=0 -0.00395798
internal_weight=0 148.677
internal_count=752 744
shrinkage=0.1


Tree=79
num_leaves=3
num_cat=0
split_feature=0 2
split_gain=2.14374 3.233
threshold=14.237370577483935 0.42302631598518364
decision_type=2 2
left_child=-1 -2
right_child=1 -3
leaf_value=0.0072408504545855836 -0.040005358690533108 0.007786225535811259
leaf_weight=94.843492708168924 29.754652758128941 25.720515141263604
leaf_count=481 150 121
internal_value=0 -0.174537
internal_weight=0 55.4752
internal_count=752 271
shrinkage=0.1


Tree=80
num_leaves=3
num_cat=0
split_feature=6 1
split_gain=2.09508 3.27708
threshold=38.500000000000007 0.41680960548885088
decision_type=2 2
left_child=-1 -2
right_child=1 -3
leaf_value=0.0028696975087460978 0.058960682840453887 -0.050767305398074031
leaf_weight=130.65255157090724 3.0578703880310085 16.351697186008096
leaf_count=656 14 82
internal_value=0 -0.322506
internal_weight=0 19.4096
internal_count=752 96
shrinkage=0.1


Tree=81
num_leaves=3
num_cat=0
split_feature=3 6
split_gain=2.03415 2.34986
threshold=37.500000000000007 38.500000000000007
decision_type=2 2
left_child=1 -1
right_child=-2 -3
leaf_value=0.0012393754773286428 0.068616853220314439 -0.03674992643327276
leaf_weight=127.51464031264186 3.9775490351021281 18.486122913658619
leaf_count=635 25 92
internal_value=0 -0.0342554
internal_weight=0 146.001
internal_count=752 727
shrinkage=0.1


Tree=82
num_leaves=3
num_cat=0
split_feature=0 6
split_gain=1.99056 1.96973
threshold=16.320828205012408 27.500000000000004
decision_type=2 2
left_child=1 -1
right_child=-2 -3
leaf_value=-0.014907758048131148 -0.12363614668685947 0.0088514755221542184
leaf_weight=55.939856978133321 1.2790734767913807 92.586977714672685
leaf_count=289 6 457
internal_value=0 -0
internal_weight=0 148.527
internal_count=752 746
shrinkage=0.1


Tree=83
num_leaves=3
num_cat=0
split_feature=8 1
split_gain=1.92084 2.30891
threshold=1.0000000180025095e-35 0.65156113212625189
decision_type=2 2
left_child=-1 -2
right_child=1 -3
leaf_value=-0.092696977814208895 -0.0011658745307848029 0.10478779269495908
leaf_weight=2.21794201247394 145.52967154979706 2.0482733361423007
leaf_count=70 659 23
internal_value=0 0.00178906
internal_weight=0 147.578
internal_count=752 682
shrinkage=0.1


Tree=84
num_leaves=3
num_cat=0
split_feature=3 2
split_gain=2.69108 2.2763
threshold=37.500000000000007 0.5577777777756403
decision_type=2 2
left_child=1 -1
right_child=-2 -3
leaf_value=0.0030365752747623259 0.08606403007570386 -0.040592600125427966
leaf_weight=132.46262469235808 3.6161493286490431 13.084737796336411
leaf_count=661 24 67
internal_value=0 -0.00741283
internal_weight=0 145.547
internal_count=752 728
shrinkage=0.1


Tree=85
num_leaves=3
num_cat=0
split_feature=3 4
split_gain=2.28012 2.1162
threshold=37.500000000000007 8.0471465011163037
decision_type=2 10
left_child=1 -1
right_child=-2 -3
leaf_value=0.0014636172215068187 0.080760729859026548 -0.064721459186074387
leaf_weight=140.66815580613911 3.4780252929776898 4.9579052925109854
leaf_count=706 24 22
internal_value=0 -0.00651879
internal_weight=0 145.626
internal_count=752 728
shrinkage=0.1


Tree=86
num_leaves=3
num_cat=0
split_feature=2 2
split_gain=2.09104 4.26951
threshold=0.5577777777756403 0.67948635537840418
decision_type=2 2
left_child=-1 -2
right_child=1 -3
leaf_value=0.0049806717482757138 -0.073398160445862851 0.042957065716452386
leaf_weight=134.95923540368676 9.6614324208348972 4.3857487291097632
leaf_count=677 48 27
internal_value=0 -0.354641
internal_weight=0 14.0472
internal_count=752 75
shrinkage=0.1


Tree=87
num_leaves=3
num_cat=0
split_feature=0 8
split_gain=2.11675 4.2029
threshold=13.715674960399744 11.150872272963623
decision_type=2 2
left_child=1 -1
right_child=-2 -3
leaf_value=0.0020319583377228965 -0.0077322138147747441 0.071995142559857714
leaf_weight=41.566784393042326 96.444851777516305 11.033205926418303
leaf_count=212 481 59
internal_value=0 0.171725
internal_weight=0 52.6
internal_count=752 271
shrinkage=0.1


Tree=88
num_leaves=3
num_cat=0
split_feature=0 2
split_gain=1.96321 1.89407
threshold=10.250061142816103 0.5433694745161356
decision_type=2 2
left_child=-1 -2
right_child=1 -3
leaf_value=0.122270791712166 0.0038122540175457142 -0.031774990329426663
leaf_weight=1.2829731702804554 130.58125401288271 16.844383630901575
leaf_count=8 654 90
internal_value=0 -0.00109016
internal_weight=0 147.426
internal_count=752 744
shrinkage=0.1


Tree=89
num_leaves=3
num_cat=0
split_feature=2 1
split_gain=1.99853 4.50109
threshold=0.39936709863769965 0.43134647616381527
decision_type=2 2
left_child=-1 -2
right_child=1 -3
leaf_value=-0.0097215199260184577 0.036291641303192942 -0.015235642356746361
leaf_weight=80.767920655198395 38.353939877822995 29.598479120992124
leaf_count=408 187 157
internal_value=0 0.135224
internal_weight=0 67.9524
internal_count=752 344
shrinkage=0.1


Tree=90
num_leaves=3
num_cat=0
split_feature=6 1
split_gain=2.02978 3.0747
threshold=39.500000000000007 0.41680960548885088
decision_type=2 2
left_child=-1 -2
right_child=1 -3
leaf_value=0.001525299269549865 0.076971232884643248 -0.060913212886679391
leaf_weight=136.55914701707661 1.7326095700263966 10.95073176268488
leaf_count=689 8 55
internal_value=0 -0.401498
internal_weight=0 12.6833
internal_count=752 63
shrinkage=0.1


Tree=91
num_leaves=3
num_cat=0
split_feature=0 7
split_gain=2.23888 3.25795
threshold=14.599818516921198 -0.81563586432157253
decision_type=2 8
left_child=1 -1
right_child=-2 -3
leaf_value=0.10409649318553725 -0.023242174940664127 0.0020270891972027521
leaf_weight=3.2055269330739975 36.607852098532021 109.32007898762822
leaf_count=18 176 558
internal_value=0 0.0516669
internal_weight=0 112.526
internal_count=752 576
shrinkage=0.1


Tree=92
num_leaves=3
num_cat=0
split_feature=6 8
split_gain=1.9531 5.94488
threshold=18.500000000000004 8.242349847448617
decision_type=2 2
left_child=1 -1
right_child=-2 -3
leaf_value=0.029492347294637785 0.0038935448786571627 -0.063454716872880887
leaf_weight=11.248740153387191 120.87057040631771 16.764070045202971
leaf_count=62 611 79
internal_value=0 -0.253437
internal_weight=0 28.0128
internal_count=752 141
shrinkage=0.1


end of trees

feature importances:
tfidf-sum=45
target_amount=27
method=23
category=21
images=21
twitter_followers=17
friends_per_follower=16
period=14
twitter_friends=2

parameters:
[boosting: gbdt]
[objective: binary]
[metric: binary_logloss]
[tree_learner: serial]
[device_type: cpu]
[data: ]
[valid: ]
[num_iterations: 100]
[learning_rate: 0.1]
[num_leaves: 3]
[num_threads: -1]
[max_depth: -1]
[min_data_in_leaf: 5]
[min_sum_hessian_in_leaf: 0.001]
[bagging_fraction: 0.977378]
[pos_bagging_fraction: 1]
[neg_bagging_fraction: 1]
[bagging_freq: 6]
[bagging_seed: 3]
[feature_fraction: 0.92]
[feature_fraction_bynode: 1]
[feature_fraction_seed: 2]
[early_stopping_round: 0]
[first_metric_only: 0]
[max_delta_step: 0]
[lambda_l1: 0.223765]
[lambda_l2: 0.0368743]
[min_gain_to_split: 0]
[drop_rate: 0.1]
[max_drop: 50]
[skip_drop: 0.5]
[xgboost_dart_mode: 0]
[uniform_drop: 0]
[drop_seed: 4]
[top_rate: 0.2]
[other_rate: 0.1]
[min_data_per_group: 100]
[max_cat_threshold: 32]
[cat_l2: 10]
[cat_smooth: 10]
[max_cat_to_onehot: 4]
[top_k: 20]
[monotone_constraints: ]
[feature_contri: ]
[forcedsplits_filename: ]
[forcedbins_filename: ]
[refit_decay_rate: 0.9]
[cegb_tradeoff: 1]
[cegb_penalty_split: 0]
[cegb_penalty_feature_lazy: ]
[cegb_penalty_feature_coupled: ]
[verbosity: -1]
[max_bin: 255]
[max_bin_by_feature: ]
[min_data_in_bin: 3]
[bin_construct_sample_cnt: 200000]
[histogram_pool_size: -1]
[data_random_seed: 1]
[output_model: LightGBM_model.txt]
[snapshot_freq: -1]
[input_model: ]
[output_result: LightGBM_predict_result.txt]
[initscore_filename: ]
[valid_data_initscores: ]
[pre_partition: 0]
[enable_bundle: 1]
[max_conflict_rate: 0]
[is_enable_sparse: 1]
[sparse_threshold: 0.8]
[use_missing: 1]
[zero_as_missing: 0]
[two_round: 0]
[save_binary: 0]
[header: 0]
[label_column: ]
[weight_column: ]
[group_column: ]
[ignore_column: ]
[categorical_feature: ]
[predict_raw_score: 0]
[predict_leaf_index: 0]
[predict_contrib: 0]
[num_iteration_predict: -1]
[pred_early_stop: 0]
[pred_early_stop_freq: 10]
[pred_early_stop_margin: 10]
[convert_model_language: ]
[convert_model: gbdt_prediction.cpp]
[num_class: 1]
[is_unbalance: 0]
[scale_pos_weight: 1]
[sigmoid: 1]
[boost_from_average: 1]
[reg_sqrt: 0]
[alpha: 0.9]
[fair_c: 1]
[poisson_max_delta_step: 0.7]
[tweedie_variance_power: 1.5]
[max_position: 20]
[lambdamart_norm: 1]
[label_gain: ]
[metric_freq: 1]
[is_provide_training_metric: 0]
[eval_at: ]
[multi_error_top_k: 1]
[num_machines: 1]
[local_listen_port: 12400]
[time_out: 120]
[machine_list_filename: ]
[machines: ]
[gpu_platform_id: -1]
[gpu_device_id: -1]
[gpu_use_dp: 0]

end of parameters

pandas_categorical:[]
