tree
version=v3
num_class=1
num_tree_per_iteration=1
label_index=0
max_feature_idx=8
objective=binary sigmoid:1
feature_names=target_amount method category images twitter_friends twitter_followers period tfidf-sum tfidf_non_zero
feature_infos=[9.2104403669765169:17.727533583392422] [0.4644412191582003:0.9999999989636007] [0.24000000000912217:0.99952517247071493] [0:110] [-inf:9.8268224676006426] [-inf:12.778401563790201] [2:46] [0:2.9784158114575354] [0:7.2152399787300974]
tree_sizes=1637 1535 1531 1435 1540 1534 1543 1540 1335 1538 1638 1537 1516 1619 1545 1542 1538 1623 1439 1548 1542 1523 1745 1745 1439

Tree=0
num_leaves=15
num_cat=0
split_feature=8 0 5 8 6 0 4 0 2 2 8 7 3 8
split_gain=21.3634 13.9847 7.08223 6.39149 6.2594 5.77666 4.91011 4.81388 4.07893 3.7509 3.05771 2.03615 0.849734 0.442173
threshold=5.6577370132897373 13.091427739372941 6.958441164573598 5.173316863805991 36.500000000000007 14.114929550266593 1.0000000180025095e-35 14.556313305698998 0.53939391672657944 0.53166664399930674 5.3589392201907193 2.2224710653747386 3.5000000000000004 4.867504863781412
decision_type=2 2 2 2 2 2 2 2 2 2 2 2 2 2
left_child=1 8 6 5 7 11 9 10 -1 -2 -5 12 -3 -7
right_child=2 3 -4 4 -6 13 -8 -9 -10 -11 -12 -13 -14 -15
leaf_value=-0.052291964096995186 0.059648327467086475 -0.1080891240783374 0.10377692396398891 -0.056938447938669992 -0.17159965364211655 -0.22835554507098069 -0.095925131736964375 -0.11544776520503311 0.054388362757089685 -0.053287781402868974 0.042093918466060275 -0.1524038885612099 -0.053068486118685566 -0.17440483290859071
leaf_weight=8.4932171106338483 7.9936161041259819 4.9960100650787407 6.9944140911102286 6.2450125813484245 5.2458105683326712 5.2458105683326703 5.2458105683326712 6.7446135878562918 6.4948130846023551 4.9960100650787354 5.7454115748405457 6.2450125813484183 5.4956110715866089 6.7446135878562927
leaf_count=34 32 20 28 25 21 21 21 27 26 20 23 25 22 27
internal_value=0 -0.332943 0.744225 -0.57632 -0.188335 -0.895316 0.405516 0.076656 0.514197 0.737885 0.461984 -0.502698 -0.217125 -1.42987
internal_weight=0 67.6959 25.2299 52.7079 23.9808 28.7271 18.2354 18.735 14.988 12.9896 11.9904 16.7366 10.4916 11.9904
internal_count=372 271 101 211 96 115 73 75 60 52 48 67 42 48
shrinkage=1


Tree=1
num_leaves=14
num_cat=0
split_feature=8 0 5 0 2 2 8 7 8 8 8 7 8
split_gain=17.611 9.33159 7.88956 7.84778 5.45584 5.76538 5.28673 5.05685 4.42858 3.92176 4.49074 2.51196 0.352886
threshold=5.173316863805991 14.114929550266593 6.8802488615378339 12.832456808345684 0.58113963139503722 0.44425103016882217 5.7477980882242035 2.4780811000353866 5.6750385347198877 5.0139575654555903 4.4829865921051741 2.1643311991326155 4.867504863781412
decision_type=2 2 2 2 2 2 2 2 2 2 2 2 2
left_child=1 9 3 -2 5 6 -5 -7 -4 10 -1 -12 -3
right_child=2 12 8 4 -6 7 -8 -9 -10 -11 11 -13 -14
leaf_value=-0.071799498772859974 0.10478083246674384 -0.15675994446457669 0.031581326800828584 -0.078974326173856524 -0.098826601436295181 0.10543891191088131 0.044273980593749318 -0.0065590114142512826 0.15771231430703142 -0.07605909515225516 0.08591731393052246 -0.0056754496223088121 -0.10692580123908782
leaf_weight=4.9909238368272844 7.4944971501827231 5.1821486055850965 5.2379619181156141 9.7214905470609683 5.4879912585020056 8.2326573282480222 5.2428691834211341 7.4860231131315222 6.731858879327774 8.7231038957834226 5.9941370189189893 5.481233224272728 6.6989304721355438
leaf_count=20 30 21 21 39 22 33 21 30 27 35 24 22 27
internal_value=0 -0.570148 0.318945 0.118299 -0.0719198 0.0891422 -0.3499 0.514564 1.03807 -0.219046 0.0617115 0.412571 -1.30122
internal_weight=0 37.0705 55.6353 43.6655 36.171 30.683 14.9644 15.7187 11.9698 25.1894 16.4663 11.4754 11.8811
internal_count=372 149 223 175 145 123 60 63 48 101 66 46 48
shrinkage=0.1


Tree=2
num_leaves=14
num_cat=0
split_feature=8 0 0 2 3 8 3 7 6 0 6 7 7
split_gain=20.1542 9.18939 7.31486 6.05533 5.7026 5.37476 4.53158 2.90014 3.70401 3.04522 2.29325 1.88814 1.02073
threshold=5.1209788959100075 14.556313305698998 13.276401473620165 0.60464669738851506 5.5000000000000009 5.6920457965633808 2.5000000000000004 2.3539237599366234 28.500000000000004 13.493333430720446 29.500000000000004 2.5518903486972455 2.5384574620385085
decision_type=2 2 2 2 2 2 2 2 2 2 2 2 2
left_child=2 3 -1 7 -3 -6 -4 8 -2 11 -8 -9 -11
right_child=1 4 6 -5 5 -7 10 9 -10 12 -12 -13 -14
leaf_value=0.014774512295255086 -0.017428999218145672 0.063138403913556948 -0.14964924310537756 -0.026144722504917235 -0.11322529775635642 0.010578165476801821 -0.10638557290413503 0.18092698167179808 0.099996014830477598 0.098602433902599193 -0.022472985855240962 0.089899475735033763 0.037201938578306323
leaf_weight=9.475634500384329 5.4739020317792875 6.2083849161863354 8.0707027018070239 5.7035595774650565 6.9576937556266767 6.6954732686281204 5.4214117228984824 6.2182710170745867 4.9677944928407669 5.9647162109613401 9.3765300810337049 4.9758765548467636 6.7173320204019547
leaf_count=38 22 25 33 23 28 27 22 25 20 24 38 20 27
internal_value=0 0.398953 -0.579853 0.67526 -0.152015 -0.517817 -0.886308 0.834557 0.374602 1.02972 -0.542287 1.41998 0.672435
internal_weight=0 59.883 32.3443 40.0215 19.8616 13.6532 22.8686 34.3179 10.4417 23.8762 14.7979 11.1941 12.682
internal_count=372 241 131 161 80 55 93 138 42 96 60 45 51
shrinkage=0.1


Tree=3
num_leaves=13
num_cat=0
split_feature=8 0 0 2 3 3 3 8 1 2 8 3
split_gain=16.5067 7.61802 6.89347 5.53337 5.21711 6.21759 4.66131 3.59281 1.51626 4.49595 1.47761 1.04545
threshold=5.1209788959100075 14.455978008472947 14.711390700911553 0.60464669738851506 5.5000000000000009 12.500000000000002 5.5000000000000009 4.7999057951650004 0.47028559186219682 0.47368421084105966 4.9801701820644562 6.5000000000000009
decision_type=2 2 2 2 2 2 2 2 2 2 2 2
left_child=2 3 6 8 -3 -6 7 -1 11 -10 -8 -2
right_child=1 4 -4 -5 5 -7 10 -9 9 -11 -12 -13
leaf_value=-0.10656497749278718 0.068081563679801213 0.063855362636802873 -0.16093409862338406 -0.027660591780591978 -0.10419353235794898 0.016112423989180825 0.053638282058166266 -0.010194595101921644 0.011445670191867574 0.1141706505661889 -0.019715376146497217 0.13490814179301666
leaf_weight=9.3157702833414131 4.9666794389486331 7.2103633582592037 4.9895209372043601 5.2091846764087668 7.6421130448579815 9.410187825560568 5.691953778266905 7.1188324689865103 9.2003269493579882 8.4084348529577237 4.9368158429861069 7.6698113232851028
leaf_count=38 20 29 21 21 31 38 23 29 37 34 20 31
internal_value=0 0.360953 -0.527869 0.656476 -0.066316 -0.372185 -0.321973 -0.656761 0.821301 0.613264 0.184953 1.09887
internal_weight=0 59.7171 32.0529 35.4544 24.2627 17.0523 27.0634 16.4346 30.2453 17.6088 10.6288 12.6365
internal_count=372 241 131 143 98 69 110 67 122 71 43 51
shrinkage=0.1


Tree=4
num_leaves=14
num_cat=0
split_feature=3 0 5 8 8 0 3 4 0 2 2 6 8
split_gain=16.532 13.2839 6.84346 6.6678 5.11928 5.29371 6.20476 4.7827 4.94399 2.37049 1.04702 0.549774 0.504831
threshold=9.5000000000000018 14.556313305698998 6.958441164573598 4.5217294998350539 6.0672668391739295 14.114929550266593 14.500000000000002 2.8617925509761908 13.444637325911204 0.44425103016882217 0.44425103016882217 33.500000000000007 5.1789666414329583
decision_type=2 2 2 2 2 2 2 2 2 2 2 2 2
left_child=1 2 3 -1 5 6 -2 8 12 -10 -7 -3 -5
right_child=4 11 -4 7 -6 10 -8 -9 9 -11 -12 -13 -14
leaf_value=-0.12855949512248779 0.15665962907810829 -0.13864306580494212 0.095400662088839738 0.039727490683875988 0.14352485780064136 -0.040968557647807741 0.019369169048726542 -0.080201924228457039 -0.061112061906315567 0.013259624879236371 0.017054118412655039 -0.086382598896485641 0.087802160632084236
leaf_weight=5.0573275536298743 5.9247150868177467 8.3106016516685468 5.6570650935173026 6.4545091986656207 5.628995716571807 5.9105633199214918 7.8972339928150177 6.9239691942930213 8.1040305048227328 8.5970632284879667 6.1483600288629532 5.3204542100429526 5.1740467250347137
leaf_count=21 24 35 23 26 23 24 32 28 33 35 25 22 21
internal_value=0 -0.32839 -0.0681768 -0.215405 0.566588 0.371101 0.793667 -0.0571951 0.121486 -0.221708 -0.104339 -1.19436 0.623749
internal_weight=0 59.5991 45.968 40.3109 31.5099 25.8809 13.8219 35.2536 28.3296 16.7011 12.0589 13.6311 11.6286
internal_count=372 244 187 164 128 105 56 143 115 68 49 57 47
shrinkage=0.1


Tree=5
num_leaves=14
num_cat=0
split_feature=3 0 4 8 4 8 0 3 0 6 8 6 3
split_gain=13.5606 11.0926 6.03002 5.16985 6.5507 4.29517 4.34023 5.12975 4.21012 3.20801 3.16902 0.95191 0.558102
threshold=9.5000000000000018 14.556313305698998 6.0741952825945456 4.7140145363037149 2.8617925509761908 6.0672668391739295 14.114929550266593 14.500000000000002 13.091427739372941 28.500000000000004 5.2337752898422689 29.500000000000004 3.5000000000000004
decision_type=2 2 2 2 2 2 2 2 2 2 2 2 2
left_child=1 2 3 -1 8 6 7 -2 -5 -10 -11 -8 -3
right_child=5 12 -4 4 -6 -7 11 -9 9 10 -12 -13 -14
leaf_value=-0.091975344664104466 0.14298347652404889 -0.085165133685607228 0.085462329989083374 0.088812011238339886 -0.10178819701999314 0.1320239220080732 -0.040876427387565702 0.01747317423808192 -0.059113382414808339 -0.016359264096910575 0.083005098117421156 0.014741983833356743 -0.13615131045549317
leaf_weight=8.0621113926172239 5.8495789021253639 7.1951351910829526 6.1290687024593344 6.388746961951262 5.4354527294635764 5.516537368297576 5.415234372019766 7.8838086873292923 6.91038849949837 7.3585736155509931 5.4462524354457855 6.6378938555717468 6.1668034791946411
leaf_count=34 24 31 25 26 22 23 22 32 28 30 22 27 26
internal_value=0 -0.298673 -0.0613641 -0.206879 -0.0199167 0.51483 0.3361 0.720647 0.184528 -0.0387287 0.25095 -0.0930565 -1.09928
internal_weight=0 59.0925 45.7306 39.6015 31.5394 31.3031 25.7865 13.7334 26.104 19.7152 12.8048 12.0531 13.3619
internal_count=372 244 187 162 128 128 105 56 106 80 52 49 57
shrinkage=0.1


Tree=6
num_leaves=14
num_cat=0
split_feature=8 5 6 6 0 3 6 1 6 0 6 2 3
split_gain=14.4651 7.61229 11.8236 6.25356 5.20376 3.5739 4.06174 3.95738 2.59802 3.01294 2.93586 2.27842 0.916934
threshold=5.2337752898422689 7.3411597032432185 38.500000000000007 23.500000000000004 14.114929550266593 17.500000000000004 33.500000000000007 0.47028559186219682 32.500000000000007 12.832456808345684 27.500000000000004 0.47493734354726064 3.5000000000000004
decision_type=2 2 2 2 2 2 2 2 2 2 2 2 2
left_child=4 2 3 11 8 6 7 -5 9 -1 -11 -2 -6
right_child=1 -3 -4 5 12 -7 -8 -9 -10 10 -12 -13 -14
leaf_value=0.046971826038302814 -0.089543106806544773 0.11160954226349318 -0.11833152988314999 -0.058508953489559083 -0.1398094456345603 0.11739648362086506 0.086400199368167507 0.050629470906590826 -0.078658787614260262 -0.089488064372860651 0.013530362039218233 0.0046834231484156963 -0.078046708669163967
leaf_weight=5.9124365150928559 4.8945664465427381 7.8135055750608435 6.5945738703012458 6.5690792202949577 6.876638785004614 6.3339794576168051 8.0271564424037916 6.6142128109931946 8.2939504235982877 5.8114894479513151 4.8985792994499207 4.8672191202640533 6.0429439097642899
leaf_count=24 20 33 27 27 31 26 33 27 34 24 20 20 26
internal_value=0 0.208693 0.0435911 0.264721 -0.603688 0.510253 0.304564 -0.0285712 -0.328872 -0.0919429 -0.413771 -0.41509 -1.12178
internal_weight=0 51.7143 43.9008 37.3062 37.836 27.5444 21.2104 13.1833 24.9165 16.6225 10.7101 9.76179 12.9196
internal_count=372 213 180 153 159 113 87 54 102 68 44 40 57
shrinkage=0.1


Tree=7
num_leaves=14
num_cat=0
split_feature=5 8 6 6 3 0 4 3 0 7 2 8 6
split_gain=12.5848 8.71038 9.47044 4.69749 4.01262 4.32197 3.54563 3.33512 3.04363 2.58451 1.30831 1.26905 0.760723
threshold=6.8802488615378339 5.2337752898422689 38.500000000000007 23.500000000000004 7.5000000000000009 13.604714547700587 7.439496995201174 15.500000000000002 14.397261491178478 2.1920602504026943 0.44740802683657116 5.5154408213148463 28.500000000000004
decision_type=2 2 2 2 2 2 2 2 2 2 2 2 2
left_child=1 4 3 -3 5 9 -2 8 11 -1 12 -5 -7
right_child=6 2 -4 7 -6 10 -8 -9 -10 -11 -12 -13 -14
leaf_value=-0.075327859712729095 0.13691894970743676 -0.037306929464977948 -0.10744482749889268 0.094536209144624447 0.0083446006625153557 -0.093491041065068364 0.027368998650043865 0.099088057520408057 -0.024568629860160299 0.022560734638966736 -0.063215879787439921 0.020991917549226684 -0.15443053296124784
leaf_weight=5.5716713666915911 5.9177556782960874 9.2997257411479932 6.5429852455854407 4.8323030322790199 5.8238158822059622 5.2741825282573718 6.5790880769491196 7.9548277407884589 8.0598627030849439 4.9030430465936661 5.0945526659488669 5.6121926605701447 7.2019975483417511
leaf_count=23 25 38 27 20 24 24 28 33 33 20 22 23 32
internal_value=0 -0.275205 0.0247258 0.230177 -0.65294 -0.810032 0.804745 0.446979 0.205052 -0.28454 -1.11513 0.563946 -1.3001
internal_weight=0 76.1712 42.3019 35.7589 33.8693 28.0454 12.4968 26.4592 18.5044 10.4747 17.5707 10.4445 12.4762
internal_count=372 319 174 147 145 121 53 109 76 43 78 43 56
shrinkage=0.1


Tree=8
num_leaves=12
num_cat=0
split_feature=0 8 6 8 2 6 8 8 3 8 2
split_gain=8.5946 7.43652 5.17909 5.65685 5.97432 3.19812 3.63175 4.33125 3.10151 2.4068 2.25822
threshold=11.806826297392819 5.611299950786516 37.500000000000007 4.7140145363037149 0.55277777636990011 32.500000000000007 5.1619206365690227 5.3589392201907193 20.500000000000004 5.2704288588135384 0.50490193684020046
decision_type=2 2 2 2 2 2 2 2 2 2 2
left_child=-1 2 3 -2 5 6 -5 -8 10 -4 -3
right_child=1 8 9 4 -6 -7 7 -9 -10 -11 -12
leaf_value=0.10111905223680998 -0.08221872194370905 0.032942231649736677 -0.041644237333924104 0.063604215363482305 -0.066763804197414567 0.098001967880970348 -0.09433369755711199 0.02475841513103378 -0.0033074619775498777 -0.13913114470783922 0.11304511269059536
leaf_weight=8.5773601680994016 8.4023832827806455 8.6564346253871935 6.3762998878955823 8.5309670269489342 7.9289563894271842 5.7233297526836386 4.8740133941173536 7.7953578233718872 9.1604445278644544 4.8533032685518265 6.7246994376182547
leaf_count=36 39 36 28 37 33 24 20 32 39 20 28
internal_value=0 -0.0395876 -0.24682 -0.0863257 0.0883749 0.316133 0.129746 -0.20265 0.415256 -0.851868 0.689447
internal_weight=0 79.0262 54.4846 43.255 34.8526 26.9237 21.2003 12.6694 24.5416 11.2296 15.3811
internal_count=372 336 233 185 146 113 89 52 103 48 64
shrinkage=0.1


Tree=9
num_leaves=14
num_cat=0
split_feature=0 8 7 6 8 2 8 8 6 4 0 3 7
split_gain=7.12733 6.10758 7.38226 4.13578 6.74861 7.9702 4.23682 4.90729 3.94133 3.27799 1.81586 1.69609 1.25911
threshold=11.806826297392819 5.6750385347198877 2.5807590434523262 37.500000000000007 5.3399361658330653 0.54606060606060614 4.7140145363037149 5.1901713283654836 34.500000000000007 3.9607678160667752 13.839906616238991 8.5000000000000018 2.2997766985679227
decision_type=2 2 2 2 2 2 2 2 2 2 2 2 2
left_child=-1 2 3 4 5 6 -2 12 9 -3 -5 -6 -8
right_child=1 8 -4 10 11 -7 7 -9 -10 -11 -12 -13 -14
leaf_value=0.092941034648564125 -0.060947183689867179 0.052840406803664919 -0.13790952219051419 -0.023749503071979254 0.10526920136801843 -0.11527745904594698 0.09572975383823154 -0.051078507483557668 0.11663981400307039 -0.044766940689006267 -0.11332762543667983 0.029760499596349438 0.027004663839817672
leaf_weight=8.4111158698797208 6.702524006366736 9.0807716399431246 4.8417779803276053 5.2358721941709501 5.747660815715788 6.9781884104013434 6.8381292819976824 4.8395548909902564 5.4364554882049552 5.3839777410030356 4.6566425859928131 7.471356064081192 5.4019717127084732
leaf_count=36 32 38 20 22 24 30 29 20 23 23 21 31 23
internal_value=0 -0.0360957 -0.199787 -0.0906238 0.0383892 -0.215522 0.0559191 0.324866 0.440245 0.156583 -0.674117 0.637161 0.665638
internal_weight=0 78.6149 58.7137 53.8719 43.9794 30.7604 23.7822 17.0797 19.9012 14.4647 9.89251 13.219 12.2401
internal_count=372 336 252 232 189 134 104 72 84 61 43 55 52
shrinkage=0.1


Tree=10
num_leaves=15
num_cat=0
split_feature=3 2 2 5 6 0 8 7 7 8 5 6 1 2
split_gain=11.6328 9.79864 4.96242 3.51717 3.37542 2.29715 3.67837 2.83483 1.80136 4.10005 1.7758 1.49099 1.41548 1.30203
threshold=9.5000000000000018 0.47750201777205892 0.55277777636990011 4.2555875595453383 31.500000000000004 13.276401473620165 5.992712987207276 2.4100381010517968 2.2788259309111112 5.3706272113530096 2.3502401828962087 26.500000000000004 0.47498569649648309 0.42148977093897538
decision_type=2 2 2 2 2 2 2 2 2 2 2 2 2 2
left_child=1 3 12 8 -4 10 7 -7 11 -10 -2 -1 -3 -13
right_child=5 2 4 -5 -6 6 -8 -9 9 -11 -12 13 -14 -15
leaf_value=-0.13342275453347824 0.054171514451163652 0.035563005835214399 0.027930025599463407 0.011299213028307289 -0.084144973707656695 0.056407266019412594 0.11075241321541558 -0.02904495953101853 0.017401258497373093 -0.10720028064022025 0.13867457632036068 -0.1088179932099604 0.11176808363425553 -0.029838616056353476
leaf_weight=6.6444394141435685 7.1930976957082766 5.4875857084989565 6.1056675314903242 5.6582765132188788 4.6204703748226166 6.7947886735200909 4.5011966824531546 8.8120733797550184 5.5820739120244962 4.7415664047002792 4.5968509465456009 4.2388531416654569 5.5709156841039658 5.2663723975419998
leaf_count=31 31 23 26 24 20 28 20 37 24 20 20 20 24 24
internal_value=0 -0.231849 0.281884 -0.583801 -0.193659 0.529222 0.313365 0.0744002 -0.737206 -0.388611 0.884915 -0.951116 0.752992 -0.66626
internal_weight=0 53.9162 21.7846 32.1316 10.7261 31.898 20.1081 15.6069 26.4733 10.3236 11.7899 16.1497 11.0585 9.50523
internal_count=372 236 93 143 46 136 85 65 119 44 51 75 47 44
shrinkage=0.1


Tree=11
num_leaves=14
num_cat=0
split_feature=3 2 2 0 3 8 7 7 6 3 3 8 3
split_gain=9.60073 8.0959 4.26143 3.80281 3.42161 2.80237 2.37437 3.93152 2.00017 2.90307 2.50649 1.15827 1.10518
threshold=9.5000000000000018 0.47750201777205892 0.60464669738851506 14.822962434902008 2.5000000000000004 5.1845846780664209 2.2997766985679227 2.1185591505442356 27.500000000000004 21.500000000000004 19.500000000000004 5.6920457965633808 1.0000000180025095e-35
decision_type=2 2 2 2 2 2 2 2 2 2 2 2 2
left_child=1 4 3 5 12 -3 7 -6 10 11 -2 -10 -1
right_child=8 2 -4 -5 6 -7 -8 -9 9 -11 -12 -13 -14
leaf_value=-0.057796375557340102 0.027511090606734026 0.13887835836974 -0.054596571033969726 -0.019270061000700615 0.0075323471044981454 0.036096766892231451 0.010534374099624398 -0.11008568633027992 0.029927211424150054 -0.027009457735114789 0.12195703237338842 0.095781891773610475 -0.12606088442634042
leaf_weight=5.3458426743745822 5.5352982282638568 5.010258033871656 4.9469844847917548 5.1869777441024771 4.8319608122110385 6.5681221336126328 8.7703893780708295 6.2757373452186584 8.3266046345233935 6.3045850843191138 6.7112419009208679 4.6301367878913871 6.453516885638237
leaf_count=27 24 21 21 23 21 28 37 27 35 28 29 20 31
internal_value=0 -0.211252 0.255097 0.499351 -0.534602 0.819316 -0.271985 -0.579998 0.484059 0.272696 0.804745 0.54607 -0.964469
internal_weight=0 53.3898 21.7123 16.7654 31.6774 11.5784 19.8781 11.1077 31.5079 19.2613 12.2465 12.9567 11.7994
internal_count=372 236 93 72 143 49 85 48 136 83 53 55 58
shrinkage=0.1


Tree=12
num_leaves=14
num_cat=0
split_feature=8 0 3 7 0 4 8 7 8 7 8 7 1
split_gain=10.2458 11.8422 4.10855 4.11371 4.01047 3.52152 3.13962 2.81136 2.36297 2.35194 2.0711 0.655671 0.0281368
threshold=5.688667405331941 14.556313305698998 6.5000000000000009 2.215873820360112 12.658422702702746 3.9607678160667752 5.3636340903656388 2.4245110247540929 4.8322978221268906 2.6096107008459763 5.040188859666439 2.1981704092765799 0.47028559186219682
decision_type=2 2 2 2 2 2 2 2 2 2 2 2 2
left_child=1 2 4 -4 -1 9 -5 8 -6 -2 -10 -3 -13
right_child=5 11 3 6 7 -7 -8 -9 10 -11 -12 12 -14
leaf_value=0.039574914187061772 0.12902760120389159 -0.060670851077269841 0.10179842261136372 -0.051016925471555064 -0.0073475546034545832 0 0.046546608016614845 0.017300138229476701 -0.13951427757421173 0.04247126247367821 -0.049833083172810613 -0.13859137243583985 -0.099603566196077992
leaf_weight=7.7487581670284298 7.2320543974638003 3.7427112460136405 6.4804357439279583 5.7130066603422147 5.6777710765600267 6.711748704314231 7.6317616701126099 5.5519517213106147 4.875201001763342 6.5758215337991714 6.8882985711097717 4.5559028536081296 5.1334120184183121
leaf_count=33 32 20 27 24 27 31 33 23 21 29 29 20 23
internal_value=0 -0.21025 0.0093513 0.366149 -0.217019 0.601013 0.038539 -0.429066 -0.627546 0.889152 -0.883643 -1.04347 -1.19664
internal_weight=0 63.9992 50.5672 19.8252 30.742 20.5196 13.3448 22.9932 17.4413 13.8079 11.7635 13.432 9.68931
internal_count=372 280 217 84 133 92 57 100 77 61 50 63 43
shrinkage=0.1


Tree=13
num_leaves=15
num_cat=0
split_feature=8 0 8 0 8 7 0 2 7 8 5 8 3 6
split_gain=9.04062 5.93705 7.22943 4.81387 3.49432 4.62394 3.2938 3.92951 3.03062 2.58775 1.99451 1.74854 1.57825 0.309555
threshold=5.2496487501035594 14.455978008472947 5.6920457965633808 14.556313305698998 5.9532399610262798 2.3433447696575533 12.832456808345684 0.53166664399930674 2.0224702304522375 6.0270722470280065 4.4480887111374035 5.0782890901091458 4.5000000000000009 29.500000000000004
decision_type=2 2 2 2 2 2 2 2 2 2 2 2 2 2
left_child=3 4 -3 8 5 -2 -7 13 -1 -4 11 12 -10 -8
right_child=1 2 9 -5 -6 6 7 -9 10 -11 -12 -13 -14 -15
leaf_value=0.042223493476831409 0.11108095089274439 -0.086977582265831577 0.092445169121422616 -0.11910730315927827 0.13810683549694067 0.080013881785154436 0.043699991899979397 -0.083677087438665504 -0.071122654992245377 -0.010550118647787491 0.010497814552492574 -0.10874685753275593 0 0.00460784394773302
leaf_weight=5.6767961680889156 6.6694429069757524 8.3441123664379138 4.7205631136894208 6.3312914669513694 4.2470033019781104 5.5026146769523647 4.9204141944646818 4.8586600124835959 5.980661362409597 4.6125136762857437 5.7809333801269522 4.6951522231101981 6.3764550387859344 4.7529571801424026
leaf_count=25 29 36 20 34 21 25 21 21 28 21 24 20 27 20
internal_value=0 0.266207 -0.190901 -0.400731 0.531062 0.389524 0.141694 -0.100898 -0.219589 0.404345 -0.384869 -0.557818 -0.344027 0.258268
internal_weight=0 48.6283 17.6772 34.8413 30.9511 26.7041 20.0346 14.532 28.51 9.33308 22.8332 17.0523 12.3571 9.67337
internal_count=372 214 77 158 137 116 87 62 124 41 99 75 55 41
shrinkage=0.1


Tree=14
num_leaves=14
num_cat=0
split_feature=8 7 8 0 0 6 7 2 6 3 7 8 0
split_gain=8.2409 7.54329 5.87501 4.92706 3.89288 3.64303 3.32606 6.71338 3.26765 1.78189 1.19828 1.06825 0.619112
threshold=5.2548844000372066 2.2272843405965843 6.0833539610039491 12.832456808345684 14.018243928684692 29.500000000000004 2.2747531338157123 0.51991033755274274 37.500000000000007 11.500000000000002 2.5087797091628499 4.7317931335534196 14.822962434902008
decision_type=2 2 2 2 2 2 2 2 2 2 2 2 2
left_child=4 -2 3 -3 6 9 7 11 10 -5 -7 -1 -6
right_child=1 2 -4 5 12 8 -8 -9 -10 -11 -12 -13 -14
leaf_value=-0.11651113640196241 0.13043358647642364 0.075259585053455397 0.10875987942995685 -0.027399767536349692 -0.065392536816042873 0.072439254709552384 0.043710542864348376 0.049942252293927458 -0.051425198849549894 -0.10859041069343589 0.0060604118156804433 -0.049509783870604451 -0.12485674227830237
leaf_weight=5.3477584272623115 6.140982285141944 6.5350546836853018 5.3707060664892188 6.9756692647933978 7.0552874952554685 5.6389642208814639 6.9158813357353202 5.6371173560619345 5.9237645864486685 5.0599007308483124 6.0712036192417145 6.1216147840023041 3.6380405873060226
leaf_count=26 27 30 26 30 34 24 29 24 26 22 26 26 22
internal_value=0 0.271633 0.115103 -0.0268875 -0.36841 -0.203402 -0.138477 -0.378658 0.0801906 -0.627744 0.391846 -0.820899 -0.871319
internal_weight=0 47.7162 41.5753 36.2046 34.7157 29.6695 24.0224 17.1065 17.6339 12.0356 11.7102 11.4694 10.6933
internal_count=372 211 184 158 161 128 105 76 76 52 50 52 56
shrinkage=0.1


Tree=15
num_leaves=14
num_cat=0
split_feature=8 7 7 3 0 7 0 7 5 2 7 7 6
split_gain=7.00644 5.64179 4.82299 3.44545 3.46723 3.21368 3.20819 1.78433 1.728 1.66816 1.57701 1.84665 1.38246
threshold=5.3589392201907193 2.2833708847472889 2.6935432707354208 6.5000000000000009 12.832456808345684 2.215873820360112 14.114929550266593 2.5723967759524582 2.8617925509761908 0.44425103016882217 2.2747531338157123 2.1637243452579908 31.500000000000004
decision_type=2 2 2 2 2 2 2 2 2 2 2 2 2
left_child=3 -2 6 4 -1 -5 9 8 -8 -3 11 12 -6
right_child=1 2 -4 5 10 -7 7 -9 -10 -11 -12 -13 -14
leaf_value=0.02366283689913927 0.11985346315225719 -0.0025413806881507939 0.10732404168094284 0.075677460895934218 -0.024493572955037925 -0.025094672553647102 0.027285166975130254 -0.082828484827510207 -0.05440707739207154 0.066120419064003483 -0.025672810469490798 -0.13104444444254457 -0.10524283663289213
leaf_weight=5.3083642274141338 5.9788047522306433 6.1882437020540255 4.7104241102933875 5.1228566169738752 6.4392479956150073 7.9224864393472672 5.7046716064214689 4.8808699846267691 4.5746045112609863 7.3214824497699738 8.0086948424577695 5.5229308456182471 3.6191153079271317
leaf_count=23 27 28 22 22 33 34 25 21 20 34 36 27 20
internal_value=0 0.304629 0.139684 -0.282487 -0.475797 0.136706 -0.0107957 -0.330201 -0.0797654 0.338682 -0.641324 -0.830152 -0.550391
internal_weight=0 39.3591 33.3803 41.9437 28.8984 13.0453 28.6699 15.1601 10.2793 13.5097 23.59 15.5813 10.0584
internal_count=372 177 150 195 139 56 128 66 45 62 116 80 53
shrinkage=0.1


Tree=16
num_leaves=14
num_cat=0
split_feature=7 0 8 5 8 3 8 7 6 3 7 3 8
split_gain=5.07274 4.09133 4.83696 3.09286 3.32854 1.87377 3.3501 4.97423 2.50101 1.8397 1.49836 1.05609 0.72622
threshold=1.9442102217265929 14.114929550266593 5.2337752898422689 5.3954630162516279 5.6920457965633808 6.5000000000000009 5.5032948732385458 2.4434200389058982 33.500000000000007 1.5000000000000002 2.3951168990922742 3.5000000000000004 5.1789666414329583
decision_type=2 2 2 2 2 2 2 2 2 2 2 2 2
left_child=-1 5 11 4 -4 8 12 -8 9 -2 -11 -3 -7
right_child=1 2 3 -5 -6 6 7 -9 -10 10 -12 -13 -14
leaf_value=-0.107454562468068 0.074147533863578516 -0.12933738039027762 -0.072961307533438505 0.051934620849469343 0.015628215139523491 0.055740373665705903 -0.060874503581357375 0.071687126215196947 -0.05296408234776237 -0.027340189444662089 0.041149447921511768 -0.051293502060391474 0.11996606438498847
leaf_weight=4.4704165607690802 4.7614889591932359 4.0043208152055723 7.9230316281318727 7.285849153995513 8.689026325941084 4.8909782022237795 5.5054240673780424 5.7080755829811096 6.0486431866884223 7.4963323473930341 5.4859899282455444 4.4910993278026581 4.4169419407844543
leaf_count=22 21 25 35 32 38 20 26 27 27 32 24 23 20
internal_value=0 0.0155449 -0.252704 -0.0167467 -0.259766 0.214393 0.435783 0.0555184 0.0179902 0.212195 0.0071693 -0.899202 0.878854
internal_weight=0 76.7072 32.3933 23.8979 16.6121 44.3139 20.5214 11.2135 23.7925 17.7438 12.9823 8.49542 9.30792
internal_count=372 350 153 105 73 197 93 53 104 77 56 48 40
shrinkage=0.1


Tree=17
num_leaves=15
num_cat=0
split_feature=7 0 8 5 8 8 3 8 7 6 3 0 8 6
split_gain=4.24402 3.37881 4.1936 2.51968 2.85824 1.63578 2.98759 2.11729 1.79995 1.48433 1.01435 0.893961 0.650484 0.13406
threshold=1.9442102217265929 14.114929550266593 5.2337752898422689 5.3954630162516279 5.9362152003510085 5.5032948732385458 6.5000000000000009 4.9522934739897151 2.4396315986407022 32.500000000000007 3.5000000000000004 13.715676065405235 5.1789666414329583 29.500000000000004
decision_type=2 2 2 2 2 2 2 2 2 2 2 2 2 2
left_child=-1 5 10 4 9 6 7 -2 -7 -4 -3 -9 -8 -10
right_child=1 2 3 -5 -6 8 12 11 13 -11 -12 -13 -14 -15
leaf_value=-0.099610199057948254 -0.034975444056379888 -0.12541826526668642 -0.079456553616478215 0.04694302769549949 0.044022296291056591 -0.048401329325866459 0.050285977683547284 0.052657988852770482 0.03539669439517721 -0.0059615571038248924 -0.047271011071502486 -0 0.11169099853759397 0.006048285967159301
leaf_weight=4.3497593179345122 6.5065417885780397 3.7318056076765078 6.9053002893924766 7.2601237744092932 4.3723235279321662 6.2121812254190436 4.8839994221925718 8.7999546527862531 4.1493318602442724 5.1826267242431641 4.394559308886528 4.8300755321979514 4.279911607503891 4.4289291203022003
leaf_count=22 29 25 30 32 20 29 20 38 20 23 23 21 20 20
internal_value=0 0.0140158 -0.232304 -0.014328 -0.235599 0.194703 0.332144 0.109238 -0.0696374 -0.490599 -0.85067 0.337514 0.806301 0.217362
internal_weight=0 75.9377 31.8467 23.7204 16.4603 44.0909 29.3005 20.1366 14.7904 12.0879 8.12636 13.63 9.16391 8.57826
internal_count=372 350 153 105 73 197 128 88 69 53 48 59 40 40
shrinkage=0.1


Tree=18
num_leaves=13
num_cat=0
split_feature=0 6 2 2 3 5 3 3 0 6 0 7
split_gain=5.43708 3.49957 3.23333 6.00194 3.46695 2.47467 2.12265 2.10316 1.89166 2.4621 2.92555 0.606102
threshold=12.958113705026626 18.500000000000004 0.53939391672657944 0.50490193684020046 2.5000000000000004 6.0517541085871747 12.500000000000002 10.500000000000002 13.715676065405235 36.500000000000007 14.455978008472947 2.4548738182777536
decision_type=2 2 2 2 2 2 2 2 2 2 2 2
left_child=5 -2 3 4 -3 6 -1 -4 -6 10 -10 -5
right_child=1 2 7 11 8 -7 -8 -9 9 -11 -12 -13
leaf_value=0.053670989665914375 -0.08174039530814492 -0.082410810017210345 -0.087423668607652785 0.10127926591347743 -0.059259199592112927 0.10828539650767732 -0.03589383503063022 -0.0083411202256542614 0.08756163001178513 -0.036210380533748913 -0.0033930720900498673 0.041878346755076123
leaf_weight=6.6176169067621213 8.3546051084995252 6.5797241553664234 7.884904742240904 4.6616021320223791 4.5315115749835995 4.4146722778677931 4.207312673330307 6.4920944720506668 6.1705241352319735 6.857300102710723 7.6506847217679024 4.378473624587059
leaf_count=29 39 38 38 21 20 22 20 29 28 32 36 20
internal_value=0 -0.213327 -0.119211 0.0217044 -0.179865 0.449778 0.177505 -0.526683 -0.00592459 0.117737 0.364829 0.741428
internal_weight=0 63.5614 55.2068 40.8298 31.7897 15.2396 10.8249 14.377 25.21 20.6785 13.8212 9.04008
internal_count=372 301 262 195 154 71 49 67 116 96 64 41
shrinkage=0.1


Tree=19
num_leaves=14
num_cat=0
split_feature=0 2 2 7 5 3 3 3 8 8 7 2 7
split_gain=4.47972 3.05637 3.08751 2.7862 2.15182 1.89604 1.73136 1.57993 2.29648 3.28575 3.17242 2.41663 1.0496
threshold=12.958113705026626 0.39100505009661751 0.56342821782178099 1.9931505239739489 6.0517541085871747 10.500000000000002 12.500000000000002 2.5000000000000004 5.3205649864913136 5.6612213479477846 2.5670562181491476 0.44425103016882217 2.4377658438980432
decision_type=2 2 2 2 2 2 2 2 2 2 2 2 2
left_child=4 -2 3 -3 6 -4 -1 -5 11 12 -11 -9 -10
right_child=1 2 5 7 -6 -7 -8 8 9 10 -12 -13 -14
leaf_value=0.04868563773586812 -0.086173403292760506 -0.082866081968818839 -0.086390637347381283 -0.033137055634327908 0.1015236793794905 -0.0036005001208993903 -0.031930780684288722 0.0088498071535215144 -0.08149082354668441 0.090506445998265406 -0.019701844226756155 0.094203972337095807 -0.010057579245795799
leaf_weight=6.5722569078206998 6.2086444497108451 3.6351160034537306 7.7083334624767286 7.3810701146721831 4.2492154389619818 4.7950880080461502 4.2586133182048798 7.6809331774711591 4.6845912188291567 5.0413318574428541 5.0676011443138123 6.3209880441427231 4.4350859075784683
leaf_count=29 28 21 37 41 22 21 20 36 21 24 24 28 20
internal_value=0 -0.194758 -0.119118 0.00232991 0.41013 -0.557106 0.158822 0.0804077 0.175769 -0.0429535 0.342157 0.483957 -0.482581
internal_weight=0 62.9588 56.7501 44.2467 15.0801 12.5034 10.8309 40.6116 33.2305 19.2286 10.1089 14.0019 9.11968
internal_count=372 301 273 215 71 58 49 194 153 89 48 64 41
shrinkage=0.1


Tree=20
num_leaves=14
num_cat=0
split_feature=5 5 2 2 4 8 7 8 6 7 3 8 7
split_gain=2.34855 4.2037 2.68357 5.26212 3.40713 3.44075 5.13298 1.65902 1.38659 1.37272 1.32715 1.8221 1.15609
threshold=6.8802488615378339 8.5080197517104938 0.51991033755274274 0.54606060606060614 4.4127799275304271 5.1209788959100075 2.5518903486972455 5.1029059508623904 30.500000000000004 2.3433447696575533 1.0000000180025095e-35 4.8322978221268906 2.399441913849961
decision_type=2 2 2 2 2 2 2 2 2 2 2 2 2
left_child=2 -2 4 -4 5 10 8 -5 9 -7 -1 -12 -9
right_child=1 -3 3 7 -6 6 -8 12 -10 -11 11 -13 -14
leaf_value=0.027616442473577991 0.08306837757644786 -0.037909371003170197 -0.12760132384319675 -0.066535327545481235 -0.071902125933487007 0.083062201004617725 -0.036008199431263398 0.035071668640768466 0.10856727981381434 0.0028685907922092642 0.0086662470173988811 -0.068527773357229219 -0.023812663573739838
leaf_weight=3.7762553989887264 7.1962317228317243 4.5737360790371895 5.3446411192417171 4.4020686447620418 5.4669126570224753 4.4165009707212466 6.2838539928197852 6.2903785705566388 6.0735873132944098 4.7296120226383209 4.6384482681751233 7.6652443706989288 6.8870987445116043
leaf_count=22 35 23 24 21 24 20 29 29 28 22 27 36 32
internal_value=0 0.35071 -0.132052 -0.408282 0.012494 0.122744 0.38614 -0.135355 0.702244 0.430931 -0.222126 -0.385191 0.0340865
internal_weight=0 11.77 65.9746 22.9242 43.0504 37.5835 21.5036 17.5795 15.2197 9.14611 16.0799 12.3037 13.1775
internal_count=372 58 314 106 208 184 99 82 70 42 85 63 61
shrinkage=0.1


Tree=21
num_leaves=14
num_cat=0
split_feature=5 5 7 8 7 6 2 4 4 8 6 3 8
split_gain=2.05703 5.04278 2.84292 1.70066 2.3995 3.27217 2.587 5.54261 3.50927 4.47799 3.21592 1.51859 1.27987
threshold=7.367344956872155 8.5080197517104938 2.6521315194225319 4.4601277074540464 2.1091492200972657 29.500000000000004 0.51991033755274274 -1.0000000180025095e-35 4.4127799275304271 5.07203900872703 27.500000000000004 5.5000000000000009 5.4004200416950168
decision_type=2 2 2 2 2 2 2 2 2 2 2 2 2
left_child=2 -2 3 -1 5 -5 8 11 9 -6 -11 -8 -12
right_child=1 -3 -4 4 6 -7 7 -9 -10 10 12 -13 -14
leaf_value=-0.06403886031666893 0.11121178813523339 -0.033909673673120595 -0.080858575194832027 0.096969572266817558 -0.041129875950328354 -0.014047640539098204 -0.031022171402971324 0.038260537358582619 -0.067137360471903745 0 0.12586394262083739 -0.11027976297343441 0.049884842091930774
leaf_weight=4.5057573765516272 4.7280480116605741 4.6048552542924881 5.395101271569728 5.3891973197460157 7.5250465050339761 4.86102444678545 4.4720989391207713 5.692467860877513 5.1657079309225074 7.5986534357070949 4.7393533736467344 7.1031287312507629 5.7610985636711121
leaf_count=26 23 23 25 27 38 23 21 27 23 35 21 32 28
internal_value=0 0.384882 -0.113209 -0.0510957 -0.00309177 0.43304 -0.0988944 -0.409292 0.0715932 0.226864 0.499136 -0.809047 0.856646
internal_weight=0 9.3329 68.2086 62.8135 58.3078 10.2502 48.0576 17.2677 30.7899 25.6242 18.0991 11.5752 10.5005
internal_count=372 46 326 301 275 50 225 80 145 122 84 53 49
shrinkage=0.1


Tree=22
num_leaves=16
num_cat=0
split_feature=6 6 2 2 8 6 2 3 0 6 0 7 8 8 7
split_gain=3.97413 4.02069 3.77629 8.33344 3.60735 3.4191 4.11682 3.70609 2.8567 1.84208 2.52252 3.44379 2.72642 0.317592 0.0365091
threshold=41.500000000000007 17.500000000000004 0.37500001631615382 0.39869706840391889 5.0530509062989237 22.500000000000004 0.44425103016882217 4.5000000000000009 14.114929550266593 37.500000000000007 13.839906616238991 2.499419021806121 5.4315338162543414 5.2443855436100657 2.3386649104218282
decision_type=2 2 2 2 2 2 2 2 2 2 2 2 2 2 2
left_child=1 4 -3 -4 -1 -5 7 -7 -9 10 12 13 -8 -12 -6
right_child=-2 2 3 5 14 6 9 8 -10 -11 11 -13 -14 -15 -16
leaf_value=0.032505081813634568 -0.090975923182272406 -0.058332338300448185 0.14638723377187923 0.08588966024622352 -0.064520883307298091 -0.13052926660429404 -0.058315844566814171 0.03730968245340846 -0.068146163642860288 0.082916394388415346 0.053906312252450309 -0.016735833480626534 0.040580969243383107 0.10698848679726272 -0.099488992740010773
leaf_weight=3.7938260957598677 4.4679311737418166 5.9075373709201804 5.1095842644572249 5.5302526876330367 4.497829541563986 3.533803589642047 7.3590470254421287 5.4480522722005826 4.7070793733000755 4.4740986078977576 3.4774609878659231 5.4271541237831116 4.3044597208499908 4.316376730799675 3.9526853561401367
leaf_count=20 22 27 25 28 20 22 32 25 22 23 21 24 21 20 20
internal_value=0 0.0581557 0.166919 0.252081 -0.460255 0.121051 0.0227646 -0.426269 -0.104684 0.236514 0.123981 0.425456 -0.207774 0.852334 -0.826831
internal_weight=0 71.8392 59.5949 53.6874 12.2443 48.5778 43.0475 13.6889 10.1551 29.3586 24.8845 13.221 11.6635 7.79384 8.45051
internal_count=372 350 290 263 60 238 210 69 47 141 118 65 53 41 40
shrinkage=0.1


Tree=23
num_leaves=16
num_cat=0
split_feature=6 6 6 2 2 2 3 0 8 6 0 7 8 5 8
split_gain=3.26895 3.26501 4.93153 2.24389 5.91638 3.40931 3.33619 2.34107 1.91118 1.4984 2.03746 2.79981 2.22125 0.993856 0.289665
threshold=41.500000000000007 18.500000000000004 22.500000000000004 0.37500001631615382 0.39869706840391889 0.44425103016882217 4.5000000000000009 14.114929550266593 5.0271592211193568 37.500000000000007 13.839906616238991 2.499419021806121 5.4315338162543414 2.602003343538398 5.2443855436100657
decision_type=2 2 2 2 2 2 2 2 2 2 2 2 2 2 2
left_child=1 8 -3 -4 -5 6 -6 -8 -1 10 12 14 -7 -10 -12
right_child=-2 2 3 4 5 9 7 -9 13 -11 11 -13 -14 -15 -16
leaf_value=0.018950056774687044 -0.083094002420803809 0.11067669897146054 -0.055843161724981161 0.1235973561218575 -0.12636067341024793 -0.052466082966552231 0.033756779207074782 -0.061997001033870784 -0.087537246830721158 0.074998203798967544 0.047379402452936273 -0.01505578366973119 0.037052280800148663 -0.020647824829087075 0.097585286547755598
leaf_weight=4.0536593943834296 4.4094688296318045 5.0059846863150588 5.0566763430833808 4.4049558192491522 3.2987894937396041 7.3655991405248695 5.4247855097055417 4.6628870442509651 5.8844379037618619 4.4569240212440482 3.5615728646516782 5.433584451675415 4.249744601547718 4.5005090534687042 4.2655640095472336
leaf_count=21 22 25 23 22 22 32 25 22 27 23 21 24 21 22 20
internal_value=0 0.0523998 0.161169 0.0673751 0.13749 0.0203629 -0.393984 -0.093882 -0.369362 0.213823 0.111892 0.382227 -0.186685 -0.598919 0.766237
internal_weight=0 71.6257 57.1871 52.1811 47.1244 42.7195 13.3865 10.0877 14.4386 29.333 24.8761 13.2607 11.6153 10.3849 7.82714
internal_count=372 350 280 255 232 210 69 47 70 141 118 65 53 49 41
shrinkage=0.1


Tree=24
num_leaves=13
num_cat=0
split_feature=8 6 0 6 1 2 8 6 3 7 8 3
split_gain=3.93333 4.63293 4.53509 5.20816 4.40732 4.54588 2.80358 4.12945 2.29095 2.02706 1.69923 0.605222
threshold=4.7999057951650004 15.500000000000002 13.091427739372941 38.500000000000007 0.47927456755018455 0.54606060606060614 5.2337752898422689 33.500000000000007 8.5000000000000018 2.4245110247540929 5.3399361658330653 1.5000000000000002
decision_type=2 2 2 2 2 2 2 2 2 2 2 2
left_child=11 -2 10 4 5 6 -4 9 -7 -8 -3 -1
right_child=1 2 3 -5 -6 8 7 -9 -10 -11 -12 -13
leaf_value=-0.016387203584095494 -0.052866891352686102 0.04498083898179079 0.0089009610733423727 -0.064738973632884278 -0.038501996397996618 0.038226755584690568 0.1028666577843888 0.16745591102984525 -0.053000153974355424 0.017289058403984186 0.13489557817044054 -0.070116388325004095
leaf_weight=4.2026142627000791 8.4599765911698324 5.0651837438344938 6.3420264422893551 7.1831529438495627 8.1048350408673269 5.0432612150907499 5.206659674644472 4.8988991677761069 5.8292708694934845 6.7787782251834869 4.4960768222808838 6.2862191647291183
leaf_count=24 39 23 31 35 38 24 24 23 26 29 24 32
internal_value=0 0.157108 0.257855 0.132618 0.268707 0.427876 0.678008 0.891416 -0.0959862 0.556825 0.888989 -0.498731
internal_weight=0 67.4081 58.9481 49.3869 42.2037 34.0989 23.2264 16.8843 10.8725 11.9854 9.56126 10.4888
internal_count=372 316 277 230 195 157 107 76 50 53 47 56
shrinkage=0.1


end of trees

feature importances:
tfidf_non_zero=76
target_amount=47
tfidf-sum=46
images=45
period=44
category=37
twitter_followers=18
twitter_friends=10
method=5

parameters:
[boosting: gbdt]
[objective: binary]
[metric: binary_logloss]
[tree_learner: serial]
[device_type: cpu]
[data: ]
[valid: ]
[num_iterations: 100]
[learning_rate: 0.1]
[num_leaves: 31]
[num_threads: -1]
[max_depth: -1]
[min_data_in_leaf: 20]
[min_sum_hessian_in_leaf: 0.001]
[bagging_fraction: 0.525475]
[pos_bagging_fraction: 1]
[neg_bagging_fraction: 1]
[bagging_freq: 2]
[bagging_seed: 3]
[feature_fraction: 1]
[feature_fraction_bynode: 1]
[feature_fraction_seed: 2]
[early_stopping_round: 0]
[first_metric_only: 0]
[max_delta_step: 0]
[lambda_l1: 0.120104]
[lambda_l2: 0.0399841]
[min_gain_to_split: 0]
[drop_rate: 0.1]
[max_drop: 50]
[skip_drop: 0.5]
[xgboost_dart_mode: 0]
[uniform_drop: 0]
[drop_seed: 4]
[top_rate: 0.2]
[other_rate: 0.1]
[min_data_per_group: 100]
[max_cat_threshold: 32]
[cat_l2: 10]
[cat_smooth: 10]
[max_cat_to_onehot: 4]
[top_k: 20]
[monotone_constraints: ]
[feature_contri: ]
[forcedsplits_filename: ]
[forcedbins_filename: ]
[refit_decay_rate: 0.9]
[cegb_tradeoff: 1]
[cegb_penalty_split: 0]
[cegb_penalty_feature_lazy: ]
[cegb_penalty_feature_coupled: ]
[verbosity: -1]
[max_bin: 255]
[max_bin_by_feature: ]
[min_data_in_bin: 3]
[bin_construct_sample_cnt: 200000]
[histogram_pool_size: -1]
[data_random_seed: 1]
[output_model: LightGBM_model.txt]
[snapshot_freq: -1]
[input_model: ]
[output_result: LightGBM_predict_result.txt]
[initscore_filename: ]
[valid_data_initscores: ]
[pre_partition: 0]
[enable_bundle: 1]
[max_conflict_rate: 0]
[is_enable_sparse: 1]
[sparse_threshold: 0.8]
[use_missing: 1]
[zero_as_missing: 0]
[two_round: 0]
[save_binary: 0]
[header: 0]
[label_column: ]
[weight_column: ]
[group_column: ]
[ignore_column: ]
[categorical_feature: ]
[predict_raw_score: 0]
[predict_leaf_index: 0]
[predict_contrib: 0]
[num_iteration_predict: -1]
[pred_early_stop: 0]
[pred_early_stop_freq: 10]
[pred_early_stop_margin: 10]
[convert_model_language: ]
[convert_model: gbdt_prediction.cpp]
[num_class: 1]
[is_unbalance: 0]
[scale_pos_weight: 1]
[sigmoid: 1]
[boost_from_average: 1]
[reg_sqrt: 0]
[alpha: 0.9]
[fair_c: 1]
[poisson_max_delta_step: 0.7]
[tweedie_variance_power: 1.5]
[max_position: 20]
[lambdamart_norm: 1]
[label_gain: ]
[metric_freq: 1]
[is_provide_training_metric: 0]
[eval_at: ]
[multi_error_top_k: 1]
[num_machines: 1]
[local_listen_port: 12400]
[time_out: 120]
[machine_list_filename: ]
[machines: ]
[gpu_platform_id: -1]
[gpu_device_id: -1]
[gpu_use_dp: 0]

end of parameters

pandas_categorical:[]
