tree
version=v3
num_class=1
num_tree_per_iteration=1
label_index=0
max_feature_idx=8
objective=binary sigmoid:1
feature_names=target_amount method category images twitter_friends twitter_followers period description_len tfidf-sum
feature_infos=[9.2104403669765169:17.216707972959764] [0.46020260492040521:0.99999999985698063] [0.20000000001057894:0.99871479474344416] [0:110] [-inf:9.7626149936547133] [-inf:12.778401563790201] [2:46] [0:25710] [0:18.656652122964481]
tree_sizes=631 632 631 635 629 632 630 634 630 636 637 633 636 634 635 631 635 637 632 637 637 634 634 638 634 629 635 637 631 633 630 633 635 630 634 631 635 636 637 636 631 635 632 637 636 633 636 638 635 636 634 637 632 638 640 642 632 635 631 627 630 631 634 633 633 635 629 637 634 631 636 637 637

Tree=0
num_leaves=5
num_cat=0
split_feature=7 0 0 7
split_gain=35.4582 19.4433 15.2852 7.56751
threshold=1996.0000000000002 13.493333430720446 12.832456808345684 3679.0000000000005
decision_type=2 2 2 2
left_child=2 -2 -1 -3
right_child=1 3 -4 -5
leaf_value=-0.033970408602394413 0.041023474140350513 -0.11360571687993511 -0.18773568229589976 -0.030254666494352912
leaf_weight=7.9874877929687491 20.467937469482422 24.71129035949707 33.447605133056641 19.469501495361328
leaf_count=32 82 99 134 78
internal_value=0 0.395933 -0.788982 0.0220924
internal_weight=0 64.6487 41.4351 44.1808
internal_count=425 259 166 177
shrinkage=1


Tree=1
num_leaves=5
num_cat=0
split_feature=7 0 0 7
split_gain=28.8456 15.7199 12.5036 6.27214
threshold=1996.0000000000002 13.493333430720446 12.832456808345684 2323.0000000000005
decision_type=2 2 2 2
left_child=2 -2 -1 -3
right_child=1 3 -4 -5
leaf_value=0.040596589658722565 0.10800846097592234 0.10210328956901304 -0.098482965549487822 -0.012153266178680976
leaf_weight=7.9976925849914542 20.491377085447311 5.4822918474674216 33.206550806760788 38.683559432625771
leaf_count=32 82 22 134 155
internal_value=0 0.356232 -0.71429 0.0198051
internal_weight=0 64.6572 41.2042 44.1659
internal_count=425 259 166 177
shrinkage=0.1


Tree=2
num_leaves=5
num_cat=0
split_feature=7 5 3 7
split_gain=28.1618 9.9194 8.17827 9.97949
threshold=2045.0000000000002 6.3594780752028051 16.500000000000004 3750.0000000000005
decision_type=2 2 2 2
left_child=1 -1 3 -2
right_child=2 -3 -4 -5
leaf_value=-0.08739801735239916 -0.016710525667247511 0.041416915923964036 0.097939291693409536 0.08270239766071695
leaf_weight=35.882313191890717 29.884395375847816 7.1439021229743949 17.194036036729813 15.229168117046354
leaf_count=146 120 29 69 61
internal_value=0 -0.659534 0.392312 0.167986
internal_weight=0 43.0262 62.3076 45.1136
internal_count=425 175 250 181
shrinkage=0.1


Tree=3
num_leaves=5
num_cat=0
split_feature=7 0 4 2
split_gain=22.9891 8.94495 10.2857 7.3439
threshold=2045.0000000000002 14.556313305698998 5.8621844176681011 0.37268518519052063
decision_type=2 2 2 2
left_child=1 2 -1 -2
right_child=3 -3 -4 -5
leaf_value=-0.059196709683430992 -0.080967421176782572 -0.14873674515931448 0.096825754579812504 0.045529986959585877
leaf_weight=28.703674510121346 4.9747263789176932 8.9744780063629133 4.9424003958702079 57.230343714356422
leaf_count=118 20 37 20 230
internal_value=0 -0.599612 -0.362012 0.353722
internal_weight=0 42.6206 33.6461 62.2051
internal_count=425 175 138 250
shrinkage=0.1


Tree=4
num_leaves=5
num_cat=0
split_feature=7 0 3 5
split_gain=18.6791 17.5234 11.1953 11.3529
threshold=3036.5000000000005 14.186479920804915 11.500000000000002 6.750306747199228
decision_type=2 2 2 2
left_child=1 2 3 -1
right_child=-2 -3 -4 -5
leaf_value=-0.038103623604858319 0.06266117918104723 -0.087638640832802539 0.1173126877311837 0.1232508043611686
leaf_weight=26.371595785021785 36.813570842146873 27.343474805355072 8.5923111438751203 5.2187746763229361
leaf_count=108 148 113 35 21
internal_value=0 -0.258749 0.160975 -0.11364
internal_weight=0 67.5262 40.1827 31.5904
internal_count=425 277 164 129
shrinkage=0.1


Tree=5
num_leaves=5
num_cat=0
split_feature=7 0 5 8
split_gain=15.23 15.4946 6.81714 5.16007
threshold=3021.5000000000005 12.832456808345684 6.750306747199228 11.111746812498184
decision_type=2 2 2 2
left_child=1 -1 3 -3
right_child=-2 2 -4 -5
leaf_value=0.066384289225583773 0.056091084348443454 -0.079088355015721812 0.032661040042612291 0.023046934467487488
leaf_weight=14.779154971241949 37.183806255459785 37.623002737760544 8.3821826875209791 5.6542886793613425
leaf_count=60 150 158 34 23
internal_value=0 -0.238267 -0.496833 -0.656883
internal_weight=0 66.4386 51.6595 43.2773
internal_count=425 275 215 181
shrinkage=0.1


Tree=6
num_leaves=5
num_cat=0
split_feature=7 0 0 7
split_gain=15.7977 8.3686 7.49845 7.19829
threshold=1676.5000000000002 14.237371233397699 12.958113705026626 3647.0000000000005
decision_type=2 2 2 2
left_child=2 -2 -1 -3
right_child=1 3 -4 -5
leaf_value=0.025371662198434414 0.047013629518394801 -0.063340453267071758 -0.094669443213903443 0.0363823813237166
leaf_weight=6.690720587968829 43.464983835816383 17.375074252486232 22.949739158153534 12.372739881277083
leaf_count=27 178 71 99 50
internal_value=0 0.190275 -0.674922 -0.217838
internal_weight=0 73.2128 29.6405 29.7478
internal_count=425 299 126 121
shrinkage=0.1


Tree=7
num_leaves=5
num_cat=0
split_feature=3 0 0 7
split_gain=13.6555 7.86841 6.69384 5.21391
threshold=3.5000000000000004 12.958113705026626 13.344707890597869 4917.5000000000009
decision_type=2 2 2 2
left_child=1 -1 -2 -4
right_child=2 -3 3 -5
leaf_value=0.038086305380764407 0.065406826758279205 -0.086047257191593687 -0.018197610959842469 0.061682033149449325
leaf_weight=6.3991973549127605 21.533670201897621 24.7939093708992 38.924213364720345 10.337983161211012
leaf_count=26 89 106 162 42
internal_value=0 -0.605039 0.188998 -0.0138349
internal_weight=0 31.1931 70.7959 49.2622
internal_count=425 132 293 204
shrinkage=0.1


Tree=8
num_leaves=5
num_cat=0
split_feature=7 0 5 7
split_gain=11.7331 10.4995 5.45707 4.15104
threshold=1322.0000000000002 13.344707890597869 7.5540094136337421 4554.0000000000009
decision_type=2 2 2 2
left_child=-1 -2 3 -3
right_child=1 2 -4 -5
leaf_value=-0.06420214564988419 0.080472949303357633 -0.027843897584275419 0.068032720310394007 0.042891061628451542
leaf_weight=18.781360164284706 23.149772882461548 38.709746718406677 10.096142411231993 10.537248253822325
leaf_count=83 97 161 41 43
internal_value=0 0.233557 0.010314 -0.12659
internal_weight=0 82.4929 59.3431 49.247
internal_count=425 342 245 204
shrinkage=0.1


Tree=9
num_leaves=5
num_cat=0
split_feature=7 0 1 7
split_gain=10.2002 7.23466 5.03761 4.39831
threshold=965.50000000000011 13.344707890597869 0.46042200216865747 3750.0000000000005
decision_type=2 2 2 2
left_child=-1 2 -2 -3
right_child=1 3 -4 -5
leaf_value=-0.090466464520529422 -0.019293159950641434 -0.018258702096360841 0.085512470389634235 0.038321828791046821
leaf_weight=9.7915614098310453 5.9018660783767727 44.898918852210045 20.029702991247177 19.790546849370003
leaf_count=44 25 190 85 81
internal_value=0 0.169423 0.615677 -0.00911165
internal_weight=0 90.621 25.9316 64.6895
internal_count=425 381 110 271
shrinkage=0.1


Tree=10
num_leaves=5
num_cat=0
split_feature=7 0 2 3
split_gain=10.5618 11.8395 6.51617 4.78402
threshold=3679.0000000000005 13.808968944775055 0.57994987391344333 3.5000000000000004
decision_type=2 2 2 2
left_child=1 -1 -2 -3
right_child=2 3 -4 -5
leaf_value=0.029719582342819864 0.078993415089289559 -0.095153312061653728 -0.040885360060292225 -0.027043049452550386
leaf_weight=28.707238584756851 21.052880689501766 16.62307970225811 5.7482246011495581 27.546553358435631
leaf_count=121 88 75 24 117
internal_value=0 -0.202219 0.531916 -0.527343
internal_weight=0 72.8769 26.8011 44.1696
internal_count=425 313 112 192
shrinkage=0.1


Tree=11
num_leaves=5
num_cat=0
split_feature=0 7 2 7
split_gain=9.34183 9.70709 5.64827 5.26256
threshold=12.832456808345684 3679.0000000000005 0.57994987391344333 1662.5000000000002
decision_type=2 2 2 2
left_child=3 -2 -3 -1
right_child=1 2 -4 -5
leaf_value=-0.0091580902232042804 -0.039479464961510016 0.063177271223624792 -0.053466239833714159 0.097100684236055668
leaf_weight=7.1259808093309429 54.435222938656807 18.511209994554523 5.3275636285543433 13.25887571275234
leaf_count=29 238 78 22 58
internal_value=0 -0.161544 0.370062 0.59842
internal_weight=0 78.274 23.8388 20.3849
internal_count=425 338 100 87
shrinkage=0.1


Tree=12
num_leaves=5
num_cat=0
split_feature=7 3 7 7
split_gain=18.293 7.31517 7.90797 8.93993
threshold=3021.5000000000005 3.5000000000000004 2369.5000000000005 1588.0000000000002
decision_type=2 2 2 2
left_child=1 -1 3 -3
right_child=-2 2 -4 -5
leaf_value=-0.066290981654504852 0.066187344520194688 -0.037046653396476399 -0.069158389479215085 0.079131587535338152
leaf_weight=24.813325822353363 34.940588817000389 11.116646915674211 10.765940710902212 16.310952544212341
leaf_count=112 149 50 45 69
internal_value=0 -0.240156 0.0338972 0.319574
internal_weight=0 63.0069 38.1935 27.4276
internal_count=425 276 164 119
shrinkage=0.1


Tree=13
num_leaves=5
num_cat=0
split_feature=7 6 7 2
split_gain=15.0399 6.94102 8.22463 7.55459
threshold=3021.5000000000005 32.500000000000007 2394.0000000000005 0.52277432706377513
decision_type=2 2 2 2
left_child=1 2 3 -1
right_child=-2 -3 -4 -5
leaf_value=-0.0029910682876046523 0.060466770842135677 -0.064350368177993375 -0.071717166190550283 0.10762778143736196
leaf_weight=19.33725988864899 34.448226273059845 23.773107826709747 10.412229403853415 9.039559140801428
leaf_count=86 149 107 44 39
internal_value=0 -0.218005 0.042185 0.321696
internal_weight=0 62.5622 38.789 28.3768
internal_count=425 276 169 125
shrinkage=0.1


Tree=14
num_leaves=5
num_cat=0
split_feature=2 7 2 8
split_gain=7.2467 6.97022 5.80854 4.14528
threshold=0.64364959374130348 1610.0000000000002 0.38750000022978176 14.366731266475345
decision_type=2 2 2 2
left_child=1 -1 -3 -4
right_child=-2 2 3 -5
leaf_value=-0.052206946787637681 0.11861463853945259 -0.082294216054668023 0.013815971426868232 0.11114653359225407
leaf_weight=22.206709757447243 5.1309148222208014 5.9239844977855673 57.877042979001999 4.7436971366405478
leaf_count=106 23 25 250 21
internal_value=0 -0.0349976 0.122466 0.212315
internal_weight=0 90.7514 68.5447 62.6207
internal_count=425 402 296 271
shrinkage=0.1


Tree=15
num_leaves=5
num_cat=0
split_feature=3 0 7 5
split_gain=6.3291 6.96613 5.58668 3.76967
threshold=3.5000000000000004 14.556313305698998 2785.0000000000005 5.1615756900220537
decision_type=2 2 2 2
left_child=2 3 -1 -2
right_child=1 -3 -4 -5
leaf_value=-0.063004654966900026 0.022279152411714572 -0.031312056599582104 0.036014950825993396 0.084766459666107338
leaf_weight=21.119412049651149 33.655713140964508 18.982828110456467 7.76759149134159 13.633901149034498
leaf_count=100 149 84 33 59
internal_value=0 0.197861 -0.362952 0.403488
internal_weight=0 66.2724 28.887 47.2896
internal_count=425 292 133 208
shrinkage=0.1


Tree=16
num_leaves=5
num_cat=0
split_feature=2 3 6 4
split_gain=8.44348 6.00395 5.60071 5.64595
threshold=0.51574367088607598 10.500000000000002 17.500000000000004 4.7140145363037149
decision_type=2 2 2 2
left_child=1 2 -1 -4
right_child=-2 -3 3 -5
leaf_value=-0.12371906121852844 0.034390846795351586 0.030393850095450998 -0.048653729932386806 0.047325340501149803
leaf_weight=7.4918927103281012 36.370056197047234 13.907241240143774 29.670196428894997 7.698403224349021
leaf_count=33 162 61 136 33
internal_value=0 -0.269063 -0.447239 -0.28815
internal_weight=0 58.7677 44.8605 37.3686
internal_count=425 263 202 169
shrinkage=0.1


Tree=17
num_leaves=5
num_cat=0
split_feature=3 2 0 3
split_gain=7.35831 5.44731 6.84558 3.76819
threshold=32.000000000000007 0.51574367088607598 14.556313305698998 12.500000000000002
decision_type=2 2 2 2
left_child=1 2 3 -1
right_child=-2 -3 -4 -5
leaf_value=-0.023714150349847647 0.12126440075528776 0.022397810469211108 -0.098414353963070855 0.054791985311028094
leaf_weight=37.893094897270203 4.5222018808126441 33.63311992585659 11.204792186617849 7.2754701673984519
leaf_count=170 22 149 52 32
internal_value=0 -0.0941126 -0.284315 -0.110136
internal_weight=0 90.0065 56.3734 45.1686
internal_count=425 403 254 202
shrinkage=0.1


Tree=18
num_leaves=5
num_cat=0
split_feature=2 7 6 7
split_gain=13.07 4.81661 5.34385 6.9632
threshold=0.73376588045980073 965.50000000000011 23.500000000000004 3456.0000000000005
decision_type=2 2 2 2
left_child=1 -1 3 -3
right_child=-2 2 -4 -5
leaf_value=-0.10261162233194952 0.1517214156754603 -0.027912645385562308 -0.0029523562013134084 -0.15819315630837541
leaf_weight=7.4733894765377036 4.3489891290664664 16.337786167860035 59.118675395846367 5.5067535638809195
leaf_count=41 20 73 265 26
internal_value=0 -0.257407 -0.186125 -0.608792
internal_weight=0 88.4366 80.9632 21.8445
internal_count=425 405 364 99
shrinkage=0.1


Tree=19
num_leaves=5
num_cat=0
split_feature=2 7 6 2
split_gain=10.9289 4.22521 4.24866 5.91481
threshold=0.73376588045980073 965.50000000000011 23.500000000000004 0.48379629629629312
decision_type=2 2 2 2
left_child=1 -1 -3 -4
right_child=-2 2 3 -5
leaf_value=-0.097070634075803269 0.1419532996502901 -0.054108654849174369 -0.032646769312095418 0.030697946725247852
leaf_weight=7.1283044070005408 4.1917439997196189 22.083819076418877 31.168183267116547 27.951847970485687
leaf_count=41 20 99 140 125
internal_value=0 -0.231974 -0.166803 -0.0265707
internal_weight=0 88.3322 81.2039 59.12
internal_count=425 405 364 265
shrinkage=0.1


Tree=20
num_leaves=5
num_cat=0
split_feature=7 8 7 1
split_gain=8.47708 5.08159 7.28532 3.83083
threshold=718.00000000000011 8.1694275266044176 1745.0000000000002 0.46287883924333856
decision_type=2 2 2 2
left_child=-1 -2 -3 -4
right_child=1 2 3 -5
leaf_value=-0.14307588936294605 0.048111566800482543 -0.083271410051428935 0.040629936570683201 -0.013257673632025211
leaf_weight=3.9080824702978125 22.755191713571548 10.451196894049643 21.61078642308712 33.771742656826973
leaf_count=22 105 50 96 152
internal_value=0 0.0736417 -0.066851 0.0772759
internal_weight=0 88.5889 65.8337 55.3825
internal_count=425 403 298 248
shrinkage=0.1


Tree=21
num_leaves=5
num_cat=0
split_feature=7 0 8 1
split_gain=7.35901 4.29157 5.24087 2.84723
threshold=718.00000000000011 14.556313305698998 7.2375476176459097 0.46287883924333856
decision_type=2 2 2 2
left_child=-1 2 -2 -3
right_child=1 3 -4 -5
leaf_value=-0.13806423821483099 0.089718353546658011 0.0073556742961218132 0.008002635782216487 -0.065357995874290462
leaf_weight=3.6579423174262038 9.099263057112692 9.8434792608022708 57.735383063554764 11.744789987802504
leaf_count=22 40 45 264 54
internal_value=0 0.0662352 0.191667 -0.320957
internal_weight=0 88.4229 66.8346 21.5883
internal_count=425 403 304 99
shrinkage=0.1


Tree=22
num_leaves=5
num_cat=0
split_feature=3 0 1 5
split_gain=9.51493 5.67561 4.66018 5.11847
threshold=4.5000000000000009 14.556313305698998 0.46759463588524874 4.4537384887643698
decision_type=2 2 2 2
left_child=2 -2 3 -1
right_child=1 -3 -4 -5
leaf_value=-0.04368547536032804 0.049964414397744822 -0.018783166682533565 -0.08496282133040034 0.065939001297337207
leaf_weight=12.188135482370859 44.521375522017479 16.382747441530228 12.141665749251841 6.5386699438095084
leaf_count=61 201 73 61 29
internal_value=0 0.314326 -0.367025 -0.052775
internal_weight=0 60.9041 30.8685 18.7268
internal_count=425 274 151 90
shrinkage=0.1


Tree=23
num_leaves=5
num_cat=0
split_feature=3 0 2 1
split_gain=7.79005 4.64085 4.42385 3.91711
threshold=4.5000000000000009 14.556313305698998 0.57994987391344333 0.46759463588524874
decision_type=2 2 2 2
left_child=3 2 -2 -1
right_child=1 -3 -4 -5
leaf_value=-0.0047844978314965925 0.061395052266710229 -0.016903592206753231 -0.016759562857189048 -0.078496214327827982
leaf_weight=18.611748218536381 35.135671943426132 16.384159587323666 9.065515995025633 11.843862503767012
leaf_count=90 157 73 44 61
internal_value=0 0.284474 0.453117 -0.335329
internal_weight=0 60.5853 44.2012 30.4556
internal_count=425 274 201 151
shrinkage=0.1


Tree=24
num_leaves=5
num_cat=0
split_feature=0 5 7 7
split_gain=3.92414 5.39596 5.57032 5.24876
threshold=12.832456808345684 7.3572372216331878 1074.0000000000002 2423.0000000000005
decision_type=2 2 2 2
left_child=3 2 -2 -1
right_child=1 -3 -4 -5
leaf_value=0.10540008152295498 -0.10559280006453452 0.070717007736971246 0.0032105739877413084 0.00011834994945592975
leaf_weight=10.244980558753015 5.1344037503004065 10.806190356612204 55.659550398588181 8.8878812938928586
leaf_count=46 37 48 250 44
internal_value=0 0.0559533 -0.0594338 0.566246
internal_weight=0 71.6001 60.794 19.1329
internal_count=425 335 287 90
shrinkage=0.1


Tree=25
num_leaves=5
num_cat=0
split_feature=3 7 7 7
split_gain=3.77484 3.67686 7.08275 6.90563
threshold=29.500000000000004 2380.5000000000005 3036.5000000000005 2066.5000000000005
decision_type=2 2 2 2
left_child=1 3 -3 -1
right_child=-2 2 -4 -5
leaf_value=0.0085426697046339078 0.093583600663219135 -0.06552293724314788 0.01849013599892552 0.1070403021680435
leaf_weight=30.6618732213974 5.7058435156941405 15.251807063817976 29.265182241797447 9.2937029600143415
leaf_count=156 30 66 132 41
internal_value=0 0.0948299 -0.102418 0.315186
internal_weight=0 84.4726 44.517 39.9556
internal_count=425 395 198 197
shrinkage=0.1


Tree=26
num_leaves=5
num_cat=0
split_feature=2 4 7 1
split_gain=4.44382 3.44936 5.1797 4.89056
threshold=0.38750000022978176 4.5642939350519631 965.50000000000011 0.46759463588524874
decision_type=2 2 2 2
left_child=-1 2 -2 -3
right_child=1 3 -4 -5
leaf_value=-0.074846889844416398 -0.10039289753974434 -0.076734500930854904 0.023914655777638228 0.017154863349284091
leaf_weight=7.8775349259376517 3.5585233122110358 11.103268653154375 55.660688236355782 11.019483193755148
leaf_count=37 27 51 260 50
internal_value=0 0.0378814 0.164005 -0.298632
internal_weight=0 81.342 59.2192 22.1228
internal_count=425 388 287 101
shrinkage=0.1


Tree=27
num_leaves=5
num_cat=0
split_feature=2 4 2 2
split_gain=3.64926 2.79441 4.80776 6.50275
threshold=0.38750000022978176 4.5642939350519631 0.56190465883105511 0.49999999921060517
decision_type=2 2 2 2
left_child=-1 2 3 -2
right_child=1 -3 -4 -5
leaf_value=-0.068278609972137513 0.0052435781985196682 -0.026859360011478102 -0.03920688936195299 0.087277864982799824
leaf_weight=7.7774219512939444 32.280221246182919 22.12439800798893 12.848729528486727 13.832026496529577
leaf_count=37 163 101 60 64
internal_value=0 0.0340579 0.148036 0.299063
internal_weight=0 81.0854 58.961 46.1122
internal_count=425 388 287 227
shrinkage=0.1


Tree=28
num_leaves=5
num_cat=0
split_feature=0 3 3 8
split_gain=6.35491 4.27935 4.94503 4.02773
threshold=14.186479920804915 5.5000000000000009 3.5000000000000004 10.42869382297401
decision_type=2 2 2 2
left_child=-1 2 -2 -3
right_child=1 3 -4 -5
leaf_value=0.02794364470984665 -0.029236535367014961 -0.014975229182186354 0.080919962191489239 -0.10455472943573683
leaf_weight=50.536076694726944 11.540275543928148 10.655604317784311 6.2875191643834105 9.6114179193973523
leaf_count=240 64 48 31 42
internal_value=0 -0.261348 0.0948578 -0.575832
internal_weight=0 38.0948 17.8278 20.267
internal_count=425 185 95 90
shrinkage=0.1


Tree=29
num_leaves=5
num_cat=0
split_feature=0 1 2 7
split_gain=5.14619 3.76213 3.84462 3.36967
threshold=14.186479920804915 0.46287883924333856 0.52721088430154739 2526.5000000000005
decision_type=2 2 2 2
left_child=-1 2 3 -2
right_child=1 -3 -4 -5
leaf_value=0.025192184313205319 -0.11169919951909701 -0.051307819991776596 0.062664897477847259 0.014588728618166499
leaf_weight=50.454699605703354 3.3827188685536402 21.378490552306175 7.90816806256771 5.5498679727315903
leaf_count=240 20 105 36 24
internal_value=0 -0.234431 0.117906 -0.329872
internal_weight=0 38.2192 16.8408 8.93259
internal_count=425 185 80 44
shrinkage=0.1


Tree=30
num_leaves=5
num_cat=0
split_feature=5 5 5 0
split_gain=5.93319 9.31631 4.00639 3.96606
threshold=4.9697891863402415 2.9674470978097944 8.4470667399779664 12.958113705026626
decision_type=2 2 2 2
left_child=1 -1 3 -2
right_child=2 -3 -4 -5
leaf_value=-0.020636112060906486 0.12887914025233321 -0.14665072919539174 -0.043576910995252689 0.021082051675113431
leaf_weight=55.86273106187582 4.3809338286519113 6.5655770003795615 6.8898505121469489 15.804100990295408
leaf_count=272 22 29 30 72
internal_value=0 -0.339329 0.220786 0.446102
internal_weight=0 62.4283 27.0749 20.185
internal_count=425 301 124 94
shrinkage=0.1


Tree=31
num_leaves=5
num_cat=0
split_feature=5 5 0 2
split_gain=4.83107 7.65622 3.41356 5.45164
threshold=4.9697891863402415 2.9674470978097944 12.958113705026626 0.42662612990401644
decision_type=2 2 2 2
left_child=1 -1 -2 -4
right_child=2 -3 3 -5
leaf_value=-0.018596185097581236 0.093631698147941117 -0.13335128530843604 0.07570574262345213 -0.031525073770402902
leaf_weight=55.795538231730461 5.1076973006129291 6.5016287863254538 6.9689667746424702 14.805891916155813
leaf_count=272 26 29 32 66
internal_value=0 -0.30616 0.200645 0.0268909
internal_weight=0 62.2972 26.8826 21.7749
internal_count=425 301 124 98
shrinkage=0.1


Tree=32
num_leaves=5
num_cat=0
split_feature=6 7 5 7
split_gain=4.96578 5.36598 4.18802 3.69997
threshold=17.500000000000004 2275.5000000000005 5.1615756900220537 2818.5000000000005
decision_type=2 2 2 2
left_child=1 -1 -2 -4
right_child=2 -3 3 -5
leaf_value=0.0048131114021174627 -0.010447958947689536 -0.11842596514013096 -0.00039527526001104638 0.086626550620676826
leaf_weight=6.5674974620342237 54.454092793166637 7.5542634725570679 9.5803260579705256 9.8542222678661329
leaf_count=31 268 36 44 46
internal_value=0 -0.609528 0.037398 0.436117
internal_weight=0 14.1218 73.8886 19.4345
internal_count=425 67 358 90
shrinkage=0.1


Tree=33
num_leaves=5
num_cat=0
split_feature=7 8 3 2
split_gain=4.24821 6.25427 4.08791 3.78533
threshold=718.00000000000011 8.200077728050017 7.5000000000000009 0.49999999991295097
decision_type=2 2 2 2
left_child=-1 2 3 -2
right_child=1 -3 -4 -5
leaf_value=-0.13238321358889671 -0.017072935158713703 -0.019611061691425489 0.10090404126582342 0.084547818428917593
leaf_weight=2.5770772546529761 12.310124397277837 60.189918138086796 7.6273233145475379 5.2045893073081961
leaf_count=20 63 283 35 24
internal_value=0 -0.0208726 0.397673 0.12996
internal_weight=0 85.332 25.142 17.5147
internal_count=425 405 122 87
shrinkage=0.1


Tree=34
num_leaves=5
num_cat=0
split_feature=1 7 7 6
split_gain=6.60679 5.13957 4.35142 3.80344
threshold=0.47271765577065489 5198.5000000000009 2968.5000000000005 34.500000000000007
decision_type=2 2 2 2
left_child=1 -1 3 -2
right_child=2 -3 -4 -5
leaf_value=-0.00030047745962807166 -0.015394201102901867 -0.085511201263365533 0.12599897201053648 0.097740708339811522
leaf_weight=60.418931987136602 8.6030219122767466 8.0238612741231901 6.0849264711141577 4.5160564482212058
leaf_count=292 42 38 30 23
internal_value=0 -0.103279 0.560331 0.233806
internal_weight=0 68.4428 19.204 13.1191
internal_count=425 330 95 65
shrinkage=0.1


Tree=35
num_leaves=5
num_cat=0
split_feature=1 7 7 6
split_gain=5.4077 4.092 3.84282 3.01527
threshold=0.47271765577065489 5389.0000000000009 2968.5000000000005 34.500000000000007
decision_type=2 2 2 2
left_child=1 -1 3 -2
right_child=2 -3 -4 -5
leaf_value=-0.0011724948464336034 -0.013882084793494082 -0.083352602112073099 0.11869097109969576 0.086250575461172097
leaf_weight=61.948469571769238 8.5872546732425707 6.7212921231985083 5.8272744342684737 4.6013187691569319
leaf_count=299 42 31 30 23
internal_value=0 -0.0925381 0.509927 0.20882
internal_weight=0 68.6698 19.0158 13.1886
internal_count=425 330 95 65
shrinkage=0.1


Tree=36
num_leaves=5
num_cat=0
split_feature=3 3 5 5
split_gain=4.69342 5.19348 3.28369 3.77795
threshold=21.500000000000004 29.500000000000004 7.3479187376142665 8.5505005610683416
decision_type=2 2 2 2
left_child=2 -2 -1 -4
right_child=1 -3 3 -5
leaf_value=-0.00081913380710167563 -0.14751105087433458 0.00078837759376642821 0.10272848623265174 -0.012917727380998962
leaf_weight=67.442671529948711 4.3294253870844823 5.1213726252317429 7.0477952361106855 4.6563533544540405
leaf_count=324 20 27 34 20
internal_value=0 -0.669173 0.0763204 0.565234
internal_weight=0 9.4508 79.1468 11.7041
internal_count=425 47 378 54
shrinkage=0.1


Tree=37
num_leaves=5
num_cat=0
split_feature=3 3 2 4
split_gain=3.74795 4.03799 3.10584 3.17382
threshold=21.500000000000004 29.500000000000004 0.41145727008268324 5.5213329014754509
decision_type=2 2 2 2
left_child=2 -2 -1 -4
right_child=1 -3 3 -5
leaf_value=0.040625809257022333 -0.12907204816226175 0.00070980044632988257 -0.017062843356532388 0.039154200444749335
leaf_weight=20.28528505563736 4.4464960768818838 5.1198666840791702 45.902752868831158 12.840462386608122
leaf_count=98 20 27 219 61
internal_value=0 -0.593827 0.068808 -0.0473271
internal_weight=0 9.56636 79.0285 58.7432
internal_count=425 47 378 280
shrinkage=0.1


Tree=38
num_leaves=5
num_cat=0
split_feature=2 7 3 7
split_gain=3.12085 5.36442 5.37655 5.55412
threshold=0.57994987391344333 3679.0000000000005 4.5000000000000009 2977.0000000000005
decision_type=2 2 2 2
left_child=1 2 -1 -4
right_child=-2 -3 3 -5
leaf_value=-0.049373320547841201 -0.045636296339320412 0.049847398594804158 0.03391873888899926 -0.077181652500902975
leaf_weight=22.381616570055485 15.156547412276266 19.048493437469006 26.068804308772091 5.4274369776248923
leaf_count=122 71 90 119 23
internal_value=0 0.0421348 -0.118777 0.146933
internal_weight=0 72.9264 53.8779 31.4962
internal_count=425 354 264 142
shrinkage=0.1


Tree=39
num_leaves=5
num_cat=0
split_feature=6 7 2 2
split_gain=2.87221 3.59738 4.45004 3.80172
threshold=38.500000000000007 3491.0000000000005 0.57994987391344333 0.41903664691683129
decision_type=2 2 2 2
left_child=1 3 -3 -1
right_child=-2 2 -4 -5
leaf_value=0.025444218458766949 -0.049223373974820253 0.060913793028590506 -0.047354465839306518 -0.03044686805610583
leaf_weight=18.739677097648382 12.073749594390391 17.319690071046356 4.8348478078842154 34.570923052728176
leaf_count=96 56 83 22 168
internal_value=0 0.0328525 0.371755 -0.10755
internal_weight=0 75.4651 22.1545 53.3106
internal_count=425 369 105 264
shrinkage=0.1


Tree=40
num_leaves=5
num_cat=0
split_feature=7 0 7 6
split_gain=4.51604 6.3501 7.1726 6.33978
threshold=1808.5000000000002 13.906672253027496 1395.5000000000002 19.500000000000004
decision_type=2 2 2 2
left_child=1 2 -1 -2
right_child=3 -3 -4 -5
leaf_value=0.051897045688014544 -0.056674200436599834 -0.10615253033647226 -0.077111225951073503 0.027914231666636941
leaf_weight=10.281768739223486 10.763681560754774 8.7865400686860067 7.41384433209896 49.777548208832741
leaf_count=51 50 60 33 231
internal_value=0 -0.366684 -0.0202139 0.128339
internal_weight=0 26.4822 17.6956 60.5412
internal_count=425 144 84 281
shrinkage=0.1


Tree=41
num_leaves=5
num_cat=0
split_feature=7 0 8 6
split_gain=3.73052 5.64123 6.22772 5.12668
threshold=1808.5000000000002 13.906672253027496 8.1447519019237671 19.500000000000004
decision_type=2 2 2 2
left_child=1 2 -1 -2
right_child=3 -3 -4 -5
leaf_value=0.048051826995990664 -0.050704570843730694 -0.10198214063697118 -0.071985740329759726 0.025201254242716294
leaf_weight=10.369076326489454 10.824633777141569 8.2588784061372262 7.4055308252573004 49.630891568958759
leaf_count=50 50 60 34 231
internal_value=0 -0.337004 -0.0182897 0.115691
internal_weight=0 26.0335 17.7746 60.4555
internal_count=425 144 84 281
shrinkage=0.1


Tree=42
num_leaves=5
num_cat=0
split_feature=2 2 7 8
split_gain=4.21481 5.50708 4.49789 4.4233
threshold=0.64364959374130348 0.57994987391344333 2871.5000000000005 8.9571525095041604
decision_type=2 2 2 2
left_child=1 2 -1 -4
right_child=-2 -3 3 -5
leaf_value=-0.0018434997395956048 0.11548407657517928 -0.056517759876114265 0.12413105793455 0.028069489600319998
leaf_weight=43.183422718197107 3.8095199912786475 11.425103344023226 6.2155449837446239 21.431119695305824
leaf_count=220 20 53 30 102
internal_value=0 0.0784887 0.182668 0.497622
internal_weight=0 82.2552 70.8301 27.6467
internal_count=425 405 352 132
shrinkage=0.1


Tree=43
num_leaves=5
num_cat=0
split_feature=2 2 4 7
split_gain=3.58048 4.48069 4.38212 3.35351
threshold=0.64364959374130348 0.57994987391344333 7.3852847964887127 2066.5000000000005
decision_type=2 2 2 2
left_child=1 2 3 -1
right_child=-2 -3 -4 -5
leaf_value=-0.004581350905347773 0.10812863368925518 -0.050999718440685418 -0.078752950316313519 0.041421284355206645
leaf_weight=26.215524990111589 3.6693787723779669 11.396874785423277 4.5022062212228766 39.727870933711529
leaf_count=144 20 53 21 187
internal_value=0 0.0711428 0.165516 0.230975
internal_weight=0 81.8425 70.4456 65.9434
internal_count=425 405 352 331
shrinkage=0.1


Tree=44
num_leaves=5
num_cat=0
split_feature=7 6 7 6
split_gain=4.85304 6.97399 6.36017 5.48731
threshold=2369.5000000000005 34.500000000000007 1676.5000000000002 37.500000000000007
decision_type=2 2 2 2
left_child=2 -2 -1 -3
right_child=1 3 -4 -5
leaf_value=-0.0022400324498371561 -0.034518776199984752 0.12999065809797933 0.077877660791352984 -0.0044502115108815974
leaf_weight=20.373149238526821 33.986821353435516 5.3052796497940999 19.184906758368015 7.0160192400217056
leaf_count=118 161 24 88 34
internal_value=0 -0.111104 0.365577 0.532586
internal_weight=0 46.3081 39.5581 12.3213
internal_count=425 219 206 58
shrinkage=0.1


Tree=45
num_leaves=5
num_cat=0
split_feature=7 6 7 6
split_gain=3.92484 5.66326 5.1885 4.64749
threshold=2369.5000000000005 34.500000000000007 1914.5000000000002 38.500000000000007
decision_type=2 2 2 2
left_child=2 -2 -1 -3
right_child=1 3 -4 -5
leaf_value=0.0096626119664273615 -0.030904674527871913 0.1010218398049644 0.089608435875267178 -0.023592946238102708
leaf_weight=28.105609495192766 34.155969388782978 7.0744115114212018 11.461604066193102 5.1398165225982666
leaf_count=153 161 33 53 25
internal_value=0 -0.0996382 0.328856 0.483939
internal_weight=0 46.3702 39.5672 12.2142
internal_count=425 219 206 58
shrinkage=0.1


Tree=46
num_leaves=5
num_cat=0
split_feature=2 5 5 6
split_gain=4.38328 3.2343 3.69277 2.56635
threshold=0.31625002457668461 7.4226671199981178 6.8308736515391404 22.500000000000004
decision_type=2 2 2 2
left_child=-1 2 3 -2
right_child=1 -3 -4 -5
leaf_value=-0.10639052316646927 0.029923754091684907 0.045518157395859106 -0.10390318198715594 -0.016368472807326933
leaf_weight=4.307830147445201 15.682409785687922 11.795387938618658 4.0374874100089064 50.424050617963076
leaf_count=20 77 56 20 252
internal_value=0 -0.0288522 -0.110602 -0.0534971
internal_weight=0 81.9393 70.1439 66.1065
internal_count=425 405 349 329
shrinkage=0.1


Tree=47
num_leaves=5
num_cat=0
split_feature=2 5 4 7
split_gain=3.65525 2.63276 3.1953 3.33848
threshold=0.31625002457668461 7.4226671199981178 4.5642939350519631 2576.5000000000005
decision_type=2 2 2 2
left_child=-1 2 3 -2
right_child=1 -3 -4 -5
leaf_value=-0.098182815587996242 -0.023865429876392435 0.041240420213584802 -0.061730840748892318 0.023328443291095506
leaf_weight=4.206712767481803 31.135008223354816 11.721286922693251 10.183264650404452 28.890569850802422
leaf_count=20 166 56 50 133
internal_value=0 -0.0258719 -0.0993945 -0.01111
internal_weight=0 81.9301 70.2088 60.0256
internal_count=425 405 349 299
shrinkage=0.1


Tree=48
num_leaves=5
num_cat=0
split_feature=5 4 3 3
split_gain=3.45862 4.18803 2.33362 3.78851
threshold=7.3572372216331878 6.8536931132418593 1.5000000000000002 9.5000000000000018
decision_type=2 2 2 2
left_child=2 -2 -1 -4
right_child=1 -3 3 -5
leaf_value=0.032014077225304992 0.11754299394896493 -0.0066232099261564897 -0.038828442706640917 0.010714073210617512
leaf_weight=10.493887096643446 4.8793500363826734 6.0472448170185089 38.154913749545813 25.815623708069324
leaf_count=67 23 29 182 124
internal_value=0 0.486205 -0.116047 -0.187984
internal_weight=0 10.9266 74.4644 63.9705
internal_count=425 52 373 306
shrinkage=0.1


Tree=49
num_leaves=5
num_cat=0
split_feature=5 4 8 8
split_gain=2.82464 3.49526 2.18144 5.60095
threshold=7.3572372216331878 6.8536931132418593 12.315127036429054 11.587046734680834
decision_type=2 2 2 2
left_child=2 -2 3 -1
right_child=1 -3 -4 -5
leaf_value=-0.013044566946814749 0.10807561738979646 -0.0059585974651664448 -0.052862474013655063 0.088624022116188889
leaf_weight=57.920639488846064 4.7814720869064313 6.0497245863080025 10.436260133981703 5.9732333123683921
leaf_count=295 23 29 50 28
internal_value=0 0.441758 -0.104638 -0.0349927
internal_weight=0 10.8312 74.3301 63.8939
internal_count=425 52 373 323
shrinkage=0.1


Tree=50
num_leaves=5
num_cat=0
split_feature=0 7 7 2
split_gain=3.42499 4.57458 4.1167 3.85169
threshold=14.556313305698998 2818.5000000000005 4493.0000000000009 0.41903664691683129
decision_type=2 2 2 2
left_child=2 -2 3 -1
right_child=1 -3 -4 -5
leaf_value=0.059272133023650635 -0.098051223155083564 0.0004608875474923705 -0.053361876132353749 0.0040563579524107831
leaf_weight=19.63289101421833 7.0746997520327595 13.972096860408781 7.9108415357768527 35.72238190844655
leaf_count=96 48 61 42 178
internal_value=0 -0.325477 0.140113 0.236848
internal_weight=0 21.0468 63.2661 55.3553
internal_count=425 109 316 274
shrinkage=0.1


Tree=51
num_leaves=5
num_cat=0
split_feature=0 7 7 2
split_gain=2.80708 3.96697 3.33572 3.24771
threshold=14.556313305698998 2818.5000000000005 5640.5000000000009 0.41233397009392297
decision_type=2 2 2 2
left_child=2 -2 3 -1
right_child=1 -3 -4 -5
leaf_value=0.056294384652291522 -0.092784192851794331 0.00041483453213125073 -0.075629720281712776 0.0040246394011206124
leaf_weight=16.474662683904171 6.7461550906300571 13.971201866865156 4.0063554495573035 43.092622861266136
leaf_count=80 48 61 21 215
internal_value=0 -0.29826 0.125491 0.185229
internal_weight=0 20.7174 63.5736 59.5673
internal_count=425 109 316 295
shrinkage=0.1


Tree=52
num_leaves=5
num_cat=0
split_feature=7 8 8 7
split_gain=4.89543 3.4029 3.53883 4.12482
threshold=1018.0000000000001 7.4347666135743671 9.1158393067711501 2526.5000000000005
decision_type=2 2 2 2
left_child=-1 -2 3 -3
right_child=1 2 -4 -5
leaf_value=-0.10080961956133441 0.05460796467765211 -0.0072458561433898228 0.0083396191176583531 -0.10062749235097335
leaf_weight=4.93815067782998 10.571478471159933 13.17560436204076 48.861549042165279 7.4321777969598761
leaf_count=40 51 67 234 33
internal_value=0 0.0173553 -0.062777 -0.410483
internal_weight=0 80.0408 69.4693 20.6078
internal_count=425 385 334 100
shrinkage=0.1


Tree=53
num_leaves=5
num_cat=0
split_feature=7 8 8 7
split_gain=4.30003 3.04183 2.53601 2.44512
threshold=965.50000000000011 7.2172619148008534 9.1158393067711501 2526.5000000000005
decision_type=2 2 2 2
left_child=-1 -2 3 -3
right_child=1 2 -4 -5
leaf_value=-0.10833809814407101 0.054567723281535523 -0.0094332223645690778 0.0067102581270298244 -0.078891664018122296
leaf_weight=3.758207492530345 9.3854475170373899 14.577716182917358 49.128700859844685 7.8462312221527091
leaf_count=35 45 74 236 35
internal_value=0 0.0102337 -0.0596832 -0.338499
internal_weight=0 80.9381 71.5526 22.4239
internal_count=425 390 345 109
shrinkage=0.1


Tree=54
num_leaves=5
num_cat=0
split_feature=6 4 7 6
split_gain=2.95809 2.54143 3.41529 3.71755
threshold=41.500000000000007 7.6499283957787076 1346.5000000000002 27.500000000000004
decision_type=2 2 2 2
left_child=1 2 -1 -4
right_child=-2 -3 3 -5
leaf_value=-0.055582056162677362 -0.085318264083640544 -0.070670046367360392 -0.022573451987164622 0.027144367341605614
leaf_weight=9.3152507953345758 4.7098006606101981 5.2925294041633597 23.517887532711029 41.571177557110786
leaf_count=69 23 25 112 196
internal_value=0 -0.0372585 0.0100625 0.0914352
internal_weight=0 79.6968 74.4043 65.0891
internal_count=425 402 377 308
shrinkage=0.1


Tree=55
num_leaves=5
num_cat=0
split_feature=6 2 0 7
split_gain=2.39112 2.36936 2.33889 3.48043
threshold=41.500000000000007 0.2899162046695562 12.832456808345684 1084.0000000000002
decision_type=2 2 2 2
left_child=1 -1 -3 -4
right_child=-2 2 3 -5
leaf_value=-0.080749620223652452 -0.076717764645231792 0.038055009007509112 -0.097805588169492988 -0.0014759941569967207
leaf_weight=3.7674873098731032 4.7139798998832694 13.585990421473978 4.0119761750102034 57.996195212006569
leaf_count=20 23 67 42 273
internal_value=0 -0.0337639 0.00450841 -0.0775098
internal_weight=0 79.3616 75.5942 62.0082
internal_count=425 402 382 315
shrinkage=0.1


Tree=56
num_leaves=5
num_cat=0
split_feature=6 5 7 6
split_gain=5.83547 3.61524 4.33344 5.10565
threshold=39.500000000000007 7.3572372216331878 2369.5000000000005 32.500000000000007
decision_type=2 2 2 2
left_child=1 2 3 -1
right_child=-2 -3 -4 -5
leaf_value=0.059681950056337141 -0.075906924522289268 0.07862522523996239 -0.014622003813752111 -0.031013172692774628
leaf_weight=23.635997951030731 7.4536226708441964 8.4088485911488515 36.143954545259476 8.3770460430532676
leaf_count=124 39 43 168 51
internal_value=0 0.167347 0.0906118 0.35874
internal_weight=0 76.5658 68.157 32.013
internal_count=425 386 343 175
shrinkage=0.1


Tree=57
num_leaves=5
num_cat=0
split_feature=6 5 7 7
split_gain=4.7293 2.99868 3.49108 5.11668
threshold=39.500000000000007 7.3572372216331878 2369.5000000000005 2576.5000000000005
decision_type=2 2 2 2
left_child=1 2 -1 -4
right_child=-2 -3 3 -5
leaf_value=0.032112771868111532 -0.068392482838794497 0.071886250015941913 -0.10638300179661564 0.0019443232995083614
leaf_weight=32.156384846195579 7.4459247924387446 8.2843592129647714 5.0601385161280623 31.146387584507465
leaf_count=175 39 43 23 145
internal_value=0 0.150398 0.0811355 -0.131359
internal_weight=0 76.6473 68.3629 36.2065
internal_count=425 386 343 168
shrinkage=0.1


Tree=58
num_leaves=5
num_cat=0
split_feature=7 7 8 5
split_gain=2.01008 4.82321 2.256 1.87018
threshold=1018.0000000000001 1196.5000000000002 6.8506588506040176 5.1615756900220537
decision_type=2 2 2 2
left_child=-1 -2 -3 -4
right_child=1 2 3 -5
leaf_value=-0.044334297182706359 0.13675026302413743 -0.050401222389109449 0.0068408500549922598 0.043298042515727775
leaf_weight=5.4979594815522423 3.2831197679042807 5.2242258861660948 47.644167818129063 20.094121273607016
leaf_count=50 20 25 231 99
internal_value=0 0.181561 0.127822 0.176922
internal_weight=0 76.2456 72.9625 67.7383
internal_count=425 375 355 330
shrinkage=0.1


Tree=59
num_leaves=5
num_cat=0
split_feature=7 7 8 0
split_gain=1.6509 3.66092 1.83131 1.76488
threshold=1018.0000000000001 1196.5000000000002 6.8506588506040176 15.237965491153021
decision_type=2 2 2 2
left_child=-1 -2 -3 -4
right_child=1 2 3 -5
leaf_value=-0.040937923543821947 0.1171826469741782 -0.04540977740879619 0.021117778136607233 -0.034771271602898078
leaf_weight=5.3660513684153548 3.4394504800438872 5.219157136976718 61.410689499229193 6.1906763166189185
leaf_count=50 20 25 302 28
internal_value=0 0.163305 0.115302 0.159632
internal_weight=0 76.26 72.8205 67.6014
internal_count=425 375 355 330
shrinkage=0.1


Tree=60
num_leaves=5
num_cat=0
split_feature=0 6 7 7
split_gain=3.6163 5.94056 2.44703 5.89806
threshold=12.832456808345684 17.500000000000004 941.50000000000011 1255.0000000000002
decision_type=2 2 2 2
left_child=1 -1 -2 -4
right_child=2 -3 3 -5
leaf_value=-0.027204406009735678 -0.11523712865891045 0.10492039504939388 0.10159735025831076 -0.01454068192098561
leaf_weight=6.0654088333249074 2.1297294422984114 7.6815426610410213 4.6998659744858733 61.919178288429976
leaf_count=28 29 45 29 294
internal_value=0 0.464567 -0.0972127 -0.0630781
internal_weight=0 13.747 68.7488 66.619
internal_count=425 73 352 323
shrinkage=0.1


Tree=61
num_leaves=5
num_cat=0
split_feature=0 6 7 7
split_gain=3.0048 5.09225 2.2114 4.6197
threshold=12.832456808345684 17.500000000000004 941.50000000000011 1196.5000000000002
decision_type=2 2 2 2
left_child=1 -1 -2 -4
right_child=2 -3 3 -5
leaf_value=-0.024430678998391679 -0.1136799405089207 0.099052642905927177 0.094137037314063893 -0.012626515375571898
leaf_weight=6.078208386898039 1.9521441273391236 7.3410516120493412 4.3286614194512358 62.489643283188343
leaf_count=28 29 45 26 297
internal_value=0 0.429495 -0.0877586 -0.0567093
internal_weight=0 13.4193 68.7704 66.8183
internal_count=425 73 352 323
shrinkage=0.1


Tree=62
num_leaves=5
num_cat=0
split_feature=3 6 7 8
split_gain=3.13002 4.14154 2.62564 3.05338
threshold=1.5000000000000002 29.500000000000004 7135.5000000000009 12.543353448906114
decision_type=2 2 2 2
left_child=1 -1 3 -2
right_child=2 -3 -4 -5
leaf_value=0.099586171767188994 -0.013775368593869014 -0.021467594388992327 0.057305425190449705 -0.074213392387066465
leaf_weight=5.6283982135355455 56.063497493043542 5.6214638445526361 4.3384407237172118 9.8629480898380262
leaf_count=34 281 38 22 50
internal_value=0 0.388934 -0.178706 -0.22856
internal_weight=0 11.2499 70.2649 65.9264
internal_count=425 72 353 331
shrinkage=0.1


Tree=63
num_leaves=5
num_cat=0
split_feature=3 6 3 8
split_gain=2.51756 3.27085 2.41923 3.5139
threshold=1.5000000000000002 29.500000000000004 24.500000000000004 12.543353448906114
decision_type=2 2 2 2
left_child=1 -1 3 -2
right_child=2 -3 -4 -5
leaf_value=0.087726589113411302 -0.012634961670476494 -0.01945428469808225 0.035135140177754411 -0.078777991953081467
leaf_weight=5.7440578751265985 52.670338705182076 5.5851747784763575 8.1235601007938367 9.5095295161008817
leaf_count=34 261 38 46 46
internal_value=0 0.346847 -0.160634 -0.227919
internal_weight=0 11.3292 70.3034 62.1799
internal_count=425 72 353 307
shrinkage=0.1


Tree=64
num_leaves=5
num_cat=0
split_feature=5 5 7 7
split_gain=3.77829 4.33747 2.18995 4.01947
threshold=7.4226671199981178 8.4798008570394696 1771.0000000000002 2380.5000000000005
decision_type=2 2 2 2
left_child=2 -2 -1 -4
right_child=1 -3 3 -5
leaf_value=-0.035601114296226637 0.11943989914289393 -0.0074467768748667689 0.047417569334215426 -0.013090251349144736
leaf_weight=18.530897554010153 5.5159828104078752 5.1979994177818298 15.39467480778694 38.185340613126755
leaf_count=116 31 24 74 180
internal_value=0 0.576699 -0.0595729 0.0425183
internal_weight=0 10.714 72.1109 53.58
internal_count=425 55 370 254
shrinkage=0.1


Tree=65
num_leaves=5
num_cat=0
split_feature=7 5 0 1
split_gain=3.42147 3.71721 4.01121 2.60828
threshold=718.00000000000011 7.4226671199981178 14.711390700911553 0.46287883924333856
decision_type=2 2 2 2
left_child=-1 3 -3 -2
right_child=1 2 -4 -5
leaf_value=-0.13274687183474151 0.022415282095992833 0.1238196581614492 -0.0011103742270678911 -0.017570457316277259
leaf_weight=1.8376011308282603 25.613004226237535 5.1352311186492425 5.0672551244497299 44.851210061460733
leaf_count=22 127 30 23 223
internal_value=0 0.051349 0.615525 -0.0300187
internal_weight=0 80.6667 10.2025 70.4642
internal_count=425 403 53 350
shrinkage=0.1


Tree=66
num_leaves=5
num_cat=0
split_feature=2 0 8 8
split_gain=4.60178 5.10358 2.4589 6.48121
threshold=0.42662612990401644 14.556313305698998 8.801766348514338 9.4934395746702744
decision_type=2 2 2 2
left_child=1 2 -1 -4
right_child=-2 -3 3 -5
leaf_value=0.086208869990745313 -0.015515835529835166 -0.051077092089370536 -0.083098377129302251 0.060930806592131063
leaf_weight=11.372197620570661 48.380449618212879 6.0187380630522958 4.1163083910942104 12.8358057141304
leaf_count=59 246 38 21 61
internal_value=0 0.323373 0.501498 0.258094
internal_weight=0 34.343 28.3243 16.9521
internal_count=425 179 141 82
shrinkage=0.1


Tree=67
num_leaves=5
num_cat=0
split_feature=2 0 8 6
split_gain=3.72715 4.14579 2.14754 2.02137
threshold=0.42662612990401644 14.556313305698998 13.826598747504145 38.500000000000007
decision_type=2 2 2 2
left_child=1 3 -2 -1
right_child=2 -3 -4 -5
leaf_value=0.056944155050712521 -0.020784369767548286 -0.046749037921690197 0.051203305181262329 -0.014608693213270891
leaf_weight=23.684265453368429 43.854051942005754 5.9237690046429625 4.5582689046859732 4.6762385964393607
leaf_count=119 224 38 22 22
internal_value=0 0.291262 -0.139546 0.450617
internal_weight=0 34.2843 48.4123 28.3605
internal_count=425 179 246 141
shrinkage=0.1


Tree=68
num_leaves=5
num_cat=0
split_feature=8 8 3 7
split_gain=3.06099 3.22222 3.27182 4.87537
threshold=7.59136115931405 12.958645528128402 22.500000000000004 3627.5000000000005
decision_type=2 2 2 2
left_child=-1 2 3 -2
right_child=1 -3 -4 -5
leaf_value=0.043320501906780884 -0.023859645299366412 0.039089690352640219 -0.08183665483636432 0.056676542200839598
leaf_weight=14.435343554243444 39.253791734576225 12.192702326923607 6.9519972652196875 9.2847212925553304
leaf_count=86 199 59 37 44
internal_value=0 -0.0739169 -0.176493 -0.084028
internal_weight=0 67.6832 55.4905 48.5385
internal_count=425 339 280 243
shrinkage=0.1


Tree=69
num_leaves=5
num_cat=0
split_feature=8 6 8 8
split_gain=2.46854 2.83294 3.7488 2.62529
threshold=7.59136115931405 29.500000000000004 6.4014146777011165 12.958645528128402
decision_type=2 2 2 2
left_child=1 -1 -3 -2
right_child=3 2 -4 -5
leaf_value=0.086385057537491067 -0.015893527167319909 -0.079219716896494319 0.060333891469367185 0.035512808061366384
leaf_weight=6.7179296351969224 55.395494915544987 3.4879477079957724 4.286289818584919 12.084837656468151
leaf_count=39 280 21 26 59
internal_value=0 0.388277 -0.0197598 -0.0665092
internal_weight=0 14.4922 7.77424 67.4803
internal_count=425 86 47 339
shrinkage=0.1


Tree=70
num_leaves=5
num_cat=0
split_feature=8 5 7 0
split_gain=2.77804 2.95041 2.89703 2.37187
threshold=5.7547141743687886 6.8684836128327369 2977.0000000000005 14.186479920804915
decision_type=2 2 2 2
left_child=-1 3 -3 -2
right_child=1 2 -4 -5
leaf_value=0.085416003556578815 0.0011939764751904881 0.079835084051683519 -0.015924324187253647 -0.037813219162721345
leaf_weight=3.4847956746816626 38.470231678336859 7.2229127716273052 5.5501929223537445 26.076410396024585
leaf_count=25 192 37 30 141
internal_value=0 -0.058118 0.380439 -0.145286
internal_weight=0 77.3197 12.7731 64.5466
internal_count=425 400 67 333
shrinkage=0.1


Tree=71
num_leaves=5
num_cat=0
split_feature=4 8 7 3
split_gain=2.45239 1.92138 2.6581 3.49096
threshold=7.7408798564351038 5.7547141743687886 1322.0000000000002 5.5000000000000009
decision_type=2 2 2 2
left_child=1 -1 -3 -4
right_child=-2 2 3 -5
leaf_value=0.068271892632975659 0.06841112383368636 -0.060072390922305513 0.027930937668056377 -0.020410398502658939
leaf_weight=3.3185016624629489 4.6957252249121657 9.0778235793113691 23.937476687133312 39.695157961919904
leaf_count=24 23 65 119 194
internal_value=0 -0.0602295 -0.0944895 -0.0218731
internal_weight=0 76.029 72.7105 63.6326
internal_count=425 402 378 313
shrinkage=0.1


Tree=72
num_leaves=5
num_cat=0
split_feature=2 8 7 3
split_gain=3.21889 3.75029 6.23344 5.54025
threshold=0.31625002457668461 8.200077728050017 2682.0000000000005 13.500000000000002
decision_type=2 2 2 2
left_child=-1 -2 -3 -4
right_child=1 2 3 -5
leaf_value=-0.071102153773067805 0.043750733352998145 -0.042684650946978014 0.063150683387830281 -0.022159485064182895
leaf_weight=5.3086180835962287 22.49387482739985 24.206868443638086 17.078518338501457 13.677197448909281
leaf_count=27 125 123 80 70
internal_value=0 0.0934718 -0.0469071 0.251366
internal_weight=0 77.4565 54.9626 30.7557
internal_count=425 398 273 150
shrinkage=0.1


end of trees

feature importances:
description_len=88
target_amount=37
category=35
tfidf-sum=29
images=28
twitter_followers=27
period=27
twitter_friends=11
method=10

parameters:
[boosting: gbdt]
[objective: binary]
[metric: binary_logloss]
[tree_learner: serial]
[device_type: cpu]
[data: ]
[valid: ]
[num_iterations: 100]
[learning_rate: 0.1]
[num_leaves: 5]
[num_threads: -1]
[max_depth: -1]
[min_data_in_leaf: 20]
[min_sum_hessian_in_leaf: 0.001]
[bagging_fraction: 0.601519]
[pos_bagging_fraction: 1]
[neg_bagging_fraction: 1]
[bagging_freq: 2]
[bagging_seed: 3]
[feature_fraction: 1]
[feature_fraction_bynode: 1]
[feature_fraction_seed: 2]
[early_stopping_round: 0]
[first_metric_only: 0]
[max_delta_step: 0]
[lambda_l1: 0.0238828]
[lambda_l2: 0.00262187]
[min_gain_to_split: 0]
[drop_rate: 0.1]
[max_drop: 50]
[skip_drop: 0.5]
[xgboost_dart_mode: 0]
[uniform_drop: 0]
[drop_seed: 4]
[top_rate: 0.2]
[other_rate: 0.1]
[min_data_per_group: 100]
[max_cat_threshold: 32]
[cat_l2: 10]
[cat_smooth: 10]
[max_cat_to_onehot: 4]
[top_k: 20]
[monotone_constraints: ]
[feature_contri: ]
[forcedsplits_filename: ]
[forcedbins_filename: ]
[refit_decay_rate: 0.9]
[cegb_tradeoff: 1]
[cegb_penalty_split: 0]
[cegb_penalty_feature_lazy: ]
[cegb_penalty_feature_coupled: ]
[verbosity: -1]
[max_bin: 255]
[max_bin_by_feature: ]
[min_data_in_bin: 3]
[bin_construct_sample_cnt: 200000]
[histogram_pool_size: -1]
[data_random_seed: 1]
[output_model: LightGBM_model.txt]
[snapshot_freq: -1]
[input_model: ]
[output_result: LightGBM_predict_result.txt]
[initscore_filename: ]
[valid_data_initscores: ]
[pre_partition: 0]
[enable_bundle: 1]
[max_conflict_rate: 0]
[is_enable_sparse: 1]
[sparse_threshold: 0.8]
[use_missing: 1]
[zero_as_missing: 0]
[two_round: 0]
[save_binary: 0]
[header: 0]
[label_column: ]
[weight_column: ]
[group_column: ]
[ignore_column: ]
[categorical_feature: ]
[predict_raw_score: 0]
[predict_leaf_index: 0]
[predict_contrib: 0]
[num_iteration_predict: -1]
[pred_early_stop: 0]
[pred_early_stop_freq: 10]
[pred_early_stop_margin: 10]
[convert_model_language: ]
[convert_model: gbdt_prediction.cpp]
[num_class: 1]
[is_unbalance: 0]
[scale_pos_weight: 1]
[sigmoid: 1]
[boost_from_average: 1]
[reg_sqrt: 0]
[alpha: 0.9]
[fair_c: 1]
[poisson_max_delta_step: 0.7]
[tweedie_variance_power: 1.5]
[max_position: 20]
[lambdamart_norm: 1]
[label_gain: ]
[metric_freq: 1]
[is_provide_training_metric: 0]
[eval_at: ]
[multi_error_top_k: 1]
[num_machines: 1]
[local_listen_port: 12400]
[time_out: 120]
[machine_list_filename: ]
[machines: ]
[gpu_platform_id: -1]
[gpu_device_id: -1]
[gpu_use_dp: 0]

end of parameters

pandas_categorical:[]
