tree
version=v3
num_class=1
num_tree_per_iteration=1
label_index=0
max_feature_idx=7
objective=binary sigmoid:1
feature_names=target_amount method category images twitter_friends twitter_followers period tfidf-sum
feature_infos=[9.2104403669765169:18.420680753952364] [0.46774193548387094:0.99999999962573949] [0.13024448834918334:0.99877956118089073] [0:110] [-inf:9.6296426368723687] [-inf:12.778401563790201] [2:46] [2.6664862905580722:18.656687018536331]
tree_sizes=531 533 536 533 533 537 533 536 534 532 534 533 537 536 536 536 537 531 535 537 537 538 534 537 532 534 534 533 537 533 538 536 533 535 538 536 540 537 535 533 531 532 533 536 532 538 534 536 536 532 541 538 536 535 536 536 532 537 533 532 536 537 533 543 533 533 533 535 536 540 533 537 536 535 538 534 533 539 537 539 540 536 543 532 537 536 537 538 538 534 535 536 538 544 540 538 535 536 538 537 536 539 539 540 539

Tree=0
num_leaves=4
num_cat=0
split_feature=5 7 4
split_gain=14.7222 11.3403 2.9218
threshold=4.9697891863402415 9.6768425823359632 8.047466477474261
decision_type=2 2 2
left_child=1 -1 -2
right_child=2 -3 -4
leaf_value=-0.056325038678507043 0.047943951045834682 0.0059826749326484571 -0.02695301010740464
leaf_weight=66.247836053371429 39.498709797859192 52.248293340206146 5.9998040199279776
leaf_count=265 158 209 24
internal_value=0 -0.174231 0.494961
internal_weight=0 118.496 45.4985
internal_count=656 474 182
shrinkage=1


Tree=1
num_leaves=4
num_cat=0
split_feature=0 0 6
split_gain=26.6629 10.0037 10.6093
threshold=14.114929550266593 12.832456808345684 18.500000000000004
decision_type=2 2 2
left_child=1 -1 -3
right_child=-2 2 -4
leaf_value=0.079967587673337975 -0.046145550130882632 -0.081185749077929983 0.030245213408512685
leaf_weight=32.983589246869087 69.219189509749413 10.244772374629973 51.475687637925148
leaf_count=132 277 41 206
internal_value=0 0.355083 0.117492
internal_weight=0 94.704 61.7205
internal_count=656 379 247
shrinkage=0.1


Tree=2
num_leaves=4
num_cat=0
split_feature=3 5 2
split_gain=29.9186 13.0463 6.14768
threshold=9.5000000000000018 4.3032426494475002 0.4910841654727508
decision_type=2 2 2
left_child=1 2 -1
right_child=-2 -3 -4
leaf_value=-0.071047911241710712 0.058891249018017559 0.025637639203922192 -0.0091861392774664607
leaf_weight=53.434698864817619 57.686506807804108 29.71721775829792 22.970169022679329
leaf_count=214 231 119 92
internal_value=0 -0.305832 -0.524499
internal_weight=0 106.122 76.4049
internal_count=656 425 306
shrinkage=0.1


Tree=3
num_leaves=4
num_cat=0
split_feature=7 4 6
split_gain=10.3815 8.71896 7.69373
threshold=9.3315101985609719 6.577860390529163 39.500000000000007
decision_type=2 2 2
left_child=1 -1 -2
right_child=2 -3 -4
leaf_value=-0.036566131432729417 0.033872082638523607 0.072169336974891071 -0.079444940839414335
leaf_weight=70.764895260334015 78.096872180700302 8.2321905195713025 6.4895388036966315
leaf_count=284 313 33 26
internal_value=0 -0.252349 0.251783
internal_weight=0 78.9971 84.5864
internal_count=656 317 339
shrinkage=0.1


Tree=4
num_leaves=4
num_cat=0
split_feature=3 0 0
split_gain=23.3529 13.7647 11.7615
threshold=9.5000000000000018 12.832456808345684 14.114929550266593
decision_type=2 2 2
left_child=1 -1 -2
right_child=2 -3 -4
leaf_value=0.052676028823235813 0.089521941093105989 -0.04342853020062646 -0.0024593627455274133
leaf_weight=17.946531921625137 34.088677302002907 87.883695855736732 23.474811479449272
leaf_count=72 137 353 94
internal_value=0 -0.271313 0.520113
internal_weight=0 105.83 57.5635
internal_count=656 425 231
shrinkage=0.1


Tree=5
num_leaves=4
num_cat=0
split_feature=5 2 4
split_gain=11.1268 7.04882 6.10355
threshold=4.9697891863402415 0.47213622362640723 0.89587973461402759
decision_type=2 2 2
left_child=1 -1 -3
right_child=-2 2 -4
leaf_value=-0.035330570091684478 0.043716076154922505 0.030516004482046357 -0.062960626749028817
leaf_weight=70.487958788871765 43.994159117341042 40.028440341353416 8.4617861509323102
leaf_count=284 177 161 34
internal_value=0 -0.151425 0.142039
internal_weight=0 118.978 48.4902
internal_count=656 479 195
shrinkage=0.1


Tree=6
num_leaves=4
num_cat=0
split_feature=1 7 6
split_gain=18.9616 7.78237 5.67935
threshold=0.74521353866213602 9.0826400065155912 18.500000000000004
decision_type=2 2 2
left_child=1 -1 -3
right_child=-2 2 -4
leaf_value=-0.030181066596030728 0.18899005936799718 -0.045388611155638851 0.025416219583546801
leaf_weight=70.594780430197716 5.176710531115531 13.390792191028593 73.558360546827316
leaf_count=285 21 54 296
internal_value=0 -0.055149 0.145118
internal_weight=0 157.544 86.9492
internal_count=656 635 350
shrinkage=0.1


Tree=7
num_leaves=4
num_cat=0
split_feature=0 3 3
split_gain=19.3285 17.8495 9.85135
threshold=14.114929550266593 7.5000000000000009 1.5000000000000002
decision_type=2 2 2
left_child=1 -1 -2
right_child=2 -3 -4
leaf_value=-0.0080422466342976954 -0.11971113051496259 0.080012711417135313 -0.021760595982964228
leaf_weight=53.076356217265129 12.564544096589087 40.653056979179382 56.174190983176231
leaf_count=214 51 165 226
internal_value=0 0.301496 -0.396647
internal_weight=0 93.7294 68.7387
internal_count=656 379 277
shrinkage=0.1


Tree=8
num_leaves=4
num_cat=0
split_feature=5 7 4
split_gain=8.78615 4.21137 3.30497
threshold=4.9697891863402415 13.979123466685694 3.6755791132153472
decision_type=2 2 2
left_child=1 2 -1
right_child=-2 -3 -4
leaf_value=-0.013717894213315372 0.038885754281423081 0.07017534940436089 -0.088843976346987097
leaf_weight=106.32520531117916 43.668035313487053 5.7102123498916617 6.1970930248498908
leaf_count=431 177 23 25
internal_value=0 -0.136038 -0.178554
internal_weight=0 118.233 112.522
internal_count=656 479 456
shrinkage=0.1


Tree=9
num_leaves=4
num_cat=0
split_feature=0 6 0
split_gain=16.1237 6.74065 6.63044
threshold=14.114929550266593 18.500000000000004 13.183474078720424
decision_type=2 2 2
left_child=1 -1 -3
right_child=-2 2 -4
leaf_value=-0.017988653687540112 -0.036365880128064243 0.079939883764281849 0.017164602908879761
leaf_weight=24.100150808691978 68.42297537624836 28.926590994000435 40.219193652272224
leaf_count=98 277 118 163
internal_value=0 0.27553 0.434261
internal_weight=0 93.2459 69.1458
internal_count=656 379 281
shrinkage=0.1


Tree=10
num_leaves=4
num_cat=0
split_feature=3 2 5
split_gain=16.5782 6.84818 7.38553
threshold=6.5000000000000009 0.4910841654727508 4.3032426494475002
decision_type=2 2 2
left_child=1 2 -1
right_child=-2 -3 -4
leaf_value=-0.07063629768394751 0.03476460637669556 0.0080168354644954889 0.018576861671766334
leaf_weight=42.082545921206474 76.277142986655235 30.983349561691284 11.904499664902685
leaf_count=172 311 125 48
internal_value=0 -0.294575 -0.509642
internal_weight=0 84.9704 53.987
internal_count=656 345 220
shrinkage=0.1


Tree=11
num_leaves=4
num_cat=0
split_feature=7 4 4
split_gain=5.83843 3.17694 3.71623
threshold=13.979123466685694 5.9674074757462678 8.000181682007101
decision_type=2 2 2
left_child=1 -1 -3
right_child=-2 2 -4
leaf_value=-0.010215721810688746 0.080924434117449817 0.047545913129926336 -0.047422908409041037
leaf_weight=126.43640704452991 8.6124501377344114 20.447873398661617 5.1602324098348609
leaf_count=516 35 84 21
internal_value=0 -0.0371036 0.28409
internal_weight=0 152.045 25.6081
internal_count=656 621 105
shrinkage=0.1


Tree=12
num_leaves=4
num_cat=0
split_feature=1 3 0
split_gain=14.6575 15.3313 9.68481
threshold=0.74521353866213602 3.5000000000000004 14.237371233397699
decision_type=2 2 2
left_child=1 -1 -3
right_child=-2 2 -4
leaf_value=-0.053563566510318954 0.17056343591748893 0.038477438935859844 -0.022777332616393479
leaf_weight=45.355270072817802 4.9267884492874137 68.861308455467224 41.287064522504807
leaf_count=186 21 282 167
internal_value=0 -0.0463135 0.155172
internal_weight=0 155.504 110.148
internal_count=656 635 449
shrinkage=0.1


Tree=13
num_leaves=4
num_cat=0
split_feature=2 2 2
split_gain=4.98966 4.96823 6.29424
threshold=0.47213622362640723 0.58333252427135018 0.68331846023096865
decision_type=2 2 2
left_child=-1 -2 -3
right_child=1 2 -4
leaf_value=-0.015225691938890418 0.038940158827639182 -0.044140293367860822 0.080344165465679837
leaf_weight=88.239460527896881 47.698227345943451 18.620451465249065 5.1949395984411231
leaf_count=363 195 76 22
internal_value=0 0.203157 -0.16986
internal_weight=0 71.5136 23.8154
internal_count=656 293 98
shrinkage=0.1


Tree=14
num_leaves=4
num_cat=0
split_feature=1 7 1
split_gain=12.1204 4.13445 2.95424
threshold=0.74521353866213602 14.673569239464753 0.47539291436863779
decision_type=2 2 2
left_child=1 2 -1
right_child=-2 -3 -4
leaf_value=0.0042111618411751128 0.15897523029267596 0.077987452720907749 -0.024471669681918596
leaf_weight=88.48471787571907 4.6912586092948905 5.890933245420455 60.434191823005676
leaf_count=363 21 24 248
internal_value=0 -0.0417857 -0.0742889
internal_weight=0 154.81 148.919
internal_count=656 635 611
shrinkage=0.1


Tree=15
num_leaves=4
num_cat=0
split_feature=0 3 2
split_gain=12.2595 7.36931 3.55501
threshold=13.183474078720424 3.5000000000000004 0.60830055608300559
decision_type=2 2 2
left_child=-1 -2 -3
right_child=1 2 -4
leaf_value=0.042768412744477076 -0.058221081437264947 0.0042649016812094575 -0.07230536902562297
leaf_weight=46.122112199664116 32.942223832011223 73.593782499432564 6.6078840941190711
leaf_count=192 137 300 27
internal_value=0 -0.184 -0.0204379
internal_weight=0 113.144 80.2017
internal_count=656 464 327
shrinkage=0.1


Tree=16
num_leaves=4
num_cat=0
split_feature=7 5 4
split_gain=4.17645 4.59448 4.56477
threshold=13.979123466685694 5.6920116703646846 3.9701138825728512
decision_type=2 2 2
left_child=1 2 -1
right_child=-2 -3 -4
leaf_value=-0.0084181472094600179 0.065180384203418526 0.026539369439546635 -0.080776980205227902
leaf_weight=104.18159909546375 9.0929466336965543 35.95191378891468 9.5146142542362195
leaf_count=430 38 149 39
internal_value=0 -0.0462042 -0.144735
internal_weight=0 149.648 113.696
internal_count=656 618 469
shrinkage=0.1


Tree=17
num_leaves=4
num_cat=0
split_feature=0 6 1
split_gain=10.1772 7.93095 4.04092
threshold=13.183474078720424 17.500000000000004 0.47140762463343117
decision_type=2 2 2
left_child=1 -1 -3
right_child=-2 2 -4
leaf_value=-0.016496674095260618 -0.016727057992232321 0.12205835867432634 0.04373257206525541
leaf_weight=16.427477449178696 112.62137527763844 9.9568618983030337 19.460204482078552
leaf_count=68 464 42 82
internal_value=0 0.39162 0.702437
internal_weight=0 45.8445 29.4171
internal_count=656 192 124
shrinkage=0.1


Tree=18
num_leaves=4
num_cat=0
split_feature=3 5 3
split_gain=8.7713 4.84637 3.73045
threshold=9.5000000000000018 6.7072178990787021 3.5000000000000004
decision_type=2 2 2
left_child=1 2 -1
right_child=-2 -3 -4
leaf_value=-0.052417768807675937 0.031495326364469826 0.029924730489621826 -0.0099245893739005053
leaf_weight=35.5936468988657 55.568797782063484 17.588016137480736 49.240054488182068
leaf_count=150 233 72 201
internal_value=0 -0.178489 -0.277534
internal_weight=0 102.422 84.8337
internal_count=656 423 351
shrinkage=0.1


Tree=19
num_leaves=4
num_cat=0
split_feature=6 7 6
split_gain=3.40258 5.4914 4.09652
threshold=39.500000000000007 14.220332624904524 18.500000000000004
decision_type=2 2 2
left_child=1 2 -1
right_child=-2 -3 -4
leaf_value=-0.03393430943354666 -0.053888482527084926 0.087054503585053108 0.0080360538156285313
leaf_weight=29.547329649329185 11.075794517993925 7.4810514599084845 109.21541018784046
leaf_count=123 46 32 455
internal_value=0 0.0359846 -0.00900871
internal_weight=0 146.244 138.763
internal_count=656 610 578
shrinkage=0.1


Tree=20
num_leaves=4
num_cat=0
split_feature=1 0 3
split_gain=10.1559 8.92614 6.21713
threshold=0.74521353866213602 14.114929550266593 6.5000000000000009
decision_type=2 2 2
left_child=1 2 -1
right_child=-2 -3 -4
leaf_value=-0.0088471144964830817 0.15277792770644938 -0.031896116355103539 0.044955968214785591
leaf_weight=45.081365048885345 4.2182066291570655 66.955515310168266 41.01878847181797
leaf_count=185 20 278 173
internal_value=0 -0.0451092 0.167851
internal_weight=0 153.056 86.1002
internal_count=656 636 358
shrinkage=0.1


Tree=21
num_leaves=4
num_cat=0
split_feature=2 2 5
split_gain=5.9519 3.77151 2.84979
threshold=0.34230769230842573 0.25462966546447091 5.1615756900220537
decision_type=2 2 2
left_child=1 -1 -2
right_child=2 -3 -4
leaf_value=-0.0077734526934821711 -0.0035211412292115093 -0.12970490663485079 0.028028602230958106
leaf_weight=4.6694141924381238 107.19446736574173 5.5543345212936401 39.063214614987373
leaf_count=20 449 23 164
internal_value=0 -0.740161 0.0490532
internal_weight=0 10.2237 146.258
internal_count=656 43 613
shrinkage=0.1


Tree=22
num_leaves=4
num_cat=0
split_feature=1 7 6
split_gain=8.69862 2.705 4.63808
threshold=0.74521353866213602 9.0826400065155912 39.500000000000007
decision_type=2 2 2
left_child=1 -1 -3
right_child=-2 2 -4
leaf_value=-0.018972884295581683 0.1457555692997444 0.014601862132201937 -0.073323190013767719
leaf_weight=67.528076484799385 3.9777323603630057 78.216755837202072 6.4978748857974997
leaf_count=283 20 326 27
internal_value=0 -0.0404313 0.0785774
internal_weight=0 152.243 84.7146
internal_count=656 636 353
shrinkage=0.1


Tree=23
num_leaves=4
num_cat=0
split_feature=0 2 3
split_gain=7.75155 5.58472 4.79231
threshold=14.114929550266593 0.50000000000005074 6.5000000000000009
decision_type=2 2 2
left_child=2 -2 -1
right_child=1 -3 -4
leaf_value=-0.0029243851053232855 -0.051663172150726272 0.0061127836509913625 0.043750979412785988
leaf_weight=46.12571394443512 37.191755622625351 30.410260573029518 42.051698669791222
leaf_count=191 158 125 182
internal_value=0 -0.256731 0.19335
internal_weight=0 67.602 88.1774
internal_count=656 283 373
shrinkage=0.1


Tree=24
num_leaves=4
num_cat=0
split_feature=7 4 4
split_gain=2.08008 1.91276 3.11443
threshold=13.979123466685694 6.6167287124549583 8.000181682007101
decision_type=2 2 2
left_child=1 -1 -3
right_child=-2 2 -4
leaf_value=-0.0070293357045541618 0.048328731010595975 0.059269409384240662 -0.032778124845480476
leaf_weight=130.04068148136139 8.3636264950036985 11.167647987604143 5.4793423116207114
leaf_count=549 36 48 23
internal_value=0 -0.0294368 0.28972
internal_weight=0 146.688 16.647
internal_count=656 620 71
shrinkage=0.1


Tree=25
num_leaves=4
num_cat=0
split_feature=0 6 0
split_gain=7.83809 5.21018 5.17833
threshold=12.832456808345684 27.500000000000004 14.114929550266593
decision_type=2 2 2
left_child=-1 -2 -3
right_child=1 2 -4
leaf_value=0.04605493904860028 -0.040701023360871398 0.032061561678554 -0.018138177010113221
leaf_weight=29.325041592121124 40.842020288109779 35.249543353915215 49.272034272551537
leaf_count=127 173 149 207
internal_value=0 -0.113738 0.0279752
internal_weight=0 125.364 84.5216
internal_count=656 529 356
shrinkage=0.1


Tree=26
num_leaves=4
num_cat=0
split_feature=3 2 2
split_gain=4.4637 4.17554 3.65977
threshold=3.5000000000000004 0.60830055608300559 0.4910841654727508
decision_type=2 2 2
left_child=2 -2 -1
right_child=1 -3 -4
leaf_value=-0.049094864480747541 0.016149515011854777 -0.056782216239698473 0.0098742432900295329
leaf_weight=28.065116375684738 100.7771637737751 8.513337165117262 16.839458882808685
leaf_count=124 424 38 70
internal_value=0 0.104684 -0.269811
internal_weight=0 109.291 44.9046
internal_count=656 462 194
shrinkage=0.1


Tree=27
num_leaves=4
num_cat=0
split_feature=6 7 6
split_gain=2.04503 3.43575 3.03365
threshold=39.500000000000007 14.673569239464753 27.500000000000004
decision_type=2 2 2
left_child=1 2 -1
right_child=-2 -3 -4
leaf_value=-0.017875666985885403 -0.042544791732306311 0.0823789153898834 0.012228445011065486
leaf_weight=57.204154491424561 10.711308240890501 5.2215358018875113 80.69573600590229
leaf_count=244 46 23 343
internal_value=0 0.0275546 -0.00259457
internal_weight=0 143.121 137.9
internal_count=656 610 587
shrinkage=0.1


Tree=28
num_leaves=4
num_cat=0
split_feature=1 0 3
split_gain=7.4045 5.81944 6.4435
threshold=0.74521353866213602 12.832456808345684 1.0000000180025095e-35
decision_type=2 2 2
left_child=1 -1 -3
right_child=-2 2 -4
leaf_value=0.03771927997235977 0.1407280077526695 -0.078070859000362314 -0.0050186239059298284
leaf_weight=27.586967349052429 3.6319942995905867 13.580460518598555 108.85294026136398
leaf_count=118 20 61 457
internal_value=0 -0.0377262 -0.131217
internal_weight=0 150.02 122.433
internal_count=656 636 518
shrinkage=0.1


Tree=29
num_leaves=4
num_cat=0
split_feature=2 5 5
split_gain=2.31081 2.48015 4.11539
threshold=0.34230769230842573 5.1615756900220537 8.4965762142342083
decision_type=2 2 2
left_child=-1 -2 -3
right_child=1 2 -4
leaf_value=-0.049869029098994586 -0.0051018937596036713 0.043397283931759054 -0.033464413481490783
leaf_weight=8.865834102034567 106.2038019746542 28.650787927210331 9.2039538025856
leaf_count=39 454 124 39
internal_value=0 0.0273167 0.247092
internal_weight=0 144.059 37.8547
internal_count=656 617 163
shrinkage=0.1


Tree=30
num_leaves=4
num_cat=0
split_feature=1 7 1
split_gain=6.35187 1.96249 4.84704
threshold=0.74521353866213602 9.3315101985609719 0.47539291436863779
decision_type=2 2 2
left_child=1 -1 -3
right_child=-2 2 -4
leaf_value=-0.017028544009132642 0.13458972403460429 0.027481217631064699 -0.022709025323211576
leaf_weight=70.918122515082359 3.333977833390235 44.790979728102684 33.732301697134972
leaf_count=303 20 190 143
internal_value=0 -0.0497017 0.0592032
internal_weight=0 149.441 78.5233
internal_count=656 636 333
shrinkage=0.1


Tree=31
num_leaves=4
num_cat=0
split_feature=0 3 3
split_gain=5.91084 4.82209 3.4531
threshold=14.556313305698998 7.5000000000000009 22.500000000000004
decision_type=2 2 2
left_child=1 -1 -3
right_child=-2 2 -4
leaf_value=-0.0080969387813758474 -0.035731065350920015 0.050663861227881704 -0.007665863159493704
leaf_weight=65.260134562849998 38.275069028139114 34.409776076674461 14.39494029432535
leaf_count=278 162 150 66
internal_value=0 0.0968375 0.334595
internal_weight=0 114.065 48.8047
internal_count=656 494 216
shrinkage=0.1


Tree=32
num_leaves=4
num_cat=0
split_feature=7 5 5
split_gain=1.56414 2.41767 3.56618
threshold=9.3315101985609719 7.3267931554253698 3.0677824455408698
decision_type=2 2 2
left_child=1 2 -1
right_child=-2 -3 -4
leaf_value=-0.0055850460455251182 0.008067396589534509 0.041743486755132571 -0.061368639801188764
leaf_weight=49.5488670617342 79.958182021975517 7.4329178854823104 14.908257916569708
leaf_count=215 345 32 64
internal_value=0 -0.122598 -0.184872
internal_weight=0 71.89 64.4571
internal_count=656 311 279
shrinkage=0.1


Tree=33
num_leaves=4
num_cat=0
split_feature=1 0 6
split_gain=5.50673 4.60683 2.4869
threshold=0.74521353866213602 14.556313305698998 18.500000000000004
decision_type=2 2 2
left_child=1 2 -1
right_child=-2 -3 -4
leaf_value=-0.022718640421279787 0.13086906588101457 -0.034377792901776866 0.013879702565742775
leaf_weight=23.573513209819794 3.0835341885685912 37.639676854014397 87.41858446598053
leaf_count=100 20 160 376
internal_value=0 -0.041457 0.0610661
internal_weight=0 148.632 110.992
internal_count=656 636 476
shrinkage=0.1


Tree=34
num_leaves=4
num_cat=0
split_feature=3 2 3
split_gain=4.17359 2.59178 5.89597
threshold=8.5000000000000018 0.4910841654727508 1.5000000000000002
decision_type=2 2 2
left_child=1 2 -1
right_child=-2 -3 -4
leaf_value=-0.088072847500320364 0.019747813711224423 0.0067395136155228175 -0.010569560777550932
leaf_weight=12.574315592646597 58.194548092782497 35.740330085158348 44.739018008112907
leaf_count=60 256 150 190
internal_value=0 -0.143944 -0.275735
internal_weight=0 93.0537 57.3133
internal_count=656 400 250
shrinkage=0.1


Tree=35
num_leaves=4
num_cat=0
split_feature=4 4 6
split_gain=2.75094 4.40348 3.34856
threshold=6.6167287124549583 7.8722593344721163 41.500000000000007
decision_type=2 2 2
left_child=2 -2 -1
right_child=1 -3 -4
leaf_value=-0.0045878856581771828 0.076518598578674879 -0.023590181861174911 -0.091883670296911885
leaf_weight=128.11565911769867 10.366427831351759 7.6264618784189215 4.5501788556575766
leaf_count=557 46 33 20
internal_value=0 0.340865 -0.0758196
internal_weight=0 17.9929 132.666
internal_count=656 79 577
shrinkage=0.1


Tree=36
num_leaves=4
num_cat=0
split_feature=0 3 1
split_gain=5.47561 4.21848 4.35958
threshold=13.768356267678653 1.0000000180025095e-35 0.48453608247422686
decision_type=2 2 2
left_child=-1 -2 -3
right_child=1 2 -4
leaf_value=0.023328645649927288 -0.07627094425581385 0.0022834464944797334 -0.053041550148841536
leaf_weight=53.512996099889278 10.533079862594603 68.39072747528553 17.989472329616547
leaf_count=236 51 290 79
internal_value=0 -0.16524 -0.0923849
internal_weight=0 96.9133 86.3802
internal_count=656 420 369
shrinkage=0.1


Tree=37
num_leaves=4
num_cat=0
split_feature=5 4 2
split_gain=2.66922 3.48235 2.1284
threshold=5.1615756900220537 3.9701138825728512 0.47213622362640723
decision_type=2 2 2
left_child=1 2 -1
right_child=-2 -3 -4
leaf_value=-0.017874241849531979 0.019804204210870993 -0.080597852998700578 0.01131629842123533
leaf_weight=59.998022273182869 40.502247713506222 6.6107535362243643 42.795503199100494
leaf_count=265 178 28 185
internal_value=0 -0.102459 -0.0572149
internal_weight=0 109.404 102.794
internal_count=656 478 450
shrinkage=0.1


Tree=38
num_leaves=4
num_cat=0
split_feature=6 7 7
split_gain=2.12001 2.82014 2.81642
threshold=39.500000000000007 14.220332624904524 13.201294574229101
decision_type=2 2 2
left_child=1 2 -1
right_child=-2 -3 -4
leaf_value=0.0014213295933222505 -0.046746073657511933 0.065360628533634418 -0.065467376398750152
leaf_weight=126.56970030814409 9.855199456214903 6.538711115717887 6.6244190335273734
leaf_count=553 44 31 28
internal_value=0 0.0124229 -0.0190538
internal_weight=0 139.733 133.194
internal_count=656 612 581
shrinkage=0.1


Tree=39
num_leaves=4
num_cat=0
split_feature=0 3 0
split_gain=4.58033 3.52345 5.3036
threshold=14.114929550266593 6.5000000000000009 13.768356267678653
decision_type=2 2 2
left_child=1 2 -1
right_child=-2 -3 -4
leaf_value=0.021286961041254 -0.022243860787691836 0.034660632494403383 -0.048537823476753221
leaf_weight=28.048555314540863 62.959429726004601 40.616024263203144 17.769644364714622
leaf_count=119 276 185 76
internal_value=0 0.132164 -0.0579314
internal_weight=0 86.4342 45.8182
internal_count=656 380 195
shrinkage=0.1


Tree=40
num_leaves=4
num_cat=0
split_feature=5 7 4
split_gain=1.72708 1.53672 2.72415
threshold=7.3720042390063893 9.6517872147974106 7.4713313416514282
decision_type=2 2 2
left_child=-1 -2 -3
right_child=1 2 -4
leaf_value=0.0006882762429442457 0.067241258819684666 -0.038768649504857255 0.055903695149596339
leaf_weight=128.51567617058754 7.7230203896760967 5.8746186718344671 6.2976129353046417
leaf_count=568 35 26 27
internal_value=0 0.323502 0.102125
internal_weight=0 19.8953 12.1722
internal_count=656 88 53
shrinkage=0.1


Tree=41
num_leaves=4
num_cat=0
split_feature=0 0 6
split_gain=3.78207 2.10878 2.40827
threshold=12.832456808345684 12.271591469704775 12.500000000000002
decision_type=2 2 2
left_child=1 2 -1
right_child=-2 -3 -4
leaf_value=0.078887570939871351 -0.0033218573396927272 0.07242052039208062 -0.0055300271839336494
leaf_weight=4.5457774475216892 119.93987561762333 10.659529484808447 13.170714870095251
leaf_count=21 527 49 59
internal_value=0 0.372758 0.161302
internal_weight=0 28.376 17.7165
internal_count=656 129 80
shrinkage=0.1


Tree=42
num_leaves=4
num_cat=0
split_feature=3 5 2
split_gain=3.04853 2.54038 3.49753
threshold=10.500000000000002 4.4004336212352406 0.549774774620718
decision_type=2 2 2
left_child=1 -1 -3
right_child=-2 2 -4
leaf_value=-0.015827250880408403 0.024935562690252412 0.046011698569737608 -0.026540180755511285
leaf_weight=72.125802114605904 47.363276906311512 18.108917802572254 10.495561629533766
leaf_count=319 214 78 45
internal_value=0 -0.058263 0.193909
internal_weight=0 100.73 28.6045
internal_count=656 442 123
shrinkage=0.1


Tree=43
num_leaves=4
num_cat=0
split_feature=6 6 7
split_gain=1.32356 1.40938 1.51277
threshold=39.500000000000007 38.500000000000007 9.3315101985609719
decision_type=2 2 2
left_child=1 2 -1
right_child=-2 -3 -4
leaf_value=-0.0068311553261415445 -0.029998550368060473 0.057048587067431579 0.014628375351417762
leaf_weight=63.562043279409409 10.84853821992874 5.2597405537962905 67.985960654914379
leaf_count=283 49 24 300
internal_value=0 0.0628899 0.0425945
internal_weight=0 136.808 131.548
internal_count=656 607 583
shrinkage=0.1


Tree=44
num_leaves=4
num_cat=0
split_feature=0 3 0
split_gain=3.5383 3.0724 2.34069
threshold=14.556313305698998 20.500000000000004 14.961778254716316
decision_type=2 2 2
left_child=-1 2 -2
right_child=1 -3 -4
leaf_value=0.012313705078972748 -0.0095958428766424811 0.045345478442284697 -0.063808173500568013
leaf_weight=109.94514338672161 16.869661390781406 5.5613816529512397 15.086982101202009
leaf_count=491 74 23 68
internal_value=0 -0.23252 -0.351899
internal_weight=0 37.518 31.9566
internal_count=656 165 142
shrinkage=0.1


Tree=45
num_leaves=4
num_cat=0
split_feature=2 2 5
split_gain=4.08233 3.34887 2.08456
threshold=0.34230769230842573 0.25462966546447091 5.1615756900220537
decision_type=2 2 2
left_child=1 -1 -2
right_child=2 -3 -4
leaf_value=0.0031220860611336381 0.00064901849292330863 -0.11262413528308418 0.028642449933318982
leaf_weight=4.7276718690991384 101.25171519815922 5.3041848838329315 36.080360993742943
leaf_count=22 448 24 162
internal_value=0 -0.580769 0.0800355
internal_weight=0 10.0319 137.332
internal_count=656 46 610
shrinkage=0.1


Tree=46
num_leaves=4
num_cat=0
split_feature=6 7 7
split_gain=2.07139 5.70688 5.33804
threshold=18.500000000000004 7.6518484554881105 10.775772288744948
decision_type=2 2 2
left_child=1 -1 -3
right_child=-2 2 -4
leaf_value=0.048734787749308658 0.0089506398655883578 -0.089239231445505565 0.017966449773094844
leaf_weight=8.2675513401627558 118.75225162506104 12.697137050330641 7.3234816789627066
leaf_count=38 530 56 32
internal_value=0 -0.211604 -0.500237
internal_weight=0 28.2882 20.0206
internal_count=656 126 88
shrinkage=0.1


Tree=47
num_leaves=4
num_cat=0
split_feature=2 0 2
split_gain=3.31566 3.42001 2.27058
threshold=0.38675213894945842 13.183474078720424 0.25462966546447091
decision_type=2 2 2
left_child=2 -2 -1
right_child=1 -3 -4
leaf_value=0.003690909205047832 0.032726934642527093 -0.0026915903905673183 -0.087243401330835829
leaf_weight=4.7177126631140691 37.785369746387005 97.894130572676659 6.5696205347776413
leaf_count=22 174 430 30
internal_value=0 0.0717211 -0.49236
internal_weight=0 135.68 11.2873
internal_count=656 604 52
shrinkage=0.1


Tree=48
num_leaves=4
num_cat=0
split_feature=7 5 4
split_gain=1.70202 1.42915 3.08936
threshold=5.5996601586801704 5.1615756900220537 3.9701138825728512
decision_type=2 2 2
left_child=-1 2 -2
right_child=1 -3 -4
leaf_value=-0.053318899642059561 0.0032554534564225401 0.021551824383407581 -0.065736098429075338
leaf_weight=5.255065292119979 97.445841625332832 36.916284546256065 6.9536401927471152
leaf_count=24 434 168 30
internal_value=0 0.0464024 -0.013398
internal_weight=0 141.316 104.399
internal_count=656 632 464
shrinkage=0.1


Tree=49
num_leaves=4
num_cat=0
split_feature=0 6 6
split_gain=2.46588 3.14831 3.56597
threshold=12.832456808345684 17.500000000000004 28.500000000000004
decision_type=2 2 2
left_child=1 -1 -3
right_child=-2 2 -4
leaf_value=-0.011210475650911482 -0.0040081930144746907 0.10765374298059201 0.014411405324529787
leaf_weight=11.498418979346754 118.35328856110573 7.5385497733950642 8.9963008090853673
leaf_count=51 525 36 44
internal_value=0 0.289763 0.569223
internal_weight=0 28.0333 16.5349
internal_count=656 131 80
shrinkage=0.1


Tree=50
num_leaves=4
num_cat=0
split_feature=3 2 3
split_gain=2.40314 2.01664 1.76201
threshold=39.000000000000007 0.34230769230842573 1.0000000180025095e-35
decision_type=2 2 2
left_child=1 -1 -3
right_child=-2 2 -4
leaf_value=-0.050276431572104874 0.073301163327937277 -0.036471655986474505 0.001985418992597542
leaf_weight=9.1884787529706937 4.034213498234748 13.229184031486509 119.83895785361528
leaf_count=43 20 64 529
internal_value=0 -0.0496654 -0.0183785
internal_weight=0 142.257 133.068
internal_count=656 636 593
shrinkage=0.1


Tree=51
num_leaves=4
num_cat=0
split_feature=4 4 4
split_gain=2.06407 1.38297 1.15722
threshold=8.000181682007101 7.439496995201174 2.9174053685313028
decision_type=2 2 2
left_child=1 2 -1
right_child=-2 -3 -4
leaf_value=0.0032553026994258591 -0.062242025973481357 0.049758465278205849 -0.018026754276776923
leaf_weight=100.80763620883226 5.5688083469867697 5.3377941399812689 34.223958373069763
leaf_count=451 24 26 155
internal_value=0 -0.00165186 -0.0213867
internal_weight=0 140.369 135.032
internal_count=656 632 606
shrinkage=0.1


Tree=52
num_leaves=4
num_cat=0
split_feature=1 0 3
split_gain=5.06676 3.38472 1.92225
threshold=0.74521353866213602 14.556313305698998 20.500000000000004
decision_type=2 2 2
left_child=1 -1 -3
right_child=-2 2 -4
leaf_value=0.004000376396493973 0.13155006497736124 -0.040933001132250964 0.025540885763038614
leaf_weight=107.42261653393507 2.7752418518066397 30.702643632888794 5.0682858228683463
leaf_count=478 20 137 21
internal_value=0 -0.0487153 -0.315145
internal_weight=0 143.194 35.7709
internal_count=656 636 158
shrinkage=0.1


Tree=53
num_leaves=4
num_cat=0
split_feature=4 2 5
split_gain=1.6476 1.73388 1.17547
threshold=8.000181682007101 0.34230769230842573 4.9697891863402415
decision_type=2 2 2
left_child=1 -1 -3
right_child=-2 2 -4
leaf_value=-0.04180632687201398 -0.05538674077544456 -0.0023226910227239586 0.019832812021871819
leaf_weight=9.2340037375688535 5.5701704397797576 99.098110929131508 31.57759040594101
leaf_count=44 24 442 146
internal_value=0 0.000718917 0.0303115
internal_weight=0 139.91 130.676
internal_count=656 632 588
shrinkage=0.1


Tree=54
num_leaves=4
num_cat=0
split_feature=1 6 7
split_gain=4.43754 1.47788 6.01414
threshold=0.74521353866213602 18.500000000000004 8.147333777114488
decision_type=2 2 2
left_child=1 2 -1
right_child=-2 -3 -4
leaf_value=0.036401272809938406 0.12823766437413683 0.00073634201792927077 -0.061148087400758777
leaf_weight=10.010027408599855 2.5757673420011988 115.54634279757738 17.145243838429451
leaf_count=45 20 516 75
internal_value=0 -0.0419715 -0.251893
internal_weight=0 142.702 27.1553
internal_count=656 636 120
shrinkage=0.1


Tree=55
num_leaves=4
num_cat=0
split_feature=2 2 3
split_gain=2.2345 4.21644 2.81767
threshold=0.58333252427135018 0.72498443100505827 9.5000000000000018
decision_type=2 2 2
left_child=2 -2 -1
right_child=1 -3 -4
leaf_value=-0.00536327275773716 -0.048082521385697602 0.070010935694461304 0.026867100371256832
leaf_weight=81.595132030546665 18.746745087206367 3.6047516949474803 40.631211902946234
leaf_count=366 83 20 187
internal_value=0 -0.290369 0.0535094
internal_weight=0 22.3515 122.226
internal_count=656 103 553
shrinkage=0.1


Tree=56
num_leaves=4
num_cat=0
split_feature=7 5 4
split_gain=1.69993 1.0612 1.8723
threshold=5.5996601586801704 7.3720042390063893 5.2006139683767332
decision_type=2 2 2
left_child=-1 2 -2
right_child=1 -3 -4
leaf_value=-0.060711537821068522 0.0029905867178431252 0.024404956403551024 -0.036444705975925307
leaf_weight=4.4641600176692 107.88273292407393 18.326898384839296 13.551770851016043
leaf_count=21 486 84 65
internal_value=0 0.0197486 -0.0141029
internal_weight=0 139.761 121.435
internal_count=656 635 551
shrinkage=0.1


Tree=57
num_leaves=4
num_cat=0
split_feature=1 0 6
split_gain=3.78995 1.96234 1.9382
threshold=0.74521353866213602 12.832456808345684 27.500000000000004
decision_type=2 2 2
left_child=1 -1 -3
right_child=-2 2 -4
leaf_value=0.022567593587187757 0.12535261904497508 -0.026240035835942845 0.0013599923730093478
leaf_weight=26.33678687363863 2.3734609596431246 37.838398173451424 77.673535972833633
leaf_count=122 20 170 344
internal_value=0 -0.0206479 -0.0768099
internal_weight=0 141.849 115.512
internal_count=656 636 514
shrinkage=0.1


Tree=58
num_leaves=4
num_cat=0
split_feature=2 2 3
split_gain=1.8296 3.42312 2.35492
threshold=0.58333252427135018 0.72498443100505827 1.5000000000000002
decision_type=2 2 2
left_child=2 -2 -1
right_child=1 -3 -4
leaf_value=-0.028703480007557115 -0.043360545055098294 0.064372722277724836 0.010626816872005711
leaf_weight=17.841536045074463 18.69492776691914 3.5017643943428984 103.75836218520999
leaf_count=90 83 20 463
internal_value=0 -0.263645 0.0485615
internal_weight=0 22.1967 121.6
internal_count=656 103 553
shrinkage=0.1


Tree=59
num_leaves=4
num_cat=0
split_feature=7 6 4
split_gain=1.3874 0.740203 2.87962
threshold=5.5996601586801704 37.500000000000007 2.602003343538398
decision_type=2 2 2
left_child=-1 -2 -3
right_child=1 2 -4
leaf_value=-0.055236923804107822 0.0049238193680106769 -0.038066043029727999 0.042564682296038069
leaf_weight=4.4024732038378707 117.34875164926052 15.585808079689743 6.18777061253786
leaf_count=21 536 72 27
internal_value=0 0.0178185 -0.151518
internal_weight=0 139.122 21.7736
internal_count=656 635 99
shrinkage=0.1


Tree=60
num_leaves=4
num_cat=0
split_feature=1 3 0
split_gain=3.18591 1.39407 2.20768
threshold=0.74521353866213602 10.500000000000002 14.961778254716316
decision_type=2 2 2
left_child=1 2 -1
right_child=-2 -3 -4
leaf_value=0.00041994318412165845 0.12265545545751817 0.016500129916705839 -0.047840956613540375
leaf_weight=86.590889237821102 2.217113457620143 44.53778912127018 10.643733516335486
leaf_count=384 20 202 50
internal_value=0 0.0184829 -0.0486291
internal_weight=0 141.772 97.2346
internal_count=656 636 434
shrinkage=0.1


Tree=61
num_leaves=4
num_cat=0
split_feature=2 2 2
split_gain=1.88508 1.57732 0.95317
threshold=0.38675213894945842 0.26599326599384771 0.72498443100505827
decision_type=2 2 2
left_child=1 -1 -2
right_child=2 -3 -4
leaf_value=-0.0019266108575058845 0.005114019546712467 -0.08194419719850797 0.058842369280744378
leaf_weight=5.3592200651764852 130.24133351445198 4.5592342764139175 3.3877847380936137
leaf_count=26 588 22 20
internal_value=0 -0.387084 0.0647615
internal_weight=0 9.91845 133.629
internal_count=656 48 608
shrinkage=0.1


Tree=62
num_leaves=4
num_cat=0
split_feature=1 6 6
split_gain=2.8203 1.81728 2.95241
threshold=0.74521353866213602 27.500000000000004 25.500000000000004
decision_type=2 2 2
left_child=1 2 -1
right_child=-2 -3 -4
leaf_value=-0.003974413929069164 0.12021185975906803 0.010351758788050183 -0.073204535569601603
leaf_weight=47.639147005975246 2.0245479419827452 86.648371368646622 7.0749226808547965
leaf_count=215 20 389 32
internal_value=0 0.01342 -0.129264
internal_weight=0 141.362 54.7141
internal_count=656 636 247
shrinkage=0.1


Tree=63
num_leaves=4
num_cat=0
split_feature=2 0 3
split_gain=1.52598 1.39909 2.38036
threshold=0.38675213894945842 12.832456808345684 1.0000000180025095e-35
decision_type=2 2 2
left_child=-1 -2 -3
right_child=1 2 -4
leaf_value=-0.035354250384254007 0.027550178828724892 -0.044218086590779998 0.0055890773960803226
leaf_weight=9.8019631057977659 23.715560246258974 10.624714106321333 99.037449810653925
leaf_count=48 117 54 437
internal_value=0 0.0552635 0.00763467
internal_weight=0 133.378 109.662
internal_count=656 608 491
shrinkage=0.1


Tree=64
num_leaves=4
num_cat=0
split_feature=7 7 7
split_gain=0.968014 2.98261 1.75496
threshold=6.2001684104650296 6.517499546671405 5.7574781101099743
decision_type=2 2 2
left_child=2 -2 -1
right_child=1 -3 -4
leaf_value=0.0059966237583105536 0.086064955538023569 0.0021407124388179654 -0.072396669927966714
leaf_weight=7.2817106023430807 4.3814822882413855 126.393539942801 4.6981476843357086
leaf_count=35 20 580 21
internal_value=0 0.0495251 -0.247469
internal_weight=0 130.775 11.9799
internal_count=656 600 56
shrinkage=0.1


Tree=65
num_leaves=4
num_cat=0
split_feature=1 0 0
split_gain=2.75021 1.34315 2.50005
threshold=0.74521353866213602 12.832456808345684 12.271591469704775
decision_type=2 2 2
left_child=1 2 -1
right_child=-2 -3 -4
leaf_value=-0.0070142940069068231 0.117460583290873 -0.0088479455396118633 0.0587418893063325
leaf_weight=16.041704207658771 1.8803375437855709 115.28709517419338 9.0404638126492483
leaf_count=74 21 516 45
internal_value=0 -0.0428528 0.166865
internal_weight=0 140.369 25.0822
internal_count=656 635 119
shrinkage=0.1


Tree=66
num_leaves=4
num_cat=0
split_feature=3 3 5
split_gain=1.27675 3.23366 3.67532
threshold=21.500000000000004 29.500000000000004 2.1383330595080281
decision_type=2 2 2
left_child=-1 2 -2
right_child=1 -3 -4
leaf_value=0.0011292145173165053 -0.0078776672819926875 0.02109629331812525 -0.13105775664189437
leaf_weight=124.60219367966056 5.1295495592057723 7.5794643424451342 4.5893752221018076
leaf_count=571 24 40 21
internal_value=0 -0.278629 -0.660446
internal_weight=0 17.2984 9.71892
internal_count=656 85 45
shrinkage=0.1


Tree=67
num_leaves=4
num_cat=0
split_feature=7 6 6
split_gain=1.08608 2.52493 2.23487
threshold=9.5560672639387771 39.500000000000007 33.500000000000007
decision_type=2 2 2
left_child=-1 2 -2
right_child=1 -3 -4
leaf_value=-0.01059538474855648 0.0015631206980524868 -0.055063542695320392 0.044544046404436606
leaf_weight=73.538126695901155 46.011035591363907 5.9979014992713919 16.413161858916283
leaf_count=339 213 28 76
internal_value=0 0.0690952 0.128641
internal_weight=0 68.4221 62.4242
internal_count=656 317 289
shrinkage=0.1


Tree=68
num_leaves=4
num_cat=0
split_feature=1 3 3
split_gain=2.42267 1.16852 2.97253
threshold=0.74521353866213602 22.500000000000004 29.500000000000004
decision_type=2 2 2
left_child=1 -1 -3
right_child=-2 2 -4
leaf_value=-0.00022369292946878875 0.11578609585788602 -0.072624868083808122 0.016234484445268944
leaf_weight=124.95690066367388 1.7265891917049874 7.7924552112817747 7.2832073643803596
leaf_count=564 21 35 36
internal_value=0 -0.0339663 -0.29696
internal_weight=0 140.033 15.0757
internal_count=656 635 71
shrinkage=0.1


Tree=69
num_leaves=4
num_cat=0
split_feature=2 2 2
split_gain=1.00158 1.39765 1.99351
threshold=0.72498443100505827 0.59229270261409817 0.4910841654727508
decision_type=2 2 2
left_child=1 2 -1
right_child=-2 -3 -4
leaf_value=-0.0088518784848902812 0.053263125706192418 -0.033558446992258857 0.017755795554114408
leaf_weight=82.053719583898783 3.2347734253853551 13.528802357614039 42.869702290743589
leaf_count=379 20 61 196
internal_value=0 -0.0302739 0.0027902
internal_weight=0 138.452 124.923
internal_count=656 636 575
shrinkage=0.1


Tree=70
num_leaves=4
num_cat=0
split_feature=1 1 7
split_gain=1.9723 1.9393 4.58284
threshold=0.74521353866213602 0.47539291436863779 9.4782513252422884
decision_type=2 2 2
left_child=1 2 -1
right_child=-2 -3 -4
leaf_value=-0.010271193083091226 0.11424727449269317 -0.012603356919231602 0.036798281897679586
leaf_weight=44.919370524585247 1.5746503937989462 56.468560129404068 38.340593472123146
leaf_count=203 21 258 174
internal_value=0 0.0170186 0.114039
internal_weight=0 139.729 83.26
internal_count=656 635 377
shrinkage=0.1


Tree=71
num_leaves=4
num_cat=0
split_feature=0 2 2
split_gain=2.39853 3.14767 3.19526
threshold=14.556313305698998 0.58500000000000008 0.45751634139032415
decision_type=2 2 2
left_child=-1 2 -2
right_child=1 -3 -4
leaf_value=0.010306264363963971 -0.039223235274153542 -0.090176223016198501 0.025452867710512129
leaf_weight=105.00057338550687 15.432217463850977 5.377511426806449 15.125637724995611
leaf_count=492 75 24 65
internal_value=0 -0.196251 -0.0720962
internal_weight=0 35.9354 30.5579
internal_count=656 164 140
shrinkage=0.1


Tree=72
num_leaves=4
num_cat=0
split_feature=4 5 5
split_gain=1.22812 3.49568 1.45661
threshold=2.8029010331479989 4.2190749920378936 3.9019216517693867
decision_type=2 2 2
left_child=2 -2 -1
right_child=1 -3 -4
leaf_value=0.006092738118175481 -0.092181732152455897 -0.0016227833530714022 0.064604611170807916
leaf_weight=91.061456456780434 4.7665866464376441 40.309769686311483 4.463099241256713
leaf_count=423 21 192 20
internal_value=0 -0.111989 0.0882653
internal_weight=0 45.0764 95.5246
internal_count=656 213 443
shrinkage=0.1


Tree=73
num_leaves=4
num_cat=0
split_feature=0 6 0
split_gain=2.07732 2.63006 1.89087
threshold=14.237371233397699 18.500000000000004 13.344707890597869
decision_type=2 2 2
left_child=1 2 -1
right_child=-2 -3 -4
leaf_value=-0.0027955043666118527 -0.013699281900393207 0.02138523592647076 -0.073240925991790051
leaf_weight=17.092707319185141 52.003349386155605 66.573429264128208 4.9033215753734103
leaf_count=78 240 315 23
internal_value=0 0.114801 -0.184991
internal_weight=0 88.5695 21.996
internal_count=656 416 101
shrinkage=0.1


Tree=74
num_leaves=4
num_cat=0
split_feature=2 2 5
split_gain=1.37737 1.83585 2.08713
threshold=0.58500000000000008 0.72498443100505827 1.2424533248940004
decision_type=2 2 2
left_child=-1 2 -2
right_child=1 -3 -4
leaf_value=0.0061042618854731459 -0.0032323012174749056 0.049116193867214497 -0.072041737404834036
leaf_weight=119.29309834353626 9.8314833045005852 3.1156977154314509 7.9910749569535247
leaf_count=555 45 20 36
internal_value=0 -0.217037 -0.340843
internal_weight=0 20.9383 17.8226
internal_count=656 101 81
shrinkage=0.1


Tree=75
num_leaves=4
num_cat=0
split_feature=7 7 6
split_gain=1.21991 1.27962 2.93768
threshold=13.628628010542267 12.567824028307674 30.500000000000004
decision_type=2 2 2
left_child=1 -1 -3
right_child=-2 2 -4
leaf_value=-0.0013347944872241634 0.032466886957437012 -0.090926228033979026 0.018920964646021134
leaf_weight=120.77344964817166 9.7799117341637594 5.146901208907364 4.6199131906032562
leaf_count=561 49 26 20
internal_value=0 -0.0415031 -0.389661
internal_weight=0 130.54 9.76681
internal_count=656 607 46
shrinkage=0.1


Tree=76
num_leaves=4
num_cat=0
split_feature=1 0 0
split_gain=1.8543 1.21917 3.3908
threshold=0.74521353866213602 12.832456808345684 12.271591469704775
decision_type=2 2 2
left_child=1 2 -1
right_child=-2 -3 -4
leaf_value=-0.0095229745379507933 0.1125535844959899 -0.0069516492418307254 0.068253698706852259
leaf_weight=16.103724360466007 1.4127306528389443 114.20718058943748 8.5982269272208196
leaf_count=74 21 517 44
internal_value=0 -0.0259467 0.175494
internal_weight=0 138.909 24.702
internal_count=656 635 118
shrinkage=0.1


Tree=77
num_leaves=4
num_cat=0
split_feature=5 5 4
split_gain=0.83226 3.67391 3.02837
threshold=4.3032426494475002 3.0677824455408698 2.9174053685313028
decision_type=2 2 2
left_child=1 -1 -2
right_child=2 -3 -4
leaf_value=-0.0018260225831144912 0.085814514761554828 -0.088977582824958282 0.00096127925911843244
leaf_weight=92.034316847100854 4.7277277559041968 5.1053490936756125 38.115435615181923
leaf_count=429 21 23 183
internal_value=0 -0.0640643 0.103248
internal_weight=0 97.1397 42.8432
internal_count=656 452 204
shrinkage=0.1


Tree=78
num_leaves=4
num_cat=0
split_feature=1 6 6
split_gain=1.65114 1.22986 2.64558
threshold=0.74521353866213602 31.500000000000004 30.500000000000004
decision_type=2 2 2
left_child=1 2 -1
right_child=-2 -3 -4
leaf_value=-0.00044900632408308432 0.11132529359909643 -0.01436658095173172 0.060245974639474634
leaf_weight=78.655302077531815 1.2928974758833636 51.985392436385155 7.903072550892829
leaf_count=363 21 237 35
internal_value=0 -0.0220898 0.0509265
internal_weight=0 138.544 86.5584
internal_count=656 635 398
shrinkage=0.1


Tree=79
num_leaves=4
num_cat=0
split_feature=0 2 3
split_gain=1.02943 3.32696 2.30462
threshold=12.832456808345684 0.43417452113104288 1.0000000180025095e-35
decision_type=2 2 2
left_child=1 -1 -2
right_child=2 -3 -4
leaf_value=0.060732188516110092 -0.04789312044459465 -0.013473568736585232 -0.00035278948601023585
leaf_weight=10.348190303891899 11.311000987887381 14.51882649771869 103.5426844842732
leaf_count=50 63 77 466
internal_value=0 0.174065 -0.0503465
internal_weight=0 24.867 114.854
internal_count=656 127 529
shrinkage=0.1


Tree=80
num_leaves=4
num_cat=0
split_feature=5 5 4
split_gain=0.930361 2.70185 2.26507
threshold=8.4965762142342083 7.7548161954807009 6.9631828253739796
decision_type=2 2 2
left_child=1 2 -1
right_child=-2 -3 -4
leaf_value=-0.00059779631754114078 -0.033800407630196226 0.071235732211737249 -0.071946886174130836
leaf_weight=121.07054459303617 8.8696329202502948 5.0703822188079348 4.6191983669996253
leaf_count=568 40 25 23
internal_value=0 -0.00332824 -0.0321993
internal_weight=0 130.76 125.69
internal_count=656 616 591
shrinkage=0.1


Tree=81
num_leaves=4
num_cat=0
split_feature=6 0 6
split_gain=3.33355 2.65747 2.48146
threshold=17.500000000000004 14.237371233397699 11.500000000000002
decision_type=2 2 2
left_child=2 -2 -1
right_child=1 -3 -4
leaf_value=0.0023392035901486996 0.016657048591807787 -0.013906315906525078 -0.066961526837725091
leaf_weight=8.7539425939321536 70.684822397306561 47.611254595220089 12.60954907722771
leaf_count=41 335 220 60
internal_value=0 0.0435605 -0.385647
internal_weight=0 118.296 21.3635
internal_count=656 555 101
shrinkage=0.1


Tree=82
num_leaves=4
num_cat=0
split_feature=2 3 3
split_gain=1.15378 1.06986 1.38773
threshold=0.68331846023096865 1.0000000180025095e-35 5.5000000000000009
decision_type=2 2 2
left_child=1 -1 -3
right_child=-2 2 -4
leaf_value=-0.030814484516871611 0.055992938525079805 0.012881643356038622 -0.0089429106040206808
leaf_weight=12.905497513711451 3.3488355334848157 47.338264280930161 75.766443215310574
leaf_count=71 22 216 347
internal_value=0 -0.034222 -0.00550571
internal_weight=0 136.01 123.105
internal_count=656 634 563
shrinkage=0.1


Tree=83
num_leaves=4
num_cat=0
split_feature=6 7 7
split_gain=2.74405 5.68658 3.82079
threshold=17.500000000000004 8.5878040544179477 10.775772288744948
decision_type=2 2 2
left_child=1 -1 -3
right_child=-2 2 -4
leaf_value=0.019012503314077563 0.0041629925620727875 -0.13634796417815229 -0.017980817933830617
leaf_weight=10.202914275228979 118.03168722242117 6.2213839590549451 4.8552526384592056
leaf_count=50 555 29 22
internal_value=0 -0.3485 -0.844638
internal_weight=0 21.2796 11.0766
internal_count=656 101 51
shrinkage=0.1


Tree=84
num_leaves=4
num_cat=0
split_feature=1 0 3
split_gain=1.45387 0.776934 2.27598
threshold=0.74521353866213602 14.237371233397699 22.500000000000004
decision_type=2 2 2
left_child=1 2 -1
right_child=-2 -3 -4
leaf_value=0.0090328096760930211 0.11088941672653663 -0.012424261777434617 -0.040965821747285878
leaf_weight=77.331626780331135 1.1391790509223927 50.514315567910671 10.31933446228504
leaf_count=352 20 234 50
internal_value=0 -0.0254638 0.0314636
internal_weight=0 138.165 87.651
internal_count=656 636 402
shrinkage=0.1


Tree=85
num_leaves=4
num_cat=0
split_feature=2 2 2
split_gain=0.795178 1.58524 1.3455
threshold=0.34230769230842573 0.25462966546447091 0.41160748377265605
decision_type=2 2 2
left_child=1 -1 -2
right_child=2 -3 -4
leaf_value=0.015422985688071432 0.046415476122663113 -0.067656853858321389 3.3898978754929012e-05
leaf_weight=4.391640851274131 6.5890236496925345 4.8145752400159836 123.19084150716662
leaf_count=22 30 25 579
internal_value=0 -0.280253 0.0238873
internal_weight=0 9.20622 129.78
internal_count=656 47 609
shrinkage=0.1


Tree=86
num_leaves=4
num_cat=0
split_feature=6 6 7
split_gain=1.57633 1.47164 2.06411
threshold=37.500000000000007 27.500000000000004 6.3300121016989221
decision_type=2 2 2
left_child=1 -1 -3
right_child=-2 2 -4
leaf_value=-0.0074189425558853191 -0.024029888815133002 -0.044398160869275866 0.020571807490844345
leaf_weight=52.504706976935267 22.292686831206083 5.3340226262807837 58.741501802578568
leaf_count=250 105 25 276
internal_value=0 0.0499286 0.151633
internal_weight=0 116.58 64.0755
internal_count=656 551 301
shrinkage=0.1


Tree=87
num_leaves=4
num_cat=0
split_feature=3 0 3
split_gain=2.70468 1.67729 2.09463
threshold=39.000000000000007 12.832456808345684 3.5000000000000004
decision_type=2 2 2
left_child=1 -1 -3
right_child=-2 2 -4
leaf_value=0.022028759745812768 0.086392644192141488 -0.029178238364182915 0.001407971440926088
leaf_weight=23.970996420830488 3.5555666536092749 31.067097149789333 80.165353691205382
leaf_count=121 20 158 357
internal_value=0 -0.0196416 -0.0713472
internal_weight=0 135.203 111.232
internal_count=656 636 515
shrinkage=0.1


Tree=88
num_leaves=4
num_cat=0
split_feature=5 5 5
split_gain=0.661614 4.01559 1.42764
threshold=4.3032426494475002 3.0677824455408698 8.4965762142342083
decision_type=2 2 2
left_child=1 -1 -2
right_child=2 -3 -4
leaf_value=0.00046136960895158972 0.02043809276943391 -0.091993057466693284 -0.024346781560120496
leaf_weight=91.303188001736999 32.899079727008939 4.9526178240776053 9.0831543616950494
leaf_count=431 160 23 42
internal_value=0 -0.0429566 0.107486
internal_weight=0 96.2558 41.9822
internal_count=656 454 202
shrinkage=0.1


Tree=89
num_leaves=4
num_cat=0
split_feature=0 6 6
split_gain=1.50893 1.87473 3.61198
threshold=12.832456808345684 37.500000000000007 27.500000000000004
decision_type=2 2 2
left_child=-1 2 -2
right_child=1 -3 -4
leaf_value=0.022292067408111148 -0.023382567372297453 -0.032600223780501481 0.0170375037613337
leaf_weight=25.34181132633239 36.277764115482569 19.859638221561909 56.602137060835958
leaf_count=131 172 93 260
internal_value=0 -0.0471296 0.0124991
internal_weight=0 112.74 92.8799
internal_count=656 525 432
shrinkage=0.1


Tree=90
num_leaves=4
num_cat=0
split_feature=5 5 3
split_gain=0.741057 1.83724 3.61999
threshold=4.9697891863402415 5.9698019847387966 5.5000000000000009
decision_type=2 2 2
left_child=-1 -2 -3
right_child=1 2 -4
leaf_value=-0.0060778435729892596 0.060789710692948411 0.039450690139764183 -0.028931417895318747
leaf_weight=100.76511571183801 6.0625933706760398 13.654251458123328 17.877158327959478
leaf_count=475 29 62 90
internal_value=0 0.10374 0.00680531
internal_weight=0 37.594 31.5314
internal_count=656 181 152
shrinkage=0.1


Tree=91
num_leaves=4
num_cat=0
split_feature=6 6 7
split_gain=0.987359 2.43246 4.41122
threshold=31.500000000000004 27.500000000000004 10.84887561085039
decision_type=2 2 2
left_child=1 -1 -3
right_child=-2 2 -4
leaf_value=-0.0085672345290894198 -0.012289092430213738 0.050865389039938827 -0.02536217772603382
leaf_weight=51.710840034298599 52.248854165896773 23.047799877822399 11.320401499047874
leaf_count=247 248 106 55
internal_value=0 0.0513721 0.257571
internal_weight=0 86.079 34.3682
internal_count=656 408 161
shrinkage=0.1


Tree=92
num_leaves=4
num_cat=0
split_feature=1 1 3
split_gain=1.3335 0.925637 1.23747
threshold=0.74521353866213602 0.47539291436863779 8.5000000000000018
decision_type=2 2 2
left_child=1 2 -1
right_child=-2 -3 -4
leaf_value=-0.0052430854881458889 0.10997293846132761 -0.012269422330264113 0.019863183481087628
leaf_weight=50.544535204768181 1.0686669936403621 54.60998272895813 32.10060803592205
leaf_count=232 20 255 149
internal_value=0 -0.0216693 0.0450856
internal_weight=0 137.255 82.6451
internal_count=656 636 381
shrinkage=0.1


Tree=93
num_leaves=4
num_cat=0
split_feature=2 5 4
split_gain=0.719355 0.842952 1.73186
threshold=0.34230769230842573 4.9697891863402415 3.6755791132153472
decision_type=2 2 2
left_child=-1 2 -2
right_child=1 -3 -4
leaf_value=-0.029419790314418083 -0.00096088685591149163 0.013877331831653964 -0.060025600626189557
leaf_weight=8.4605610705912095 89.094382606446743 35.221482482738793 5.2572135329246512
leaf_count=44 419 169 24
internal_value=0 0.00676091 -0.0425194
internal_weight=0 129.573 94.3516
internal_count=656 612 443
shrinkage=0.1


Tree=94
num_leaves=4
num_cat=0
split_feature=1 7 1
split_gain=1.19066 1.02974 2.48675
threshold=0.74521353866213602 9.3315101985609719 0.47539291436863779
decision_type=2 2 2
left_child=1 -1 -3
right_child=-2 2 -4
leaf_value=-0.011071298784595757 0.10899539213899463 0.022531431679140495 -0.014773915658160122
leaf_weight=64.171908602118492 0.97616848256438882 41.091877244412899 31.617052048444748
leaf_count=300 20 189 147
internal_value=0 -0.0183894 0.0630942
internal_weight=0 136.881 72.7089
internal_count=656 636 336
shrinkage=0.1


Tree=95
num_leaves=4
num_cat=0
split_feature=0 2 2
split_gain=0.718576 1.71638 2.22515
threshold=14.556313305698998 0.45751634139032415 0.58500000000000008
decision_type=2 2 2
left_child=-1 -2 -3
right_child=1 2 -4
leaf_value=0.0071418202650813034 -0.034424191379108342 0.029159538597261787 -0.049877762874256285
leaf_weight=102.42175312433392 15.405942417681215 14.858087010681631 4.6852356493473044
leaf_count=492 77 65 22
internal_value=0 -0.0946433 0.102115
internal_weight=0 34.9493 19.5433
internal_count=656 164 87
shrinkage=0.1


Tree=96
num_leaves=4
num_cat=0
split_feature=7 7 5
split_gain=0.68799 1.86359 1.88615
threshold=13.979123466685694 13.201294574229101 8.4965762142342083
decision_type=2 2 2
left_child=1 2 -1
right_child=-2 -3 -4
leaf_value=0.0068174844668959277 0.034248925959574329 -0.054020798094065549 -0.043847370948642127
leaf_weight=116.86234052851796 6.5512840552255502 5.870724666863679 7.8409144710749379
leaf_count=557 34 28 37
internal_value=0 0.0103974 0.0363185
internal_weight=0 130.574 124.703
internal_count=656 622 594
shrinkage=0.1


Tree=97
num_leaves=4
num_cat=0
split_feature=1 1 6
split_gain=1.00498 0.924668 1.66381
threshold=0.74521353866213602 0.47539291436863779 15.500000000000002
decision_type=2 2 2
left_child=1 2 -1
right_child=-2 -3 -4
leaf_value=-0.02731609084613941 0.10782684158262915 -0.0083820092074509481 0.014136653073401648
leaf_weight=11.23076845705509 0.89766134880483051 54.7412184253335 70.246853172779083
leaf_count=51 21 258 326
internal_value=0 0.0166962 0.0842286
internal_weight=0 136.219 81.4776
internal_count=656 635 377
shrinkage=0.1


Tree=98
num_leaves=4
num_cat=0
split_feature=2 3 3
split_gain=0.61608 3.08891 2.90444
threshold=0.4910841654727508 2.5000000000000004 2.5000000000000004
decision_type=2 2 2
left_child=1 -1 -2
right_child=2 -3 -4
leaf_value=-0.043064108337932956 0.054128955977831961 0.0063572713524610155 -0.0012840625552874201
leaf_weight=15.874361759051679 11.838824559003113 62.198360789567232 47.051587969064713
leaf_count=89 55 283 229
internal_value=0 -0.0369147 0.098557
internal_weight=0 78.0727 58.8904
internal_count=656 372 284
shrinkage=0.1


Tree=99
num_leaves=4
num_cat=0
split_feature=7 7 6
split_gain=0.624435 0.930843 1.26198
threshold=5.5996601586801704 6.0489114716233017 33.500000000000007
decision_type=2 2 2
left_child=-1 -2 -3
right_child=1 2 -4
leaf_value=-0.033317495273990819 0.043797396363497741 -0.0049355974881082516 0.017038172452449971
leaf_weight=4.8511308394372454 5.4194473288953295 89.588112655095756 36.90188148804009
leaf_count=25 25 430 176
internal_value=0 0.0321378 0.0147498
internal_weight=0 131.909 126.49
internal_count=656 631 606
shrinkage=0.1


Tree=100
num_leaves=4
num_cat=0
split_feature=0 3 0
split_gain=1.18132 1.55475 2.53874
threshold=14.114929550266593 6.5000000000000009 13.768356267678653
decision_type=2 2 2
left_child=1 2 -1
right_child=-2 -3 -4
leaf_value=0.0154261007893273 -0.0096959366041989691 0.024445923769834309 -0.03472791198190224
leaf_weight=26.333247446455061 58.252099452540278 35.865052793174982 16.364792637526989
leaf_count=121 277 183 75
internal_value=0 0.0909662 -0.0379633
internal_weight=0 78.5631 42.698
internal_count=656 379 196
shrinkage=0.1


Tree=101
num_leaves=4
num_cat=0
split_feature=5 4 5
split_gain=0.834674 3.56589 2.59112
threshold=4.3032426494475002 3.4811217321331038 3.0677824455408698
decision_type=2 2 2
left_child=2 -2 -1
right_child=1 -3 -4
leaf_value=-0.000270359700101664 0.091709935700323139 0.0018727643164243156 -0.074435493266410108
leaf_weight=90.494292953051627 5.0393245816230765 35.853245705366135 4.9694205671548835
leaf_count=433 23 176 24
internal_value=0 0.129437 -0.0413107
internal_weight=0 40.8926 95.4637
internal_count=656 199 457
shrinkage=0.1


Tree=102
num_leaves=4
num_cat=0
split_feature=6 7 6
split_gain=0.762935 3.1218 4.57373
threshold=31.500000000000004 6.384651962567804 33.500000000000007
decision_type=2 2 2
left_child=-1 -2 -3
right_child=1 2 -4
leaf_value=0.0066901141357374495 -0.081381146402871182 -0.060401959944717032 0.016284373750877362
leaf_weight=85.106126452796161 5.3059403002262107 9.932289155200122 35.847503588534892
leaf_count=411 26 47 172
internal_value=0 -0.0876916 -0.00353335
internal_weight=0 51.0857 45.7798
internal_count=656 245 219
shrinkage=0.1


Tree=103
num_leaves=4
num_cat=0
split_feature=0 3 3
split_gain=0.962548 1.25033 2.22417
threshold=14.114929550266593 6.5000000000000009 18.500000000000004
decision_type=2 2 2
left_child=1 -1 -3
right_child=-2 2 -4
leaf_value=-0.0035176013200978241 -0.0089509973022990491 0.039456834389755689 -0.01375641708376458
leaf_weight=42.516193917021155 58.055817311629653 23.805595512501895 11.722517212852834
leaf_count=196 277 117 66
internal_value=0 0.0805284 0.218991
internal_weight=0 78.0443 35.5281
internal_count=656 379 183
shrinkage=0.1


Tree=104
num_leaves=4
num_cat=0
split_feature=5 4 5
split_gain=0.69179 2.89244 2.09446
threshold=4.3032426494475002 3.4811217321331038 3.0677824455408698
decision_type=2 2 2
left_child=2 -2 -1
right_child=1 -3 -4
leaf_value=-0.00049861299622745248 0.083151612890123447 0.0016955498463075221 -0.067876924854157819
leaf_weight=90.287456962279975 4.9655444249510756 35.70587426610291 4.8619573414325705
leaf_count=433 23 176 24
internal_value=0 0.116405 -0.0394152
internal_weight=0 40.6714 95.1494
internal_count=656 199 457
shrinkage=0.1


end of trees

feature importances:
target_amount=46
category=46
images=45
period=44
tfidf-sum=40
twitter_followers=38
method=30
twitter_friends=26

parameters:
[boosting: gbdt]
[objective: binary]
[metric: binary_logloss]
[tree_learner: serial]
[device_type: cpu]
[data: ]
[valid: ]
[num_iterations: 100]
[learning_rate: 0.1]
[num_leaves: 4]
[num_threads: -1]
[max_depth: -1]
[min_data_in_leaf: 20]
[min_sum_hessian_in_leaf: 0.001]
[bagging_fraction: 0.938519]
[pos_bagging_fraction: 1]
[neg_bagging_fraction: 1]
[bagging_freq: 5]
[bagging_seed: 3]
[feature_fraction: 0.4]
[feature_fraction_bynode: 1]
[feature_fraction_seed: 2]
[early_stopping_round: 0]
[first_metric_only: 0]
[max_delta_step: 0]
[lambda_l1: 0]
[lambda_l2: 0]
[min_gain_to_split: 0]
[drop_rate: 0.1]
[max_drop: 50]
[skip_drop: 0.5]
[xgboost_dart_mode: 0]
[uniform_drop: 0]
[drop_seed: 4]
[top_rate: 0.2]
[other_rate: 0.1]
[min_data_per_group: 100]
[max_cat_threshold: 32]
[cat_l2: 10]
[cat_smooth: 10]
[max_cat_to_onehot: 4]
[top_k: 20]
[monotone_constraints: ]
[feature_contri: ]
[forcedsplits_filename: ]
[forcedbins_filename: ]
[refit_decay_rate: 0.9]
[cegb_tradeoff: 1]
[cegb_penalty_split: 0]
[cegb_penalty_feature_lazy: ]
[cegb_penalty_feature_coupled: ]
[verbosity: -1]
[max_bin: 255]
[max_bin_by_feature: ]
[min_data_in_bin: 3]
[bin_construct_sample_cnt: 200000]
[histogram_pool_size: -1]
[data_random_seed: 1]
[output_model: LightGBM_model.txt]
[snapshot_freq: -1]
[input_model: ]
[output_result: LightGBM_predict_result.txt]
[initscore_filename: ]
[valid_data_initscores: ]
[pre_partition: 0]
[enable_bundle: 1]
[max_conflict_rate: 0]
[is_enable_sparse: 1]
[sparse_threshold: 0.8]
[use_missing: 1]
[zero_as_missing: 0]
[two_round: 0]
[save_binary: 0]
[header: 0]
[label_column: ]
[weight_column: ]
[group_column: ]
[ignore_column: ]
[categorical_feature: ]
[predict_raw_score: 0]
[predict_leaf_index: 0]
[predict_contrib: 0]
[num_iteration_predict: -1]
[pred_early_stop: 0]
[pred_early_stop_freq: 10]
[pred_early_stop_margin: 10]
[convert_model_language: ]
[convert_model: gbdt_prediction.cpp]
[num_class: 1]
[is_unbalance: 0]
[scale_pos_weight: 1]
[sigmoid: 1]
[boost_from_average: 1]
[reg_sqrt: 0]
[alpha: 0.9]
[fair_c: 1]
[poisson_max_delta_step: 0.7]
[tweedie_variance_power: 1.5]
[max_position: 20]
[lambdamart_norm: 1]
[label_gain: ]
[metric_freq: 1]
[is_provide_training_metric: 0]
[eval_at: ]
[multi_error_top_k: 1]
[num_machines: 1]
[local_listen_port: 12400]
[time_out: 120]
[machine_list_filename: ]
[machines: ]
[gpu_platform_id: -1]
[gpu_device_id: -1]
[gpu_use_dp: 0]

end of parameters

pandas_categorical:[]
