tree
version=v3
num_class=1
num_tree_per_iteration=1
label_index=0
max_feature_idx=6
objective=binary sigmoid:1
feature_names=target_amount category images twitter_friends twitter_followers period tfidf-sum
feature_infos=[9.2103403719761836:17.72753356339242] [0.20000018636581479:0.99857607693703532] [0:89] [-inf:9.8267684821227235] [0:12.778398742736679] [2:45] [0:17.626582269260254]
tree_sizes=534 532 536 536 533 536 538 533 535 538 537 542 536 539 539 541 539 538 540 538 537 539 540 536 533 535 538 536 540 537 538 539 536 540 535 539 536 539 540 540 535 538 540 544 534 536 537 537 538 536 538 538 542 533 539 539 539 538 538 534 541 538 536 538 535 545 539 540 540 537 535 542 536 545 539 537 537 539 537 536 540 539

Tree=0
num_leaves=4
num_cat=0
split_feature=6 0 6
split_gain=65.0962 31.2298 16.4371
threshold=1.0000000180025095e-35 13.14197373398097 9.7523030833159634
decision_type=2 2 2
left_child=-1 -2 -3
right_child=1 2 -4
leaf_value=-0.41840592887311878 -0.15551554909342313 -0.28392194670036158 -0.20983313269500578
leaf_weight=18.482332304120064 51.257668256759644 63.086360931396484 56.925583496689796
leaf_count=75 208 256 231
internal_value=0 0.192408 -0.0861634
internal_weight=0 171.27 120.012
internal_count=770 695 487
shrinkage=1


Tree=1
num_leaves=4
num_cat=0
split_feature=6 2 4
split_gain=54.3788 28.572 16.8153
threshold=4.9813222320636337 9.5000000000000018 4.8509304223420848
decision_type=2 2 10
left_child=-1 2 -2
right_child=1 -3 -4
leaf_value=-0.16080824325804274 -0.037010649513094643 0.071769187450616487 0.052078622906281173
leaf_weight=18.936333060264587 79.37278014421463 62.317336231470108 28.859458968043327
leaf_count=79 322 252 117
internal_value=0 0.178118 -0.131947
internal_weight=0 170.55 108.232
internal_count=770 691 439
shrinkage=0.1


Tree=2
num_leaves=4
num_cat=0
split_feature=6 0 6
split_gain=45.9795 25.1913 15.9231
threshold=1.0000000180025095e-35 12.83245412977786 9.7275884063132505
decision_type=2 2 2
left_child=-1 -2 -3
right_child=1 2 -4
leaf_value=-0.15565229258075475 0.091829770824033929 -0.036375261646546961 0.031837590189709969
leaf_weight=17.2613225877285 34.591429650783539 71.373345956206322 65.704181537032127
leaf_count=75 139 291 265
internal_value=0 0.155658 -0.0363134
internal_weight=0 171.669 137.078
internal_count=770 695 556
shrinkage=0.1


Tree=3
num_leaves=4
num_cat=0
split_feature=6 2 0
split_gain=39.1391 21.559 13.8498
threshold=1.0000000180025095e-35 9.5000000000000018 14.114928808508628
decision_type=2 2 2
left_child=-1 -2 -3
right_child=1 2 -4
leaf_value=-0.14755608929505595 -0.012850029095841493 0.096610870370683485 -0.00051889595762433043
leaf_weight=16.430170834064484 108.8637051731348 39.616618245840073 23.109725117683411
leaf_count=75 443 159 93
internal_value=0 0.140062 0.607212
internal_weight=0 171.59 62.7263
internal_count=770 695 252
shrinkage=0.1


Tree=4
num_leaves=4
num_cat=0
split_feature=6 0 4
split_gain=33.5714 18.8643 12.0055
threshold=1.0000000180025095e-35 13.14197373398097 6.8297931531439326
decision_type=2 2 10
left_child=-1 -2 -3
right_child=1 2 -4
leaf_value=-0.1409537359438808 0.063044960307464981 -0.0245768923334439 0.056040975844020048
leaf_weight=15.526257455348967 51.7851532548666 96.882191687822342 22.795486494898796
leaf_count=75 208 395 92
internal_value=0 0.126045 -0.0916625
internal_weight=0 171.463 119.678
internal_count=770 695 487
shrinkage=0.1


Tree=5
num_leaves=4
num_cat=0
split_feature=6 2 4
split_gain=28.9821 16.8394 12.3285
threshold=1.0000000180025095e-35 9.5000000000000018 4.8509304223420848
decision_type=2 2 10
left_child=-1 2 -2
right_child=1 -3 -4
leaf_value=-0.13548640073234913 -0.032807168574878524 0.052659460366248405 0.0432888517121848
leaf_weight=14.58589732646942 79.579632416367531 62.651247903704643 29.014207929372787
leaf_count=75 326 252 117
internal_value=0 0.113544 -0.124151
internal_weight=0 171.245 108.594
internal_count=770 695 443
shrinkage=0.1


Tree=6
num_leaves=4
num_cat=0
split_feature=6 0 6
split_gain=25.1551 15.3938 11.3237
threshold=1.0000000180025095e-35 12.83245412977786 9.9614036195792242
decision_type=2 2 2
left_child=-1 -2 -3
right_child=1 2 -4
leaf_value=-0.13090129047349769 0.069920635975010054 -0.030308173260768529 0.027740086431800398
leaf_weight=13.635990768671034 34.502189964056015 76.617885157465935 59.801499992609024
leaf_count=75 139 315 241
internal_value=0 0.102337 -0.0481356
internal_weight=0 170.922 136.419
internal_count=770 695 556
shrinkage=0.1


Tree=7
num_leaves=4
num_cat=0
split_feature=6 2 4
split_gain=21.9376 12.5221 9.6589
threshold=4.9813222320636337 10.500000000000002 4.8509304223420848
decision_type=2 2 10
left_child=-1 2 -2
right_child=1 -3 -4
leaf_value=-0.12224031989069997 -0.02772363016495093 0.047565227596169969 0.038349103168884825
leaf_weight=13.635036915540693 81.780745849013329 57.489342376589775 30.27488973736763
leaf_count=79 337 232 122
internal_value=0 0.0960364 -0.098135
internal_weight=0 169.545 112.056
internal_count=770 691 459
shrinkage=0.1


Tree=8
num_leaves=4
num_cat=0
split_feature=6 0 6
split_gain=19.2997 12.8276 9.83656
threshold=1.0000000180025095e-35 13.604713312945252 10.806203212496829
decision_type=2 2 2
left_child=-1 2 -2
right_child=1 -3 -4
leaf_value=-0.1238079947999644 0.019300440722249797 -0.012591268021995936 0.10753597256157832
leaf_weight=11.815065890550612 45.036334380507469 107.29373617470264 17.705958351492882
leaf_count=75 183 440 72
internal_value=0 0.0836461 0.443056
internal_weight=0 170.036 62.7423
internal_count=770 695 255
shrinkage=0.1


Tree=9
num_leaves=4
num_cat=0
split_feature=6 2 0
split_gain=16.9527 10.7325 9.37948
threshold=1.0000000180025095e-35 3.5000000000000004 14.018243112018359
decision_type=2 2 2
left_child=-1 -2 -3
right_child=1 2 -4
leaf_value=-0.12092562614963452 -0.031739943093601085 0.046310935051754328 -0.010627410153212844
leaf_weight=10.932341963052748 49.216895207762718 72.647837087512016 47.812915623188019
leaf_count=75 203 297 195
internal_value=0 0.075493 0.236565
internal_weight=0 169.678 120.461
internal_count=770 695 492
shrinkage=0.1


Tree=10
num_leaves=4
num_cat=0
split_feature=6 0 2
split_gain=14.9326 9.9012 8.08933
threshold=1.0000000180025095e-35 12.83245412977786 3.5000000000000004
decision_type=2 2 2
left_child=-1 -2 -3
right_child=1 2 -4
leaf_value=-0.11842328168633556 0.055201573218880931 -0.0425100295960592 0.010737193919910883
leaf_weight=10.090216621756552 33.840171307325363 40.781520113348961 94.709332704544067
leaf_count=75 139 170 386
internal_value=0 0.0679922 -0.0524113
internal_weight=0 169.331 135.491
internal_count=770 695 556
shrinkage=0.1


Tree=11
num_leaves=4
num_cat=0
split_feature=6 2 4
split_gain=13.1908 8.44881 7.91721
threshold=1.0000000180025095e-35 27.500000000000004 5.1463438840891298
decision_type=2 2 10
left_child=-1 2 -2
right_child=1 -3 -4
leaf_value=-0.11623687949776923 -0.014554232890307529 0.079217243328115292 0.036339925193416736
leaf_weight=9.2928875237703306 112.36471585929394 14.465876191854475 41.980775579810143
leaf_count=75 465 60 170
internal_value=0 0.0613787 -0.00668745
internal_weight=0 168.811 154.345
internal_count=770 695 635
shrinkage=0.1


Tree=12
num_leaves=4
num_cat=0
split_feature=6 0 6
split_gain=11.6797 7.98888 7.42151
threshold=1.0000000180025095e-35 13.604713312945252 10.806203212496829
decision_type=2 2 2
left_child=-1 2 -2
right_child=1 -3 -4
leaf_value=-0.11431508858709419 0.01253065475894706 -0.010992555951071507 0.090166618552041888
leaf_weight=8.5426373407244665 44.653408035635948 106.63194379210472 17.143582165241241
leaf_count=75 183 440 72
internal_value=0 0.0554036 0.341748
internal_weight=0 168.429 61.797
internal_count=770 695 255
shrinkage=0.1


Tree=13
num_leaves=4
num_cat=0
split_feature=6 2 6
split_gain=10.3639 7.08906 7.8284
threshold=1.0000000180025095e-35 10.500000000000002 10.685594698071082
decision_type=2 2 2
left_child=-1 2 -2
right_child=1 -3 -4
leaf_value=-0.11261637776368959 -0.02530914517678013 0.033981587124740663 0.034912053479525827
leaf_weight=7.8403037041425696 82.538676708936691 56.259540900588036 29.167148396372795
leaf_count=75 344 232 119
internal_value=0 0.0500752 -0.0952602
internal_weight=0 167.965 111.706
internal_count=770 695 463
shrinkage=0.1


Tree=14
num_leaves=4
num_cat=0
split_feature=6 1 0
split_gain=9.21177 6.91949 7.40324
threshold=1.0000000180025095e-35 0.33333333521830205 13.49333204976902
decision_type=2 2 2
left_child=-1 -2 -3
right_child=1 2 -4
leaf_value=-0.11110665489971916 -0.067420982348376568 0.041174169339933959 -0.0051116429231533745
leaf_weight=7.1856530383229247 12.359259948134421 51.770253762602806 103.35445663332939
leaf_count=75 51 216 428
internal_value=0 0.0451888 0.10293
internal_weight=0 167.484 155.125
internal_count=770 695 644
shrinkage=0.1


Tree=15
num_leaves=4
num_cat=0
split_feature=6 4 0
split_gain=8.20004 6.48191 6.89594
threshold=1.0000000180025095e-35 6.8839053995434281 14.237370577483935
decision_type=2 10 2
left_child=-1 2 -2
right_child=1 -3 -4
leaf_value=-0.10975761248207366 0.010582314856058463 0.047314239442668111 -0.037053419616964747
leaf_weight=6.5776700153946868 93.356788963079453 28.730259999632835 44.99450621008873
leaf_count=75 390 117 188
internal_value=0 0.0407035 -0.0486214
internal_weight=0 167.082 138.351
internal_count=770 695 578
shrinkage=0.1


Tree=16
num_leaves=4
num_cat=0
split_feature=6 6 2
split_gain=7.31044 6.00353 5.89434
threshold=1.0000000180025095e-35 13.528603790209067 3.5000000000000004
decision_type=2 2 2
left_child=-1 2 -2
right_child=1 -3 -4
leaf_value=-0.10854552843111297 -0.031340980101040965 0.070872160568771048 0.011179345491374686
leaf_weight=6.0147838667035094 46.736488431692123 12.31568621098995 107.66551797091961
leaf_count=75 197 51 447
internal_value=0 0.0366909 -0.0164863
internal_weight=0 166.718 154.402
internal_count=770 695 644
shrinkage=0.1


Tree=17
num_leaves=4
num_cat=0
split_feature=6 0 5
split_gain=6.52572 5.6143 7.59251
threshold=1.0000000180025095e-35 11.80681879742129 18.500000000000004
decision_type=2 2 2
left_child=-1 -2 -3
right_child=1 2 -4
leaf_value=-0.10745031414657874 0.062979104089383162 -0.054233793779448973 0.0072744699571863471
leaf_weight=5.4950416088104239 14.409837305545805 23.781774520874023 128.20464682579041
leaf_count=75 62 99 534
internal_value=0 0.0330755 -0.0230658
internal_weight=0 166.396 151.986
internal_count=770 695 633
shrinkage=0.1


Tree=18
num_leaves=4
num_cat=0
split_feature=6 1 0
split_gain=5.83204 5.44178 5.38546
threshold=1.0000000180025095e-35 0.33333333521830205 13.49333204976902
decision_type=2 2 2
left_child=-1 -2 -3
right_child=1 2 -4
leaf_value=-0.10645477325751895 -0.061151964810224203 0.03468313914550588 -0.0049992479975202531
leaf_weight=5.0162466242909423 12.231985822319983 51.073628410696983 102.89703731238842
leaf_count=75 51 216 428
internal_value=0 0.0298313 0.0812103
internal_weight=0 166.203 153.971
internal_count=770 695 644
shrinkage=0.1


Tree=19
num_leaves=4
num_cat=0
split_feature=4 4 2
split_gain=5.50355 6.67434 6.34595
threshold=5.1463438840891298 2.8029010331479989 10.500000000000002
decision_type=10 10 2
left_child=1 2 -1
right_child=-2 -3 -4
leaf_value=-0.01989628969745658 0.02909786125152429 -0.084383525965119305 0.031298739540347585
leaf_weight=77.262356407940388 46.530257049947977 11.341481521725653 35.222621895372868
leaf_count=358 203 53 156
internal_value=0 -0.112403 -0.0380695
internal_weight=0 123.826 112.485
internal_count=770 567 514
shrinkage=0.1


Tree=20
num_leaves=4
num_cat=0
split_feature=6 0 5
split_gain=5.18143 4.82128 7.59597
threshold=13.528603790209067 13.604713312945252 18.500000000000004
decision_type=2 2 2
left_child=1 -1 -3
right_child=-2 2 -4
leaf_value=0.017491475700613032 0.062739601954977534 -0.096570899590202847 -0.0086444453729025341
leaf_weight=59.028137423098087 12.142201885581015 11.108941368758677 87.459864534437656
leaf_count=266 51 54 399
internal_value=0 -0.050531 -0.186208
internal_weight=0 157.597 98.5688
internal_count=770 719 453
shrinkage=0.1


Tree=21
num_leaves=4
num_cat=0
split_feature=6 2 0
split_gain=5.10918 4.39742 4.36565
threshold=1.0000000180025095e-35 27.500000000000004 14.961777936534547
decision_type=2 2 2
left_child=-1 2 -2
right_child=1 -3 -4
leaf_value=-0.10538899715542956 0.0038073144391478522 0.057409087649514356 -0.050225832193974709
leaf_weight=4.4937686845660201 134.39211271703243 13.48827278614044 16.812589317560196
leaf_count=75 564 60 71
internal_value=0 0.0268133 -0.0215712
internal_weight=0 164.693 151.205
internal_count=770 695 635
shrinkage=0.1


Tree=22
num_leaves=4
num_cat=0
split_feature=6 4 2
split_gain=4.5748 4.37375 4.77546
threshold=1.0000000180025095e-35 6.8839053995434281 3.5000000000000004
decision_type=2 10 2
left_child=-1 2 -2
right_child=1 -3 -4
leaf_value=-0.10456145568612868 -0.034217835086317747 0.038186775224000685 0.0069802222757297007
leaf_weight=4.096675217151641 39.66059947013855 28.336986854672432 96.367810055613518
leaf_count=75 171 117 407
internal_value=0 0.0241941 -0.0498311
internal_weight=0 164.365 136.028
internal_count=770 695 578
shrinkage=0.1


Tree=23
num_leaves=4
num_cat=0
split_feature=1 6 4
split_gain=4.16533 4.09262 3.8375
threshold=0.33333333521830205 1.0000000180025095e-35 5.1463438840891298
decision_type=2 2 8
left_child=-1 -2 -3
right_child=1 2 -4
leaf_value=-0.056115113199449132 -0.1036300947961641 -0.040394949753411222 0.012126463282282934
leaf_weight=12.332559909671543 3.4306946694850913 15.450489342212675 136.47902716696262
leaf_count=57 69 65 579
internal_value=0 0.0426229 0.0674194
internal_weight=0 155.36 151.93
internal_count=770 713 644
shrinkage=0.1


Tree=24
num_leaves=4
num_cat=0
split_feature=5 6 2
split_gain=4.0655 6.06778 6.44596
threshold=18.500000000000004 9.1181640457854609 12.500000000000002
decision_type=2 2 2
left_child=-1 2 -2
right_child=1 -3 -4
leaf_value=-0.03314029041026572 -0.032180230805948271 0.02520356043934088 0.058713185163299909
leaf_weight=30.579989556223154 48.304675944149494 79.101275011897087 9.2656823284924013
leaf_count=145 242 333 50
internal_value=0 0.0719385 -0.17437
internal_weight=0 136.672 57.5704
internal_count=770 625 292
shrinkage=0.1


Tree=25
num_leaves=4
num_cat=0
split_feature=0 6 2
split_gain=3.83497 4.31677 5.38938
threshold=12.83245412977786 9.5725344230496248 11.500000000000002
decision_type=2 2 2
left_child=-1 2 -2
right_child=1 -3 -4
leaf_value=0.030794035215426438 -0.037187390941379281 0.010391024944511136 0.042032530430512985
leaf_weight=32.268748946487904 57.789143729954958 66.752986639738083 10.012848101556299
leaf_count=154 289 276 51
internal_value=0 -0.0759064 -0.253912
internal_weight=0 134.555 67.802
internal_count=770 616 340
shrinkage=0.1


Tree=26
num_leaves=4
num_cat=0
split_feature=6 0 5
split_gain=3.60882 3.49425 4.92206
threshold=1.0000000180025095e-35 11.80681879742129 18.500000000000004
decision_type=2 2 2
left_child=-1 -2 -3
right_child=1 2 -4
leaf_value=-0.10298411710396854 0.050373679934480109 -0.044896642330666842 0.0053056146488171356
leaf_weight=3.3435624465346327 13.671587854623793 23.096219718456268 125.9452957212925
leaf_count=75 62 99 534
internal_value=0 0.0196642 -0.0242979
internal_weight=0 162.713 149.042
internal_count=770 695 633
shrinkage=0.1


Tree=27
num_leaves=4
num_cat=0
split_feature=4 4 0
split_gain=3.5009 4.99722 4.41073
threshold=5.1463438840891298 2.8029010331479989 13.49333204976902
decision_type=10 10 2
left_child=1 -1 -2
right_child=2 -3 -4
leaf_value=-0.0025723047061021079 0.0719347505058546 -0.073589354418217318 0.0032431950492952202
leaf_weight=109.11425662785769 13.306838557124136 10.926648940891026 32.168715789914131
leaf_count=514 64 53 139
internal_value=0 -0.0909145 0.234882
internal_weight=0 120.041 45.4756
internal_count=770 567 203
shrinkage=0.1


Tree=28
num_leaves=4
num_cat=0
split_feature=6 1 5
split_gain=3.46601 3.0648 3.25185
threshold=13.528603790209067 0.33333333521830205 15.500000000000002
decision_type=2 2 2
left_child=1 -1 -3
right_child=-2 2 -4
leaf_value=-0.053580495210542735 0.051995931475113645 -0.039259145851738439 0.0057560113703534303
leaf_weight=11.595335282385347 11.843576326966284 18.449627036228776 123.23318747058511
leaf_count=55 51 91 573
internal_value=0 -0.0415107 -0.000592793
internal_weight=0 153.278 141.683
internal_count=770 719 664
shrinkage=0.1


Tree=29
num_leaves=4
num_cat=0
split_feature=2 0 4
split_gain=3.35082 3.75162 4.1412
threshold=29.500000000000004 14.556312828426384 6.8839053995434281
decision_type=2 2 10
left_child=1 2 -1
right_child=-2 -3 -4
leaf_value=-0.002833489871552014 0.054543288129250536 -0.031506866019598449 0.050212844874069663
leaf_weight=99.971401711925864 10.502470538020132 37.231091357767582 17.225593015551567
leaf_count=469 52 172 77
internal_value=0 -0.0382934 0.0490705
internal_weight=0 154.428 117.197
internal_count=770 718 546
shrinkage=0.1


Tree=30
num_leaves=4
num_cat=0
split_feature=6 0 5
split_gain=3.20422 2.8103 3.61627
threshold=1.0000000180025095e-35 11.80681879742129 18.500000000000004
decision_type=2 2 2
left_child=-1 -2 -3
right_child=1 2 -4
leaf_value=-0.10225330639406449 0.045772711497567682 -0.038713954108260534 0.0045199049275017559
leaf_weight=3.0140991993248454 13.350639894604681 22.861653953790665 125.21200017631054
leaf_count=75 62 99 534
internal_value=0 0.0180875 -0.0211066
internal_weight=0 161.424 148.074
internal_count=770 695 633
shrinkage=0.1


Tree=31
num_leaves=4
num_cat=0
split_feature=6 1 0
split_gain=2.8755 2.78044 2.54386
threshold=1.0000000180025095e-35 0.33333333521830205 13.49333204976902
decision_type=2 2 2
left_child=-1 -2 -3
right_child=1 2 -4
leaf_value=-0.10160702100905648 -0.045313884633250534 0.024092384223307232 -0.0036851040360305282
leaf_weight=2.7437410596758118 11.672847360372542 48.818724572658539 100.6852994710207
leaf_count=75 51 216 428
internal_value=0 0.0163181 0.0534124
internal_weight=0 161.177 149.504
internal_count=770 695 644
shrinkage=0.1


Tree=32
num_leaves=4
num_cat=0
split_feature=6 2 1
split_gain=2.82439 2.76711 4.6399
threshold=13.528603790209067 3.5000000000000004 0.48051948051948029
decision_type=2 2 2
left_child=1 2 -1
right_child=-2 -3 -4
leaf_value=-0.043087518296260688 0.047328579775174323 0.0050776157562511673 0.029640017898308963
leaf_weight=34.03379418887198 11.657701775431631 105.89899908192456 11.708448188379405
leaf_count=166 51 496 57
internal_value=0 -0.0374902 -0.243278
internal_weight=0 151.641 45.7422
internal_count=770 719 223
shrinkage=0.1


Tree=33
num_leaves=4
num_cat=0
split_feature=6 0 4
split_gain=2.57288 2.49949 2.71785
threshold=1.0000000180025095e-35 14.556312828426384 6.8839053995434281
decision_type=2 2 10
left_child=-1 2 -2
right_child=1 -3 -4
leaf_value=-0.10096782212038653 0.0021353138403618264 -0.021077043045482056 0.044046937630678622
leaf_weight=2.4894841257482758 104.66493299603462 37.485133558511734 18.242981150746346
leaf_count=75 455 161 79
internal_value=0 0.014774 0.0840976
internal_weight=0 160.393 122.908
internal_count=770 695 534
shrinkage=0.1


Tree=34
num_leaves=4
num_cat=0
split_feature=2 0 4
split_gain=2.50003 2.80741 2.79392
threshold=29.500000000000004 14.961777936534547 4.8509304223420848
decision_type=2 2 8
left_child=1 2 -1
right_child=-2 -3 -4
leaf_value=-0.045237508776670821 0.048085282455442357 -0.04173769640529329 0.0059254772450742631
leaf_weight=11.671966535970567 10.103367451578377 16.889694292098284 123.73967074789107
leaf_count=56 52 80 582
internal_value=0 -0.032812 0.0146678
internal_weight=0 152.301 135.412
internal_count=770 718 638
shrinkage=0.1


Tree=35
num_leaves=4
num_cat=0
split_feature=5 6 2
split_gain=2.41973 4.47883 4.15934
threshold=18.500000000000004 8.2313083350212963 1.0000000180025095e-35
decision_type=2 2 2
left_child=1 -1 -2
right_child=2 -3 -4
leaf_value=0.022132383491606844 -0.047211060512076124 -0.057524351470434054 0.011633838398918593
leaf_weight=11.527325734496118 13.329235011711715 17.851212814450264 119.34398143179715
leaf_count=66 68 79 557
internal_value=0 -0.260451 0.0567225
internal_weight=0 29.3785 132.673
internal_count=770 145 625
shrinkage=0.1


Tree=36
num_leaves=4
num_cat=0
split_feature=6 0 5
split_gain=2.33645 2.22575 4.28237
threshold=13.528603790209067 13.604713312945252 18.500000000000004
decision_type=2 2 2
left_child=1 -1 -3
right_child=-2 2 -4
leaf_value=0.012299724273906583 0.043369617780456705 -0.074875950587506998 -0.0054073434637359795
leaf_weight=56.197166504338384 11.500959903001784 9.9611983560025674 84.308838400989771
leaf_count=266 51 54 399
internal_value=0 -0.0339297 -0.128177
internal_weight=0 150.467 94.27
internal_count=770 719 453
shrinkage=0.1


Tree=37
num_leaves=4
num_cat=0
split_feature=6 1 5
split_gain=2.31358 2.21692 2.23254
threshold=1.0000000180025095e-35 0.33333333521830205 39.500000000000007
decision_type=2 2 2
left_child=-1 -2 -3
right_child=1 2 -4
leaf_value=-0.10038657724100777 -0.04097308504011575 0.0086990192947580432 -0.033216866800246631
leaf_weight=2.2666477654129258 11.44985195994377 133.75978446006775 13.997743397951124
leaf_count=75 51 583 61
internal_value=0 0.0135867 0.0468356
internal_weight=0 159.207 147.758
internal_count=770 695 644
shrinkage=0.1


Tree=38
num_leaves=4
num_cat=0
split_feature=6 0 6
split_gain=2.07726 1.94729 2.51641
threshold=1.0000000180025095e-35 11.80681879742129 12.953608484910388
decision_type=2 2 2
left_child=-1 -2 -3
right_child=1 2 -4
leaf_value=-0.099785204828132523 0.038508116452320662 -0.0065155825688509653 0.036610435680154561
leaf_weight=2.0626872833818188 12.884760543704031 131.17430949211121 15.068196222186087
leaf_count=75 62 568 65
internal_value=0 0.0121377 -0.0202703
internal_weight=0 159.127 146.243
internal_count=770 695 633
shrinkage=0.1


Tree=39
num_leaves=4
num_cat=0
split_feature=4 4 0
split_gain=1.95207 3.96119 2.97725
threshold=5.1463438840891298 2.8029010331479989 13.49333204976902
decision_type=10 10 2
left_child=1 -1 -2
right_child=2 -3 -4
leaf_value=-0.00098773698210268077 0.059327363324747452 -0.065450760232809727 0.0013396525966749373
leaf_weight=106.15355045907199 12.435408640652893 10.498988572508095 31.600658802315593
leaf_count=514 64 53 139
internal_value=0 -0.0684601 0.178644
internal_weight=0 116.653 44.0361
internal_count=770 567 203
shrinkage=0.1


Tree=40
num_leaves=4
num_cat=0
split_feature=5 6 2
split_gain=1.89424 3.8703 3.33029
threshold=18.500000000000004 8.2313083350212963 1.0000000180025095e-35
decision_type=2 2 2
left_child=1 -1 -2
right_child=2 -3 -4
leaf_value=0.021980180552782828 -0.042834033909643604 -0.052699390101903415 0.01036117260936654
leaf_weight=11.311795253306629 13.039199231192468 17.590181589126587 118.37128033488989
leaf_count=66 68 79 557
internal_value=0 -0.232431 0.0503276
internal_weight=0 28.902 131.41
internal_count=770 145 625
shrinkage=0.1


Tree=41
num_leaves=4
num_cat=0
split_feature=2 0 1
split_gain=1.89801 2.30087 2.34104
threshold=29.500000000000004 14.961777936534547 0.50943643512450854
decision_type=2 2 2
left_child=1 2 -1
right_child=-2 -3 -4
leaf_value=0.0070361622432984555 0.042729773155322739 -0.03803499535845517 -0.030130032842766552
leaf_weight=114.04511480778456 9.7355424202978593 16.537773970514536 19.886271679773927
leaf_count=536 52 80 102
internal_value=0 -0.0282947 0.0146851
internal_weight=0 150.469 133.931
internal_count=770 718 638
shrinkage=0.1


Tree=42
num_leaves=4
num_cat=0
split_feature=6 1 5
split_gain=1.87636 1.86004 1.91195
threshold=1.0000000180025095e-35 0.33333333521830205 39.500000000000007
decision_type=2 2 2
left_child=-1 -2 -3
right_child=1 2 -4
leaf_value=-0.099231468098818665 -0.037937640845243079 0.0079026469228971243 -0.031027258533953796
leaf_weight=1.8850989025086153 11.284962385892866 132.9652498960495 13.89358441531658
leaf_count=75 51 583 61
internal_value=0 0.0112809 0.0417484
internal_weight=0 158.144 146.859
internal_count=770 695 644
shrinkage=0.1


Tree=43
num_leaves=4
num_cat=0
split_feature=6 0 2
split_gain=1.68489 1.71382 2.49998
threshold=1.0000000180025095e-35 12.83245412977786 1.0000000180025095e-35
decision_type=2 2 2
left_child=-1 -2 -3
right_child=1 2 -4
leaf_value=-0.098629189692486977 0.022666295017320023 -0.045293004822349436 0.00069508172983471432
leaf_weight=1.715602371841668 29.745872616767883 13.141933888196943 115.1713819950819
leaf_count=75 139 62 494
internal_value=0 0.0100623 -0.0396372
internal_weight=0 158.059 128.313
internal_count=770 695 556
shrinkage=0.1


Tree=44
num_leaves=4
num_cat=0
split_feature=5 6 6
split_gain=1.70754 3.32204 2.87951
threshold=18.500000000000004 8.2313083350212963 9.1181640457854609
decision_type=2 2 2
left_child=1 -1 -2
right_child=2 -3 -4
leaf_value=0.019888780395068861 -0.012823328155320139 -0.049451361232943761 0.017309211023516475
leaf_weight=11.243190372362735 53.956297398544848 17.520274981856346 76.520804852247238
leaf_count=66 292 79 333
internal_value=0 -0.221184 0.04798
internal_weight=0 28.7635 130.477
internal_count=770 145 625
shrinkage=0.1


Tree=45
num_leaves=4
num_cat=0
split_feature=1 4 3
split_gain=1.58444 1.7047 3.05154
threshold=0.33333333521830205 5.1463438840891298 6.9716527643684314
decision_type=2 10 10
left_child=-1 -2 -3
right_child=1 2 -4
leaf_value=-0.036167034216156704 -0.003987258937059532 0.040802472115475566 -0.014828750428745124
leaf_weight=11.289081756025551 106.040447127074 26.141116239130497 15.614129567518829
leaf_count=57 518 123 72
internal_value=0 0.0270036 0.198418
internal_weight=0 147.796 41.7552
internal_count=770 713 195
shrinkage=0.1


Tree=46
num_leaves=4
num_cat=0
split_feature=5 5 6
split_gain=1.58396 2.04775 3.05282
threshold=38.500000000000007 18.500000000000004 9.5725344230496248
decision_type=2 2 2
left_child=1 -1 -3
right_child=-2 2 -4
leaf_value=-0.019830089207198111 -0.025672856024943215 -0.0065413402197371162 0.026836882254239899
leaf_weight=28.754649801179767 20.958003697916865 54.426418938674033 54.70003841817379
leaf_count=145 98 288 239
internal_value=0 0.0383357 0.101293
internal_weight=0 137.881 109.126
internal_count=770 672 527
shrinkage=0.1


Tree=47
num_leaves=4
num_cat=0
split_feature=0 6 6
split_gain=1.56644 4.93197 4.01866
threshold=14.114928808508628 10.806203212496829 8.4938707564836466
decision_type=2 2 2
left_child=1 2 -1
right_child=-2 -3 -4
leaf_value=0.018328479842672291 -0.012000488252361977 0.046863655208944546 -0.029809208004862475
leaf_weight=35.079976081848145 64.915531870909035 24.43596276640892 34.179237887263298
leaf_count=190 315 115 150
internal_value=0 0.082103 -0.0533225
internal_weight=0 93.6952 69.2592
internal_count=770 455 340
shrinkage=0.1


Tree=48
num_leaves=4
num_cat=0
split_feature=6 0 1
split_gain=1.49382 1.5024 2.0229
threshold=1.0000000180025095e-35 11.80681879742129 0.50943643512450854
decision_type=2 2 2
left_child=-1 -2 -3
right_child=1 2 -4
leaf_value=-0.097948095167024851 0.034159740708460666 0.0028593822360870958 -0.030946061918297969
leaf_weight=1.5434768106788386 12.526470653712748 123.5999690592289 20.62921679019928
leaf_count=75 62 541 92
internal_value=0 0.00911785 -0.0193017
internal_weight=0 156.756 144.229
internal_count=770 695 633
shrinkage=0.1


Tree=49
num_leaves=4
num_cat=0
split_feature=2 0 2
split_gain=1.39767 1.84062 2.26232
threshold=29.500000000000004 14.556312828426384 5.5000000000000009
decision_type=2 2 2
left_child=1 -1 -3
right_child=-2 2 -4
leaf_value=0.0037913584805451296 0.03742586630275202 0.0047018882295178843 -0.045500223305025539
leaf_weight=113.03040303476155 9.3622776269912702 16.396373453550041 19.275320673361421
leaf_count=546 52 83 89
internal_value=0 -0.0240902 -0.222404
internal_weight=0 148.702 35.6717
internal_count=770 718 172
shrinkage=0.1


Tree=50
num_leaves=4
num_cat=0
split_feature=4 5 5
split_gain=1.41393 2.64962 2.48532
threshold=7.7589318924002137 38.500000000000007 27.500000000000004
decision_type=10 2 2
left_child=1 2 -1
right_child=-2 -3 -4
leaf_value=-0.013772575502618616 0.029070394563534982 -0.038407413479706554 0.014697089893353036
leaf_weight=54.763280565850437 15.094114704057572 18.529301171191037 69.498838607221842
leaf_count=276 70 87 337
internal_value=0 -0.0311268 0.0209729
internal_weight=0 142.791 124.262
internal_count=770 700 613
shrinkage=0.1


Tree=51
num_leaves=4
num_cat=0
split_feature=6 2 1
split_gain=1.38222 1.58295 3.95736
threshold=13.528603790209067 3.5000000000000004 0.48051948051948029
decision_type=2 2 2
left_child=1 2 -1
right_child=-2 -3 -4
leaf_value=-0.036340191080109649 0.034039466847460224 0.0041299183246941281 0.032064113243530132
leaf_weight=32.557216696441174 11.070830851793287 102.82788304891437 11.330068429931996
leaf_count=166 51 496 57
internal_value=0 -0.0260371 -0.185307
internal_weight=0 146.715 43.8873
internal_count=770 719 223
shrinkage=0.1


Tree=52
num_leaves=4
num_cat=0
split_feature=6 4 3
split_gain=1.34265 1.32141 2.66793
threshold=1.0000000180025095e-35 5.1463438840891298 6.9716527643684314
decision_type=2 8 8
left_child=-1 -2 -3
right_child=1 2 -4
leaf_value=-0.097335582815868793 -0.02647012638495759 0.032327831678392649 -0.0026795541886745411
leaf_weight=1.4052006639540184 15.841244503855703 26.881714038550857 113.29895740002394
leaf_count=75 70 119 506
internal_value=0 0.00852091 0.0398665
internal_weight=0 156.022 140.181
internal_count=770 695 625
shrinkage=0.1


Tree=53
num_leaves=4
num_cat=0
split_feature=0 6 5
split_gain=1.29175 2.26819 1.71
threshold=12.83245412977786 5.2469374953510322 27.500000000000004
decision_type=2 2 2
left_child=-1 -2 -3
right_child=1 2 -4
leaf_value=0.018838431995502839 -0.11725411355754763 -0.01958098210003777 0.0052704567867906541
leaf_weight=29.466741968877614 1.7589154327288259 40.94819538295269 84.938427180051804
leaf_count=154 64 184 368
internal_value=0 -0.0439014 -0.0276086
internal_weight=0 127.646 125.887
internal_count=770 616 552
shrinkage=0.1


Tree=54
num_leaves=4
num_cat=0
split_feature=1 1 6
split_gain=1.25126 1.56871 2.69471
threshold=0.33333333521830205 0.38196555217831818 8.2652537911961677
decision_type=2 2 2
left_child=-1 2 -2
right_child=1 -3 -4
leaf_value=-0.032449405016220567 0.061977387366754157 -0.0026556784485541598 -0.00061403001376878559
leaf_weight=11.06821848452091 11.106019539758565 117.03500582370907 17.532871425151825
leaf_count=57 61 575 77
internal_value=0 0.0242718 0.234286
internal_weight=0 145.674 28.6389
internal_count=770 713 138
shrinkage=0.1


Tree=55
num_leaves=4
num_cat=0
split_feature=5 2 1
split_gain=1.14472 3.05141 2.28837
threshold=15.500000000000002 27.500000000000004 0.50943643512450854
decision_type=2 2 2
left_child=-1 2 -2
right_child=1 -3 -4
leaf_value=-0.022778312753974812 0.004640743385649986 0.057775897984840743 -0.033177505857032399
leaf_weight=19.406696312129498 109.11971559654921 9.5264036227017623 18.738238339312375
leaf_count=100 525 55 90
internal_value=0 0.0316706 -0.00850204
internal_weight=0 137.384 127.858
internal_count=770 670 615
shrinkage=0.1


Tree=56
num_leaves=4
num_cat=0
split_feature=0 1 1
split_gain=1.14618 1.69312 1.50046
threshold=14.556312828426384 0.40852298081223132 0.50943643512450854
decision_type=2 2 2
left_child=2 -2 -1
right_child=1 -3 -4
leaf_value=0.0097155249458419721 -0.038347345938378734 0.0045087331470818146 -0.020261461396613924
leaf_weight=100.14249701984227 17.250590317882597 19.288778936490417 19.93923285510391
leaf_count=483 86 92 109
internal_value=0 -0.155438 0.0468308
internal_weight=0 36.5394 120.082
internal_count=770 178 592
shrinkage=0.1


Tree=57
num_leaves=4
num_cat=0
split_feature=0 6 2
split_gain=1.1421 2.03692 1.58411
threshold=12.83245412977786 5.2469374953510322 1.0000000180025095e-35
decision_type=2 2 2
left_child=-1 -2 -3
right_child=1 2 -4
leaf_value=0.017745512139239718 -0.1155002524659222 -0.036666299128341608 0.0010083020664994567
leaf_weight=29.357232327573001 1.6242390116676677 12.350072145462034 113.26595769077539
leaf_count=154 64 60 492
internal_value=0 -0.0413568 -0.0264329
internal_weight=0 127.24 125.616
internal_count=770 616 552
shrinkage=0.1


Tree=58
num_leaves=4
num_cat=0
split_feature=4 3 5
split_gain=1.17758 2.2195 2.00303
threshold=5.1463438840891298 6.9716527643684314 18.500000000000004
decision_type=8 8 2
left_child=-1 -2 -3
right_child=1 2 -4
leaf_value=-0.025864164374375217 0.028779627024265099 -0.031098089575590539 0.0030843861622670775
leaf_weight=15.859969675540922 26.820252462290231 20.987751673907042 92.504212446510792
leaf_count=80 129 105 456
internal_value=0 0.0288297 -0.0317885
internal_weight=0 140.312 113.492
internal_count=770 690 561
shrinkage=0.1


Tree=59
num_leaves=4
num_cat=0
split_feature=5 6 6
split_gain=1.15678 1.73515 1.93872
threshold=38.500000000000007 5.8618378505580457 9.5725344230496248
decision_type=2 2 2
left_child=1 -1 -3
right_child=-2 2 -4
leaf_value=0.05366104614950426 -0.022119526263740301 -0.011521115449183314 0.013003781167558176
leaf_weight=6.5220679612830272 20.583473104052246 64.243872344493866 64.62368480861187
leaf_count=94 98 290 288
internal_value=0 0.0332501 0.00726366
internal_weight=0 135.39 128.868
internal_count=770 672 578
shrinkage=0.1


Tree=60
num_leaves=4
num_cat=0
split_feature=6 0 1
split_gain=1.06525 1.12625 1.54397
threshold=1.0000000180025095e-35 11.80681879742129 0.50943643512450854
decision_type=2 2 2
left_child=-1 -2 -3
right_child=1 2 -4
leaf_value=-0.095976613699909105 0.029896264178594374 0.0024321093043632963 -0.027276376459143926
leaf_weight=1.1486458079889406 12.181691400706766 122.15157110244036 20.381075918674469
leaf_count=75 62 541 92
internal_value=0 0.0068094 -0.0176977
internal_weight=0 154.714 142.533
internal_count=770 695 633
shrinkage=0.1


Tree=61
num_leaves=4
num_cat=0
split_feature=1 4 3
split_gain=1.07656 1.29309 2.20303
threshold=0.33333333521830205 5.1463438840891298 6.9716527643684314
decision_type=2 8 8
left_child=-1 -2 -3
right_child=1 2 -4
leaf_value=-0.030293500981562145 -0.02585075255836683 0.031904735671615808 -0.00087859809366886289
leaf_weight=10.929074315354226 14.633011952042578 25.383017376065258 104.7204446317628
leaf_count=57 75 123 515
internal_value=0 0.0225503 0.0546677
internal_weight=0 144.736 130.103
internal_count=770 713 638
shrinkage=0.1


Tree=62
num_leaves=4
num_cat=0
split_feature=3 3 5
split_gain=1.12407 1.70268 1.42322
threshold=4.3502571242716384 6.548182155887857 18.500000000000004
decision_type=8 8 2
left_child=-1 -2 -3
right_child=1 2 -4
leaf_value=0.023514337538640424 -0.030330768287782729 -0.021756210423182633 0.0066501580262222281
leaf_weight=17.92906098999083 19.703101365827024 21.563544173724949 96.182439758442342
leaf_count=88 100 108 474
internal_value=0 -0.031075 0.0139199
internal_weight=0 137.449 117.746
internal_count=770 682 582
shrinkage=0.1


Tree=63
num_leaves=4
num_cat=0
split_feature=5 6 6
split_gain=1.01784 1.50396 1.58976
threshold=38.500000000000007 5.8618378505580457 9.9614036195792242
decision_type=2 2 2
left_child=1 -1 -3
right_child=-2 2 -4
leaf_value=0.050045427520769251 -0.020788264185167115 -0.0089153707558234981 0.013556823891427023
leaf_weight=6.5056881634518495 20.507489046081901 73.181083217263222 55.187508665025234
leaf_count=94 98 331 247
internal_value=0 0.0312373 0.00694443
internal_weight=0 134.874 128.369
internal_count=770 672 578
shrinkage=0.1


Tree=64
num_leaves=4
num_cat=0
split_feature=0 5 6
split_gain=1.01387 3.49886 3.45969
threshold=14.114928808508628 36.500000000000007 10.806203212496829
decision_type=2 2 2
left_child=2 -2 -1
right_child=1 -3 -4
leaf_value=-0.0046078276983159451 0.00395187567327707 -0.049588778208805188 0.039852444579115416
leaf_weight=68.199753842316568 47.22725797817111 16.37781310454011 23.46331650018692
leaf_count=340 237 78 115
internal_value=0 -0.0973088 0.0670097
internal_weight=0 63.6051 91.6631
internal_count=770 315 455
shrinkage=0.1


Tree=65
num_leaves=4
num_cat=0
split_feature=6 0 2
split_gain=0.997694 0.978822 1.44135
threshold=1.0000000180025095e-35 12.83245412977786 1.0000000180025095e-35
decision_type=2 2 2
left_child=-1 -2 -3
right_child=1 2 -4
leaf_value=-0.095553058643400288 0.017371534338028304 -0.035435089013061694 0.00038441709205738696
leaf_weight=1.0856468062847842 28.609557315707207 12.43668396770954 112.7907193005085
leaf_count=75 139 62 494
internal_value=0 0.006478 -0.0312033
internal_weight=0 153.837 125.227
internal_count=770 695 556
shrinkage=0.1


Tree=66
num_leaves=4
num_cat=0
split_feature=6 5 2
split_gain=0.971325 1.21531 2.09136
threshold=13.528603790209067 15.500000000000002 10.500000000000002
decision_type=2 2 2
left_child=1 -1 -3
right_child=-2 2 -4
leaf_value=-0.026169270068113312 0.028921701576899436 -0.0074232807900651027 0.020381777366599588
leaf_weight=18.461405934300274 10.781111985445021 85.827695733867586 39.452959951944649
leaf_count=97 51 427 195
internal_value=0 -0.0219924 0.0128042
internal_weight=0 143.742 125.281
internal_count=770 719 622
shrinkage=0.1


Tree=67
num_leaves=4
num_cat=0
split_feature=4 3 5
split_gain=0.910081 1.59044 1.45424
threshold=5.1463438840891298 6.9716527643684314 18.500000000000004
decision_type=8 8 2
left_child=-1 -2 -3
right_child=1 2 -4
leaf_value=-0.022899579761322817 0.024686093604510299 -0.026563317105215856 0.0027631000096121181
leaf_weight=15.628703923895953 26.355243761092428 20.680392018519342 91.528715962544084
leaf_count=80 129 105 456
internal_value=0 0.0255601 -0.0258313
internal_weight=0 138.564 112.209
internal_count=770 690 561
shrinkage=0.1


Tree=68
num_leaves=4
num_cat=0
split_feature=3 1 1
split_gain=0.923422 1.69496 1.74519
threshold=3.0201273556387074 0.33333333521830205 0.38196555217831818
decision_type=8 2 2
left_child=-1 -2 -3
right_child=1 2 -4
leaf_value=0.02910258667216082 -0.041150048482618128 0.023512281961468207 -0.0048482559717423178
leaf_weight=10.167625883594154 10.315133173484353 27.240191518329084 106.27978013269603
leaf_count=53 55 132 530
internal_value=0 -0.0208058 0.00888417
internal_weight=0 143.835 133.52
internal_count=770 717 662
shrinkage=0.1


Tree=69
num_leaves=4
num_cat=0
split_feature=0 5 6
split_gain=0.906414 2.9463 2.84716
threshold=14.114928808508628 36.500000000000007 11.068629075937855
decision_type=2 2 2
left_child=-1 2 -2
right_child=1 -3 -4
leaf_value=0.0063816956087862226 0.022515960408537108 -0.046051815051336764 -0.028278726865860623
leaf_weight=90.741959669627249 29.370448966510594 16.17956811003387 17.632062941789627
leaf_count=455 163 78 74
internal_value=0 -0.0921791 0.0332121
internal_weight=0 63.1821 47.0025
internal_count=770 315 237
shrinkage=0.1


Tree=70
num_leaves=4
num_cat=0
split_feature=6 1 2
split_gain=0.920637 1.11703 3.39731
threshold=13.528603790209067 0.50943643512450854 11.500000000000002
decision_type=2 2 2
left_child=1 -1 -3
right_child=-2 2 -4
leaf_value=0.0016960231087818458 0.028241889028463071 -0.055809974984252032 0.021040754888998217
leaf_weight=119.99949850235134 10.721605598926542 13.16280260961503 10.0609322367236
leaf_count=595 51 65 59
internal_value=0 -0.0213814 -0.222333
internal_weight=0 143.223 23.2237
internal_count=770 719 124
shrinkage=0.1


Tree=71
num_leaves=4
num_cat=0
split_feature=6 0 4
split_gain=0.898305 0.893253 1.2108
threshold=1.0000000180025095e-35 11.80681879742129 5.1463438840891298
decision_type=2 2 8
left_child=-1 -2 -3
right_child=1 2 -4
leaf_value=-0.094845596734160487 0.027009874814759024 -0.029598764238120343 0.0014499724438773987
leaf_weight=0.9923946438357224 11.845206156373022 13.911639884114264 126.98406090587378
leaf_count=75 62 63 570
internal_value=0 0.00604249 -0.0156895
internal_weight=0 152.741 140.896
internal_count=770 695 633
shrinkage=0.1


Tree=72
num_leaves=4
num_cat=0
split_feature=3 3 3
split_gain=0.866558 1.49576 1.30795
threshold=4.3502571242716384 6.548182155887857 8.0010197367119122
decision_type=8 8 8
left_child=-1 -2 -3
right_child=1 2 -4
leaf_value=0.020838174114952011 -0.0284317100273992 0.030266801416550665 -0.0023412901835705813
leaf_weight=17.639932494610548 19.418924710713327 13.954892020672558 102.45139162102714
leaf_count=88 100 65 517
internal_value=0 -0.0272123 0.0151122
internal_weight=0 135.825 116.406
internal_count=770 682 582
shrinkage=0.1


Tree=73
num_leaves=4
num_cat=0
split_feature=6 0 1
split_gain=0.803149 0.785781 1.50366
threshold=1.0000000180025095e-35 14.556312828426384 0.40852298081223132
decision_type=2 2 2
left_child=-1 -2 -3
right_child=1 2 -4
leaf_value=-0.094050788160077392 0.0045520774342839637 -0.034212667812205041 0.0067058534743156765
leaf_weight=0.9028363246470682 116.83554273098707 16.806071303784847 18.839520499110222
leaf_count=75 534 78 83
internal_value=0 0.00545634 -0.124015
internal_weight=0 152.481 35.6456
internal_count=770 695 161
shrinkage=0.1


Tree=74
num_leaves=4
num_cat=0
split_feature=1 2 5
split_gain=0.791261 2.39758 1.90964
threshold=0.50943643512450854 11.500000000000002 37.500000000000007
decision_type=2 2 2
left_child=2 -2 -1
right_child=1 -3 -4
leaf_value=0.0090323572073340106 -0.043073451757503232 0.018832271340500098 -0.022459539727793187
leaf_weight=104.34193888492882 14.409170233178886 10.883093188516794 23.549032635986805
leaf_count=520 71 66 113
internal_value=0 -0.161754 0.0318214
internal_weight=0 25.2923 127.891
internal_count=770 137 633
shrinkage=0.1


Tree=75
num_leaves=4
num_cat=0
split_feature=6 6 2
split_gain=0.765412 1.01729 1.18329
threshold=13.528603790209067 12.315206721751229 22.500000000000004
decision_type=2 2 2
left_child=1 2 -1
right_child=-2 -3 -4
leaf_value=0.0039505870086242682 0.025882379567624805 -0.029024136996166874 -0.027293462806472702
leaf_weight=116.24962351331487 10.62163872271776 12.651625365018843 13.52130407001823
leaf_count=589 51 57 73
internal_value=0 -0.0194486 0.00644404
internal_weight=0 142.423 129.771
internal_count=770 719 662
shrinkage=0.1


Tree=76
num_leaves=4
num_cat=0
split_feature=4 5 5
split_gain=0.750513 1.55457 1.53488
threshold=7.7589318924002137 38.500000000000007 27.500000000000004
decision_type=10 2 2
left_child=1 2 -1
right_child=-2 -3 -4
leaf_value=-0.010955455825984452 0.021576550115799391 -0.029923106029160769 0.01174076815054143
leaf_weight=53.006786122452468 14.572925999760626 17.763380127027631 67.815336481202394
leaf_count=276 70 87 337
internal_value=0 -0.022805 0.0172903
internal_weight=0 138.586 120.822
internal_count=770 700 613
shrinkage=0.1


Tree=77
num_leaves=4
num_cat=0
split_feature=0 6 5
split_gain=0.738509 1.73808 1.31104
threshold=12.83245412977786 5.2469374953510322 27.500000000000004
decision_type=2 2 2
left_child=-1 -2 -3
right_child=1 2 -4
leaf_value=0.014554752019888487 -0.11829099448080727 -0.016999065974576587 0.0050125257585093971
leaf_weight=28.362818623892963 1.3032705984078337 39.915489442646503 83.466981194913387
leaf_count=154 64 184 368
internal_value=0 -0.0332284 -0.0205507
internal_weight=0 124.686 123.382
internal_count=770 616 552
shrinkage=0.1


Tree=78
num_leaves=4
num_cat=0
split_feature=3 5 6
split_gain=0.705965 1.44542 3.45338
threshold=3.0201273556387074 18.500000000000004 9.0701255744104703
decision_type=8 2 2
left_child=-1 2 -2
right_child=1 -3 -4
leaf_value=0.025597241895636058 0.0090845107927660564 0.002754801816248128 -0.065600864516610527
leaf_weight=10.055091152898965 13.839138400740923 117.84811089839786 11.019676066935061
leaf_count=53 81 586 50
internal_value=0 -0.0181742 -0.237579
internal_weight=0 142.707 24.8588
internal_count=770 717 131
shrinkage=0.1


Tree=79
num_leaves=4
num_cat=0
split_feature=4 3 2
split_gain=0.748692 1.30719 1.27047
threshold=5.1463438840891298 6.9716527643684314 5.5000000000000009
decision_type=8 8 2
left_child=-1 2 -2
right_child=1 -3 -4
leaf_value=-0.020867155279441895 0.047933931019155697 -0.0023120470066434846 0.0027753147089837819
leaf_weight=15.458630395121871 11.239019700326031 111.36124149942771 14.729788503143935
leaf_count=80 53 561 76
internal_value=0 0.0234572 0.225731
internal_weight=0 137.33 25.9688
internal_count=770 690 129
shrinkage=0.1


Tree=80
num_leaves=4
num_cat=0
split_feature=5 2 0
split_gain=0.728618 2.40321 4.33505
threshold=31.500000000000004 3.5000000000000004 14.114928808508628
decision_type=2 2 2
left_child=-1 -2 -3
right_child=1 2 -4
leaf_value=0.0056943412192182359 -0.038011654389188777 0.037552693255840854 -0.026100731260021628
leaf_weight=90.872800072655082 19.001960729714483 20.752139242365956 22.021060879807919
leaf_count=468 97 105 100
internal_value=0 -0.0838141 0.0462782
internal_weight=0 61.7752 42.7732
internal_count=770 302 205
shrinkage=0.1


Tree=81
num_leaves=4
num_cat=0
split_feature=1 6 1
split_gain=0.716065 2.41612 1.56948
threshold=0.50943643512450854 9.7523030833159634 0.40852298081223132
decision_type=2 2 2
left_child=2 -2 -1
right_child=1 -3 -4
leaf_value=-0.0047067001833494687 0.020917544428845386 -0.041884354272093707 0.018864022714330519
leaf_weight=85.216752007137984 10.405437731649728 14.590542800724505 42.095669258851558
leaf_count=425 64 73 208
internal_value=0 -0.154774 0.0303519
internal_weight=0 24.996 127.312
internal_count=770 137 633
shrinkage=0.1


end of trees

feature importances:
tfidf-sum=74
target_amount=42
images=33
period=32
category=26
twitter_followers=26
twitter_friends=13

parameters:
[boosting: gbdt]
[objective: binary]
[metric: binary_logloss]
[tree_learner: serial]
[device_type: cpu]
[data: ]
[valid: ]
[num_iterations: 100]
[learning_rate: 0.1]
[num_leaves: 4]
[num_threads: -1]
[max_depth: -1]
[min_data_in_leaf: 50]
[min_sum_hessian_in_leaf: 0.001]
[bagging_fraction: 1]
[pos_bagging_fraction: 1]
[neg_bagging_fraction: 1]
[bagging_freq: 0]
[bagging_seed: 3]
[feature_fraction: 0.98]
[feature_fraction_bynode: 1]
[feature_fraction_seed: 2]
[early_stopping_round: 0]
[first_metric_only: 0]
[max_delta_step: 0]
[lambda_l1: 0.0658614]
[lambda_l2: 7.14613e-07]
[min_gain_to_split: 0]
[drop_rate: 0.1]
[max_drop: 50]
[skip_drop: 0.5]
[xgboost_dart_mode: 0]
[uniform_drop: 0]
[drop_seed: 4]
[top_rate: 0.2]
[other_rate: 0.1]
[min_data_per_group: 100]
[max_cat_threshold: 32]
[cat_l2: 10]
[cat_smooth: 10]
[max_cat_to_onehot: 4]
[top_k: 20]
[monotone_constraints: ]
[feature_contri: ]
[forcedsplits_filename: ]
[forcedbins_filename: ]
[refit_decay_rate: 0.9]
[cegb_tradeoff: 1]
[cegb_penalty_split: 0]
[cegb_penalty_feature_lazy: ]
[cegb_penalty_feature_coupled: ]
[verbosity: -1]
[max_bin: 255]
[max_bin_by_feature: ]
[min_data_in_bin: 3]
[bin_construct_sample_cnt: 200000]
[histogram_pool_size: -1]
[data_random_seed: 1]
[output_model: LightGBM_model.txt]
[snapshot_freq: -1]
[input_model: ]
[output_result: LightGBM_predict_result.txt]
[initscore_filename: ]
[valid_data_initscores: ]
[pre_partition: 0]
[enable_bundle: 1]
[max_conflict_rate: 0]
[is_enable_sparse: 1]
[sparse_threshold: 0.8]
[use_missing: 1]
[zero_as_missing: 0]
[two_round: 0]
[save_binary: 0]
[header: 0]
[label_column: ]
[weight_column: ]
[group_column: ]
[ignore_column: ]
[categorical_feature: ]
[predict_raw_score: 0]
[predict_leaf_index: 0]
[predict_contrib: 0]
[num_iteration_predict: -1]
[pred_early_stop: 0]
[pred_early_stop_freq: 10]
[pred_early_stop_margin: 10]
[convert_model_language: ]
[convert_model: gbdt_prediction.cpp]
[num_class: 1]
[is_unbalance: 0]
[scale_pos_weight: 1]
[sigmoid: 1]
[boost_from_average: 1]
[reg_sqrt: 0]
[alpha: 0.9]
[fair_c: 1]
[poisson_max_delta_step: 0.7]
[tweedie_variance_power: 1.5]
[max_position: 20]
[lambdamart_norm: 1]
[label_gain: ]
[metric_freq: 1]
[is_provide_training_metric: 0]
[eval_at: ]
[multi_error_top_k: 1]
[num_machines: 1]
[local_listen_port: 12400]
[time_out: 120]
[machine_list_filename: ]
[machines: ]
[gpu_platform_id: -1]
[gpu_device_id: -1]
[gpu_use_dp: 0]

end of parameters

pandas_categorical:[]
